tree
version=v4
num_class=1
num_tree_per_iteration=1
label_index=0
max_feature_idx=46
objective=binary sigmoid:1
feature_names=is_home lineup_confirmed opponent_lineup_size starter_starts_30d starter_avg_ip_30d starter_avg_so_30d starter_k_per_9_30d starter_era_30d starter_whip_30d starter_avg_pitches_30d starter_max_pitches_30d starter_avg_batters_faced_30d starter_prior_starts_vs_opp starter_prior_ip_vs_opp starter_prior_so_vs_opp starter_prior_k_per_9_vs_opp starter_prior_avg_pitches_vs_opp starter_prior_avg_batters_faced_vs_opp starter_days_since_last_vs_opp starter_last_so_vs_opp starter_k_percent_season starter_bb_percent_season starter_whiff_percent_season starter_primary_pitch_usage starter_primary_pitch_whiff_percent starter_primary_pitch_k_percent starter_primary_pitch_put_away starter_secondary_pitch_usage starter_secondary_pitch_whiff_percent starter_secondary_pitch_k_percent starter_secondary_pitch_put_away starter_arsenal_whiff_percent starter_arsenal_k_percent starter_arsenal_put_away opp_team_k_vs_primary_pitch opp_team_whiff_vs_primary_pitch opp_team_put_away_vs_primary_pitch opp_team_k_vs_secondary_pitch opp_team_whiff_vs_secondary_pitch opp_team_put_away_vs_secondary_pitch opp_team_k_vs_starter_arsenal opp_team_whiff_vs_starter_arsenal opp_team_put_away_vs_starter_arsenal opp_team_games_14d opp_team_pa_per_game_14d opp_team_k_rate_14d opp_team_hits_per_pa_14d
feature_infos=[0:1] [0:1] [0:9] [0:27] [0.20000000000000001:7.7000000000000002] [0:13] [0:22.5] [0:270] [0:40] [7.333333333333333:106.25] [9:117] [2.333333333333333:30.5] [0:3] [2.1000000000000001:15] [0:17] [0:20.25] [40:110] [12:31] [1:124] [0:14] [4:37.700000000000003] [1.8999999999999999:26.100000000000001] [7.2999999999999998:34.700000000000003] [21.100000000000001:78.799999999999997] [5.2000000000000002:47.700000000000003] [2.8999999999999999:43.600000000000001] [6.0999999999999996:32.299999999999997] [15.699999999999999:44.399999999999999] [6.7999999999999998:51.100000000000001] [4.7999999999999998:49.5] [7.5999999999999996:33] [5.2000000000000002:42.399999999999999] [2.8999999999999999:41.799999999999997] [6.0999999999999996:32.299999999999997] [4.7999999999999998:56.899999999999999] [8.5029082774049218:57.100000000000001] [5.5:38.5] [4.7999999999999998:56.899999999999999] [8.5029082774049218:57.100000000000001] [5.5:38.5] [4.7999999999999998:43.060416666666661] [8.5029082774049218:42.999305555555551] [6.4000000000000004:38.5] [0:14] [23:64.5] none [0.078947368421052599:0.37037037037037029]
tree_sizes=1463 1513 1513 1410 1518 1514 1404 1515 1310 1519 1306 1410 1413 1415 1519 1522 1306 1413 1521 1626 1520 1417 1517 1415 1520 1417 1418 1421 1416 1517 1834 1522 1424 1625 1418 1619

Tree=0
num_leaves=13
num_cat=0
split_feature=20 20 1 33 31 26 40 20 11 20 20 23
split_gain=214.796 34.8682 34.8154 32.1843 17.791 23.0592 13.0393 10.6614 10.3585 9.90338 10.4877 3.38087
threshold=22.050000000000004 17.750000000000004 1.0000000180025095e-35 20.15470330045288 24.499261992619932 18.250000000000004 24.041942804231095 25.550000000000004 11.583333333333334 17.450000000000003 12.450000000000001 39.900000000000006
decision_type=2 2 2 2 2 2 2 2 2 2 2 2
left_child=1 9 -2 6 8 -6 -4 -5 -3 10 -1 -11
right_child=2 4 3 7 5 -7 -8 -9 -10 11 -12 -13
leaf_value=0.62719386078690631 0.61116779203867522 0.64337439575497701 0.68942545165046787 0.70442507447813851 0.67280222258915601 0.61271088788647232 0.72707170894396134 0.72623831020738938 0.67894632248141407 0.61116779203867522 0.65668385692527931 0.64479830060135801
leaf_weight=12.064268112182615 3.5453970432281485 7.8503427952527991 79.819143652915955 30.619853064417839 14.23682849109173 9.638106629252432 9.2388733327388746 59.065891146659851 119.80780836939812 6.8692067712545377 108.15532714128494 4.4223304837942123
leaf_count=61 16 44 572 235 94 44 78 497 816 31 655 25
internal_value=0.678861 0.662504 0.704259 0.706106 0.672313 0.648544 0.693331 0.718791 0.676759 0.651201 0.653724 0.624339
internal_weight=465.333 283.044 182.289 178.744 151.533 23.8749 89.058 89.6857 127.658 131.511 120.22 11.2915
internal_count=3168 1770 1398 1382 998 138 650 732 860 772 716 56
is_linear=0
shrinkage=1


Tree=1
num_leaves=13
num_cat=0
split_feature=20 20 1 33 31 26 40 11 20 20 20 23
split_gain=198.206 32.9009 32.2467 28.5341 16.4974 20.5312 11.6748 11.416 10.188 8.80451 9.3466 2.96161
threshold=22.450000000000003 17.750000000000004 1.0000000180025095e-35 20.15470330045288 24.499261992619932 18.250000000000004 24.041942804231095 11.583333333333334 25.550000000000004 17.450000000000003 12.450000000000001 39.900000000000006
decision_type=2 2 2 2 2 2 2 2 2 2 2 2
left_child=1 9 -2 6 7 -6 -4 -3 -5 10 -1 -11
right_child=2 4 3 8 5 -7 -8 -9 -10 11 -12 -13
leaf_value=-0.070522450986666665 -0.085277453407292841 -0.056827499843048558 -0.011437209377130015 0.0026632078703110159 -0.027743055122925318 -0.0838626660535194 0.024610003835375868 -0.021427408741496224 0.024023845498397249 -0.085277453407292855 -0.043000589755434124 -0.054152538134268922
leaf_weight=12.355731315910814 3.6485543251037589 8.7779090926051122 75.938421800732613 30.591499805450439 14.373450241982939 9.9139965921640378 9.0499267876148206 124.25541388988495 58.571130342781544 7.0690740048885328 109.75903435051441 4.5047032833099365
leaf_count=61 16 48 543 235 94 44 77 842 497 31 655 25
internal_value=-0.0219656 -0.0372129 0.00299006 0.00483931 -0.0279142 -0.0506508 -0.00759875 -0.0237632 0.0166951 -0.0481555 -0.0457853 -0.0731631
internal_weight=468.809 291.009 177.8 174.151 157.321 24.2874 84.9883 133.033 89.1626 133.689 122.115 11.5738
internal_count=3168 1800 1368 1352 1028 138 620 890 732 772 716 56
is_linear=0
shrinkage=0.03


Tree=2
num_leaves=13
num_cat=0
split_feature=20 1 33 20 31 26 10 20 34 20 20 23
split_gain=183.256 29.3352 28.7218 28.6448 14.7423 18.4736 12.4316 9.73689 9.17241 7.91673 8.41322 2.63666
threshold=22.050000000000004 1.0000000180025095e-35 20.15470330045288 17.750000000000004 24.499261992619932 18.250000000000004 35.500000000000007 25.550000000000004 22.304634540135464 17.450000000000003 12.450000000000001 39.900000000000006
decision_type=2 2 2 2 2 2 2 2 2 2 2 2
left_child=3 -2 6 9 8 -6 -3 -4 -5 10 -1 -11
right_child=1 2 7 4 5 -7 -8 -9 -10 11 -12 -13
leaf_value=-0.067011796022379208 -0.080758935563310305 -0.054782839977503966 0.002585676346453872 -0.0264283672476823 -0.026670691917559761 -0.079443697579415828 -0.0051381929625903596 0.02350477738132007 -0.0040364242202448096 -0.080758935563310305 -0.041154456943524147 -0.051670021301458986
leaf_weight=12.608883030712603 3.7357048988342276 4.7965957000851622 30.56389969587326 110.33698511123657 14.500832140445711 10.147716797888277 84.756300799548626 58.0762123093009 19.351911060512066 7.237928241491316 111.21910679340363 4.5783305168151855
leaf_count=61 16 27 235 719 94 44 623 497 141 31 655 25
internal_value=-0.021161 0.00244129 0.00418553 -0.0359687 -0.0271292 -0.0483971 -0.00779724 0.0162917 -0.0230871 -0.0460262 -0.0437874 -0.0694881
internal_weight=471.91 181.929 178.193 289.982 154.337 24.6485 89.5529 88.6401 129.689 135.644 123.828 11.8163
internal_count=3168 1398 1382 1770 998 138 650 732 860 772 716 56
is_linear=0
shrinkage=0.03


Tree=3
num_leaves=12
num_cat=0
split_feature=20 1 20 33 31 26 40 4 20 22 6
split_gain=169.738 27.4328 27.321 25.5007 13.8331 16.7766 10.9453 10.2805 9.30678 7.7143 8.25379
threshold=22.450000000000003 1.0000000180025095e-35 17.750000000000004 20.15470330045288 24.499261992619932 18.250000000000004 24.041942804231095 2.8625000000000003 25.550000000000004 23.950000000000003 6.2560272903703416
decision_type=2 2 2 2 2 2 2 2 2 2 2
left_child=2 -2 9 6 7 -6 -3 -4 -5 10 -1
right_child=1 3 4 8 5 -7 -8 -9 -10 -11 -12
leaf_value=-0.036158020207605966 -0.076820856300963844 -0.010788941214648375 -0.050596720303308348 0.0025103501407262702 -0.025657193526089098 -0.075583408160541737 0.024206408205537225 -0.019634016877471967 0.02299832819776489 -0.0037207070142448828 -0.051404236533178306
leaf_weight=53.181038126349449 3.8082222938537589 76.417084462940693 10.461940586566923 30.53703473508358 14.619566127657892 10.342866376042364 8.9898796156048757 124.52895177900791 57.582019045948982 4.1366518288850775 80.077306360006332
leaf_count=312 16 543 57 235 94 44 77 833 497 29 431
internal_value=-0.0204016 0.00282828 -0.0342555 0.00457627 -0.0258275 -0.0463435 -0.00710535 -0.0220337 0.0158984 -0.0440673 -0.0453197
internal_weight=474.683 177.334 297.348 173.526 159.953 24.9624 85.407 134.991 88.1191 137.395 133.258
internal_count=3168 1368 1800 1352 1028 138 620 890 732 772 743
is_linear=0
shrinkage=0.03


Tree=4
num_leaves=13
num_cat=0
split_feature=20 1 33 20 31 26 11 20 34 38 42 23
split_gain=157.422 25.1418 25.6395 23.9529 12.4755 15.3676 11.3792 8.8964 8.3852 7.28119 10.2697 2.48047
threshold=22.050000000000004 1.0000000180025095e-35 20.15470330045288 17.750000000000004 24.499261992619932 19.250000000000004 5.8452380952380958 25.550000000000004 22.304634540135464 21.78474349167249 19.104420124316274 38.150000000000013
decision_type=2 2 2 2 2 2 2 2 2 2 2 2
left_child=3 -2 6 9 8 -6 -3 -4 -5 11 -11 -1
right_child=1 2 7 4 5 -7 -8 -9 -10 10 -12 -13
leaf_value=-0.067415004638128662 -0.073358725316055834 -0.051773180942671249 0.0024371552924857408 -0.024593951422872219 -0.025649643131398288 -0.07359831355279528 -0.0047269931825430194 0.022503859826294104 -0.0032765982721891236 -0.042938660397487519 -0.017446553212174587 -0.046351460188497007
leaf_weight=12.100383877754213 3.867356300354003 4.8931052163243285 30.510888993740082 111.97215866297483 15.332843236625196 9.9000883102416974 85.10575807094574 57.089351937174797 19.498859956860542 101.73599378764629 16.534401431679726 8.6133755370974523
leaf_count=55 16 27 235 719 97 41 623 497 141 564 106 47
internal_value=-0.0196828 0.00231316 0.00396097 -0.0331819 -0.0251407 -0.0444622 -0.00728482 0.0155147 -0.0214323 -0.0422485 -0.0393748 -0.0586562
internal_weight=477.155 181.466 177.599 295.688 156.704 25.2329 89.9989 87.6002 131.471 138.984 118.27 20.7138
internal_count=3168 1398 1382 1770 998 138 650 732 860 772 670 102
is_linear=0
shrinkage=0.03


Tree=5
num_leaves=13
num_cat=0
split_feature=20 1 20 33 31 26 40 11 20 20 6 23
split_gain=146.233 23.6806 23.0304 22.7947 11.8151 14.2227 10.2682 9.3578 8.50459 6.96968 7.53505 2.22585
threshold=22.450000000000003 1.0000000180025095e-35 17.750000000000004 20.15470330045288 24.499261992619932 18.250000000000004 24.041942804231095 11.583333333333334 25.550000000000004 17.450000000000003 6.2560272903703416 39.900000000000006
decision_type=2 2 2 2 2 2 2 2 2 2 2 2
left_child=2 -2 9 6 7 -6 -3 -4 -5 10 -1 -11
right_child=1 3 4 8 5 -7 -8 -9 -10 11 -12 -13
leaf_value=-0.029242493061469598 -0.070291848626396911 -0.01018582336085091 -0.049741849626988383 0.0023660463754900628 -0.023752854826311374 -0.069218726836906636 0.023803510104158876 -0.018366573736311016 0.022020799803346695 -0.072312379964253062 -0.044215357148231271 -0.046058875679360803
leaf_weight=48.949093364179134 3.9142494201660147 76.854023613035679 9.1706219762563688 30.48544605076313 14.837171368300917 10.627862349152563 8.9286415874958021 127.53273207694292 56.598941542208195 7.5248161256313306 79.18295581638813 4.7355837374925613
leaf_count=289 16 543 48 235 94 44 77 842 497 31 427 25
internal_value=-0.0190016 0.00267594 -0.0316674 0.00432816 -0.0239663 -0.0427281 -0.00664806 -0.0204714 0.0151403 -0.0405631 -0.0384954 -0.062172
internal_weight=479.342 176.781 302.561 172.867 162.168 25.465 85.7827 136.703 87.0844 140.392 128.132 12.2604
internal_count=3168 1368 1800 1352 1028 138 620 890 732 772 716 56
is_linear=0
shrinkage=0.03


Tree=6
num_leaves=12
num_cat=0
split_feature=20 1 33 20 31 26 34 10 6 22 20
split_gain=136.013 21.8284 22.8898 20.3215 10.7337 13.2002 10.44 8.5939 7.8861 6.9572 7.20821
threshold=22.050000000000004 1.0000000180025095e-35 20.15470330045288 17.750000000000004 24.499261992619932 18.250000000000004 24.039590976189828 64.500000000000014 10.719837157660995 23.950000000000003 17.450000000000003
decision_type=2 2 2 2 2 2 2 2 2 2 2
left_child=3 -2 6 9 8 -6 -3 -4 -5 10 -1
right_child=1 2 7 4 5 -7 -8 -9 -10 -11 -12
leaf_value=-0.038054781591174432 -0.067556909280691607 -0.0094038314312018291 -0.040129283254564274 -0.017604836179713281 -0.022890311603928591 -0.066515311440468905 0.033244131418286874 0.016402087081356098 -0.04283247605133083 -0.0010911223771943013 -0.062579700543904299
leaf_weight=125.61137107014656 3.9499495029449454 84.897247567772865 2.4919432401657096 120.74103962630033 14.932874128222467 10.726420432329176 5.5005898773670188 84.080200776457787 12.286816917359827 4.2282691597938529 11.799004331231115
leaf_count=691 16 601 16 791 94 44 49 716 69 29 52
internal_value=-0.0183556 0.00219294 0.00374975 -0.0307343 -0.0233616 -0.041127 -0.00680876 0.0147749 -0.0199349 -0.0389943 -0.0401607
internal_weight=481.246 180.92 176.97 300.326 158.687 25.6593 90.3978 86.5721 133.028 141.639 137.41
internal_count=3168 1398 1382 1770 998 138 650 732 860 772 743
is_linear=0
shrinkage=0.03


Tree=7
num_leaves=13
num_cat=0
split_feature=20 1 20 20 10 31 26 11 34 39 27 5
split_gain=126.665 20.6739 20.3789 19.6784 16.8271 10.2444 12.3575 8.49846 7.29982 6.53102 7.62329 6.467
threshold=22.450000000000003 1.0000000180025095e-35 25.700000000000006 17.750000000000004 57.500000000000007 24.499261992619932 19.250000000000004 11.583333333333334 24.039590976189828 20.20203555147398 27.000000000000004 3.8166666666666669
decision_type=2 2 2 2 2 2 2 2 2 2 2 2
left_child=3 -2 8 9 -4 7 -7 -5 -3 11 -11 -1
right_child=1 2 4 5 -6 6 -8 -9 -10 10 -12 -13
leaf_value=-0.03301528445497539 -0.065103486427078985 -0.0066491156792711772 -0.051354052170126778 -0.046713964828545423 0.020614977512787173 -0.022895341526151958 -0.065363714713216475 -0.017053599101479296 0.019275816345568245 -0.034255589748526272 0.018464845416152533 -0.046304728387427836
leaf_weight=69.156678542494774 3.9754197597503653 95.709760405123234 3.0672890394926062 9.3231493681669217 62.538048252463341 15.638908445835115 10.180978804826735 128.87892305850983 10.886974833905695 6.7231659144163114 3.9006043076515198 62.957400426268578
leaf_count=385 16 694 17 48 549 97 41 842 92 37 29 321
internal_value=-0.0177399 0.00253358 0.00409503 -0.0293833 0.0172502 -0.0222952 -0.0396409 -0.0190545 -0.00400134 -0.0375285 -0.0148988 -0.0393482
internal_weight=482.937 176.177 172.202 306.76 65.6053 164.022 25.8199 138.202 106.597 142.738 10.6238 132.114
internal_count=3168 1368 1352 1800 566 1028 138 890 786 772 66 706
is_linear=0
shrinkage=0.03


Tree=8
num_leaves=11
num_cat=0
split_feature=20 10 1 20 20 31 26 34 22 20
split_gain=118.083 19.2234 20.3023 22.6694 17.4452 9.36232 11.6037 7.57313 6.32735 6.69039
threshold=22.050000000000004 35.500000000000007 1.0000000180025095e-35 25.700000000000006 17.750000000000004 24.499261992619932 18.250000000000004 22.304634540135464 23.950000000000003 17.450000000000003
decision_type=2 2 2 2 2 2 2 2 2 2
left_child=4 -2 -3 -4 8 7 -7 -6 9 -1
right_child=1 2 3 -5 5 6 -8 -9 -10 -11
leaf_value=-0.035238393461054812 -0.048233614105236411 -0.062890927994095722 -0.0028184887028105355 0.019904888842685941 -0.021535599655524418 -0.021259434569509499 -0.061933301472257334 -0.0014583545586034407 -0.0001265219983928215 -0.058704999480313547
leaf_weight=127.49631364643574 6.5850750133395186 3.9915480613708487 107.1830063983798 62.584184415638447 114.55417221039534 15.107888489961626 10.843229688704012 19.836662441492081 4.2580137550830832 11.960092231631277
leaf_count=691 36 16 793 553 719 94 44 141 29 52
internal_value=-0.0171534 0.00207927 0.00398602 0.00555842 -0.0285608 -0.0217576 -0.0382543 -0.0185721 -0.036151 -0.0372509
internal_weight=484.4 180.344 173.759 169.767 304.056 160.342 25.9511 134.391 143.714 139.456
internal_count=3168 1398 1362 1346 1770 998 138 860 772 743
is_linear=0
shrinkage=0.03


Tree=9
num_leaves=13
num_cat=0
split_feature=20 1 33 20 21 40 26 40 10 20 5 43
split_gain=110.176 18.2107 18.9026 16.9931 9.18585 9.11393 9.11218 8.61215 7.48538 6.25238 7.22118 1.61939
threshold=22.450000000000003 1.0000000180025095e-35 20.15470330045288 17.750000000000004 9.5500000000000025 24.041942804231095 20.750000000000004 22.26039020377392 64.500000000000014 12.450000000000001 3.7083333333333335 11.500000000000002
decision_type=2 2 2 2 2 2 2 2 2 2 2 2
left_child=3 -2 5 9 7 -3 -6 -5 -4 11 -11 -1
right_child=1 2 8 4 6 -7 -8 -9 -10 10 -12 -13
leaf_value=-0.064536211898668247 -0.060886092679935201 -0.0093141860327706754 -0.036612451174247586 -0.020841290090746294 -0.025774128703396359 0.022923201555767297 -0.061462622513780957 -0.001167586557655913 0.015452360171920728 -0.025015819483550295 -0.039177988119017071 -0.043658395459536974
leaf_weight=6.8812540620565397 3.9991528987884513 77.461271353065968 2.5622086971998206 105.71045510470867 26.654594466090202 8.7882110849022848 8.4896733611822111 24.705566234886646 82.726699717342854 58.44931098818779 72.716340057551861 6.5040519535541534
leaf_count=29 16 543 16 659 161 77 34 174 716 334 377 32
internal_value=-0.0165941 0.00239827 0.00387365 -0.0273446 -0.0207827 -0.00602942 -0.0343953 -0.0171144 0.0138883 -0.0348603 -0.0328671 -0.0543915
internal_weight=485.649 175.538 171.538 310.111 165.56 86.2495 35.1443 130.416 85.2889 144.551 131.166 13.3853
internal_count=3168 1368 1352 1800 1028 620 195 833 732 772 711 61
is_linear=0
shrinkage=0.03


Tree=10
num_leaves=11
num_cat=0
split_feature=20 10 1 20 20 22 34 38 42 23
split_gain=102.905 17.4177 17.9783 20.9407 15.1385 8.44573 6.9603 6.15867 8.84918 2.00883
threshold=22.050000000000004 35.500000000000007 1.0000000180025095e-35 25.700000000000006 17.750000000000004 27.350000000000005 22.304634540135464 21.78474349167249 19.104420124316274 38.150000000000013
decision_type=2 2 2 2 2 2 2 2 2 2
left_child=4 -2 -3 -4 7 6 -6 9 -9 -1
right_child=1 2 3 -5 5 -7 -8 8 -10 -11
leaf_value=-0.056128585378858481 -0.045507589942669652 -0.059061665901845355 -0.0027175628537456898 0.019210761106800298 -0.021655511448801405 -0.052867928196086503 -0.0044101713928911693 -0.034282367481908667 -0.011088457470441277 -0.03759092205616138
leaf_weight=12.6245563775301 6.6949813067913047 3.998990297317504 107.25524329394102 61.765217758715153 129.72871112078428 6.8616945743560782 25.14617083966732 106.44386205077171 17.196372546255589 9.0200605764985067
leaf_count=55 36 16 793 553 794 31 173 564 106 47
internal_value=-0.0160586 0.00197104 0.00380822 0.00529571 -0.0266122 -0.0202985 -0.0188555 -0.0336408 -0.0310565 -0.0484033
internal_weight=486.736 179.714 173.019 169.02 307.021 161.737 154.875 145.285 123.64 21.6446
internal_count=3168 1398 1362 1346 1770 998 967 772 670 102
is_linear=0
shrinkage=0.03


Tree=11
num_leaves=12
num_cat=0
split_feature=20 1 33 20 34 31 26 10 4 22 6
split_gain=96.1274 16.1582 17.2658 14.8373 8.77199 8.47127 10.3503 8.14575 7.59357 5.83302 6.37387
threshold=22.450000000000003 1.0000000180025095e-35 20.15470330045288 17.750000000000004 24.039590976189828 24.499261992619932 18.250000000000004 57.500000000000007 2.8625000000000003 23.950000000000003 6.2560272903703416
decision_type=2 2 2 2 2 2 2 2 2 2 2
left_child=3 -2 4 9 -3 8 -7 -4 -5 10 -1
right_child=1 2 7 5 -6 6 -8 -9 -10 -11 -12
leaf_value=-0.025701508634210762 -0.057394939738642375 -0.0081926469822065501 -0.041252321096151019 -0.040339791641649345 0.03181095251606119 -0.019177822665991186 -0.057460387703701252 0.014904047897871016 -0.01444456894260678 0.0018671511387864793 -0.038708202049825322
leaf_weight=56.278428666293621 3.9917595386505118 81.178288713097572 2.3925412073731414 11.061044439673422 5.2525648847222319 15.317156210541727 10.864536225795744 82.04053408652544 129.68410686403513 4.3155426010489455 85.308998860418797
leaf_count=312 16 572 14 57 48 94 44 718 833 29 431
internal_value=-0.0155449 0.00227019 0.0036641 -0.0255027 -0.00576155 -0.0193945 -0.0350638 0.0133128 -0.0164797 -0.0324911 -0.0335383
internal_weight=487.686 174.856 170.864 312.83 86.4309 166.927 26.1817 84.4331 140.745 145.903 141.587
internal_count=3168 1368 1352 1800 620 1028 138 732 890 772 743
is_linear=0
shrinkage=0.03


Tree=12
num_leaves=12
num_cat=0
split_feature=20 10 1 20 20 24 35 38 42 9 23
split_gain=89.9612 15.763 16.0201 19.3486 13.2547 7.91308 7.20162 5.80256 8.21356 2.86424 1.92599
threshold=22.050000000000004 35.500000000000007 1.0000000180025095e-35 25.700000000000006 17.750000000000004 13.600000000000001 22.577753049840108 21.78474349167249 19.104420124316274 92.550000000000011 38.150000000000013
decision_type=2 2 2 2 2 2 2 2 2 2 2
left_child=4 -2 -3 -4 7 9 -7 10 -9 -6 -1
right_child=1 2 3 -5 5 6 -8 8 -10 -11 -12
leaf_value=-0.05323609715013386 -0.042962785588680941 -0.055866878748414027 -0.0026236415953230178 0.018540467271962683 -0.010785398837132157 -0.024323278664353222 -0.0026540238762681866 -0.031995276253273586 -0.0097235296346346763 0.01035225216042575 -0.035152340072888706
leaf_weight=12.689204603433611 6.7906600683927527 3.978106975555419 107.31795056164265 60.960327103734016 17.581860020756725 121.18376679718494 15.57771899551153 107.33634582161903 17.305421575903893 8.5874996408820135 9.1030496284365636
leaf_count=55 36 16 793 553 114 716 106 564 106 62 47
internal_value=-0.015055 0.00186922 0.00363658 0.00504325 -0.0248499 -0.018963 -0.0218551 -0.0314001 -0.028903 -0.00384906 -0.0456822
internal_weight=488.412 179.047 172.256 168.278 309.365 162.931 136.761 146.434 124.642 26.1694 21.7923
internal_count=3168 1398 1362 1346 1770 998 822 772 670 176 102
is_linear=0
shrinkage=0.03


Tree=13
num_leaves=12
num_cat=0
split_feature=20 10 1 20 20 31 26 46 20 20 43
split_gain=84.1451 14.7228 15.1443 18.3817 12.4666 7.80714 9.89454 7.16706 5.71093 6.79036 1.52419
threshold=22.050000000000004 35.500000000000007 1.0000000180025095e-35 25.900000000000002 17.750000000000004 24.499261992619932 19.250000000000004 0.18871713268167004 12.450000000000001 17.450000000000003 11.500000000000002
decision_type=2 2 2 2 2 2 2 2 2 2 2
left_child=4 -2 -3 -4 8 7 -7 -6 10 -10 -1
right_child=1 2 3 -5 5 6 -8 -9 9 -11 -12
leaf_value=-0.058677793255036317 -0.041319107054057815 -0.054461401643091691 -0.002373678311643201 0.01844388444948724 5.7019540885936467e-05 -0.01863227759695181 -0.056408510335580177 -0.018487574332219963 -0.026283584122493001 -0.049348936545569003 -0.038561439086095294
leaf_weight=6.9804387092590314 6.8480597883462897 3.9586303234100333 109.19320388883352 58.693470597267151 22.417817205190659 16.059304192662243 10.206042662262915 114.83930377662182 120.59225279837847 12.696663334965704 6.590280570089817
leaf_count=29 36 16 809 537 152 97 41 708 655 56 32
internal_value=-0.0145823 0.00181763 0.00353663 0.00490418 -0.0240241 -0.0183262 -0.0333112 -0.0154587 -0.0303684 -0.0284807 -0.0489088
internal_weight=489.075 178.693 171.845 167.887 310.382 163.522 26.2653 137.257 146.86 133.289 13.5707
internal_count=3168 1398 1362 1346 1770 998 138 860 772 711 61
is_linear=0
shrinkage=0.03


Tree=14
num_leaves=13
num_cat=0
split_feature=20 1 33 20 34 21 26 40 10 39 27 20
split_gain=78.7957 13.6552 15.2569 12.2677 8.26755 7.63023 7.76675 7.37641 7.02187 5.45926 6.66741 5.55299
threshold=22.450000000000003 1.0000000180025095e-35 20.15470330045288 17.750000000000004 24.039590976189828 9.5500000000000025 20.750000000000004 22.26039020377392 57.500000000000007 20.068219912078519 27.000000000000004 12.450000000000001
decision_type=2 2 2 2 2 2 2 2 2 2 2 2
left_child=3 -2 4 9 -3 7 -7 -5 -4 11 -11 -1
right_child=1 2 8 5 -6 6 -8 -9 -10 10 -12 -13
leaf_value=-0.051016891546865985 -0.053164828908388126 -0.0077806000462324991 -0.03749804119949629 -0.017633342196410915 0.031280668687675608 -0.022073262408399245 -0.055040473998290818 0.00044234467330786129 0.014062283926473435 -0.026403882634066338 0.021832040131210866 -0.029211148698662218
leaf_weight=11.480269461870192 3.9338834285736075 81.433359384536743 2.4492712393403044 107.82979676127434 5.1873531565070143 27.246985025703907 8.4188066720962507 25.036545321345329 80.776960417628288 7.2873430699110013 3.9917539656162262 124.43850015848875
leaf_count=50 16 572 14 659 48 161 34 174 718 39 29 654
internal_value=-0.0141314 0.0020922 0.00337203 -0.0230611 -0.00544138 -0.0175345 -0.0298551 -0.0142273 0.0125449 -0.0293886 -0.00933284 -0.031053
internal_weight=489.511 173.781 169.847 315.73 86.6207 168.532 35.6658 132.866 83.2262 147.198 11.2791 135.919
internal_count=3168 1368 1352 1800 620 1028 195 833 732 772 68 704
is_linear=0
shrinkage=0.03


Tree=15
num_leaves=13
num_cat=0
split_feature=20 1 20 26 11 23 42 34 38 42 43 23
split_gain=73.9152 13.4066 12.9357 12.6703 10.3985 8.42104 6.95397 6.46614 5.37388 7.41671 5.28609 1.73358
threshold=22.650000000000002 1.0000000180025095e-35 17.750000000000004 22.650000000000002 5.8452380952380958 32.150000000000006 15.805350917251074 21.768399570341305 21.78474349167249 19.104420124316274 11.500000000000002 38.150000000000013
decision_type=2 2 2 2 2 2 2 2 2 2 2 2
left_child=2 -2 8 4 -3 7 -7 -4 11 -10 -5 -1
right_child=1 3 5 10 -6 6 -8 -9 9 -11 -12 -13
leaf_value=-0.049358473661295164 -0.051965438032416773 -0.038021485863245323 -0.010147274637070549 0.0080628313089683434 0.0012306768710473226 -0.035787211434088022 -0.016979739314688023 0.020983429818055836 -0.028989947410583437 -0.0078981692405602089 0.028866648976845027 -0.032243525862878659
leaf_weight=12.695081576704981 3.9043786525726309 6.4408303871750823 26.550821393728256 23.112845502793789 106.70012149214745 20.574301540851593 126.36554381251335 7.760018676519393 108.17332931607962 17.421202629804611 20.961627349257469 9.1766318976879102
leaf_count=55 16 35 170 205 825 112 772 60 564 106 201 47
internal_value=-0.0136976 0.00294798 -0.0218564 0.00431173 -0.00100385 -0.0164884 -0.0196131 -0.0031065 -0.0284542 -0.0260643 0.017957 -0.0421776
internal_weight=489.837 161.12 328.717 157.215 113.141 181.251 146.94 34.3108 147.466 125.595 44.0745 21.8717
internal_count=3168 1282 1886 1266 860 1114 884 230 772 670 406 102
is_linear=0
shrinkage=0.03


Tree=16
num_leaves=11
num_cat=0
split_feature=20 10 20 1 20 0 22 11 22 6
split_gain=69.4982 12.7155 13.2173 12.8503 10.3516 9.31804 7.02033 6.27925 5.27755 6.1626
threshold=22.050000000000004 35.500000000000007 25.550000000000004 1.0000000180025095e-35 17.750000000000004 1.0000000180025095e-35 27.350000000000005 11.583333333333334 23.950000000000003 6.2560272903703416
decision_type=2 2 2 2 2 2 2 2 2 2
left_child=4 -2 5 -4 8 -3 7 -6 9 -1
right_child=1 2 3 -5 6 -7 -8 -9 -10 -11
leaf_value=-0.020901263136702534 -0.038076990901498922 -0.012058263323973436 -0.050853144160087897 0.016427728844272196 -0.038822757593053155 0.0059086967124806072 -0.046375216774884778 -0.013815331651735334 0.00486750351637076 -0.033613321315638038
leaf_weight=56.99482711404562 6.948989510536193 53.67850873619318 2.6610306054353705 64.057163029909134 9.6229440048336965 50.343321450054646 6.8433889821171752 148.34808315336704 4.3816967383027068 86.279406636953354
leaf_count=312 36 376 11 590 48 385 31 919 29 431
internal_value=-0.0132771 0.00170291 0.00332193 0.0137443 -0.0217957 -0.00336282 -0.0166274 -0.0153387 -0.0275646 -0.0285564
internal_weight=490.159 177.689 170.74 66.7182 312.47 104.022 164.814 157.971 147.656 143.274
internal_count=3168 1398 1362 601 1770 761 998 967 772 743
is_linear=0
shrinkage=0.03


Tree=17
num_leaves=12
num_cat=0
split_feature=20 10 20 1 29 0 42 22 35 17 9
split_gain=65.1624 11.9127 12.5703 12.4797 9.79137 7.8023 7.61362 8.80893 6.40178 5.29873 4.3907
threshold=22.050000000000004 35.500000000000007 25.700000000000006 1.0000000180025095e-35 24.650000000000002 1.0000000180025095e-35 15.996471624702547 19.450000000000003 12.021348513868199 24.250000000000004 93.100000000000009
decision_type=2 2 2 2 2 2 2 2 2 2 2
left_child=4 -2 5 -4 6 -3 10 -8 -6 -10 -1
right_child=1 2 3 -5 8 -7 7 -9 9 -11 -12
leaf_value=-0.038946158258647223 -0.036744459794846966 -0.010625750011738388 -0.049819210982929518 0.016909024179125362 0.031747941596963009 0.0054596216420235684 -0.031817428628082477 -0.017845413562275675 -0.015147088015348373 0.018895459534922773 -0.006241326894403822
leaf_weight=36.203037522733212 6.984400436282157 56.538721404969692 2.6351576298475257 58.986363217234612 3.1235781908035269 52.193224340677261 54.456895381212234 159.73129200190306 50.900533176958561 4.4769403859972945 4.1143361032009116
leaf_count=179 36 398 11 553 24 400 275 927 307 32 26
internal_value=-0.0128733 0.001656 0.0032304 0.0140555 -0.0211051 -0.00290449 -0.023649 -0.0213978 -0.010038 -0.0123949 -0.0356087
internal_weight=490.344 177.338 170.353 61.6215 313.007 108.732 254.506 214.188 58.5011 55.3775 40.3174
internal_count=3168 1398 1362 564 1770 798 1407 1202 363 339 205
is_linear=0
shrinkage=0.03


Tree=18
num_leaves=13
num_cat=0
split_feature=20 1 26 20 11 23 46 36 20 20 43 23
split_gain=61.1344 11.8169 11.2656 11.0804 8.64173 7.83016 6.12318 6.09346 5.39214 6.12653 5.15 1.94185
threshold=22.650000000000002 1.0000000180025095e-35 22.650000000000002 17.750000000000004 5.8452380952380958 31.850000000000005 0.23258341759352882 18.213755458515287 17.450000000000003 12.600000000000001 11.500000000000002 39.900000000000006
decision_type=2 2 2 2 2 2 2 2 2 2 2 2
left_child=3 -2 4 8 -3 7 -7 -5 9 -1 -4 -10
right_child=1 2 10 5 -6 6 -8 -9 11 -11 -12 -13
leaf_value=-0.041911530222505711 -0.049429919738689716 -0.034444844467144214 0.0072252224250194405 -0.010174171645900626 0.001086891424393593 -0.020879410605236796 -0.0062104196311096125 0.018458589049012573 -0.054197878331089397 -0.021902832650891515 0.027966158892129889 -0.030126073443305309
leaf_weight=15.563542045652865 3.8144103437662116 6.5389414206147185 22.770110376179218 21.309039629995826 106.42122633010149 118.92324777692556 32.639633357524872 9.7499937713146192 7.6470955312252027 119.69431804120541 20.451832927763462 4.980359323322773
leaf_count=71 16 35 205 135 825 697 209 73 31 645 201 25
internal_value=-0.0124824 0.00273986 0.00401399 -0.0198514 -0.000969939 -0.0149083 -0.0177204 -0.00118583 -0.0259555 -0.0242051 0.0170395 -0.0447038
internal_weight=490.504 159.997 156.182 330.507 112.96 182.622 151.563 31.059 147.885 135.258 43.2219 12.6275
internal_count=3168 1282 1266 1886 860 1114 906 208 772 716 406 56
is_linear=0
shrinkage=0.03


Tree=19
num_leaves=14
num_cat=0
split_feature=20 33 1 29 40 42 22 5 21 38 17 35 9
split_gain=57.4998 10.9223 10.7783 9.11577 8.38571 7.12705 8.11805 5.85156 5.78064 4.63987 4.59739 4.46069 4.06356
threshold=22.050000000000004 20.15470330045288 1.0000000180025095e-35 24.650000000000002 24.041942804231095 15.996471624702547 18.350000000000005 2.2583333333333337 7.4500000000000011 33.952161889188162 24.250000000000004 12.198180099742601 93.100000000000009
decision_type=2 2 2 2 2 2 2 2 2 2 2 2 2
left_child=3 4 -3 5 7 12 -7 -2 -4 -6 11 -5 -1
right_child=1 2 8 10 9 6 -8 -9 -10 -11 -12 -13 -14
leaf_value=-0.037034804747041551 -0.032723829499031104 -0.04825088714928763 0.020170362762469828 0.019555256186608905 0.042588055603504503 -0.032269432100448678 -0.017297107762560673 -0.0058621151482797246 0.0041097154589661957 -0.0012499448510542546 0.01965785876137937 -0.013981639166337715 -0.0056142111695248994
leaf_weight=36.271981760859489 8.0782207176089269 2.8206787854433051 36.937032863497734 3.8420844152569762 4.7221719324588758 40.068975448608398 174.67003299295902 75.639324843883514 44.430595397949219 4.0251129493117332 4.5936362892389289 50.298747040331364 4.1257871463894835
leaf_count=179 44 12 352 28 46 199 1003 532 380 32 33 302 26
internal_value=-0.0121069 0.00158418 0.0094019 -0.0198126 -0.00553378 -0.0222656 -0.0200909 -0.0084541 0.0114005 0.0224158 -0.00915689 -0.0116017 -0.0338258
internal_weight=490.524 176.653 84.1883 313.871 92.4648 255.137 214.739 83.7175 81.3676 8.74728 58.7345 54.1408 40.3978
internal_count=3168 1398 744 1770 654 1407 1202 576 732 78 363 330 205
is_linear=0
shrinkage=0.03


Tree=20
num_leaves=13
num_cat=0
split_feature=20 1 33 24 32 34 6 33 26 25 8 39
split_gain=53.9588 10.3367 12.2617 8.72746 9.1258 7.77834 7.40861 6.45953 7.40632 7.07356 5.74059 3.83976
threshold=22.050000000000004 1.0000000180025095e-35 20.15470330045288 18.450000000000003 18.599967254254782 24.039590976189828 6.2259740259740264 18.893311004055608 24.400000000000002 26.500000000000004 1.7973139044943822 17.241597292274044
decision_type=2 2 2 2 2 2 2 2 2 2 2 2
left_child=3 -2 5 4 6 -3 -1 9 -9 -5 -4 -6
right_child=1 2 10 7 11 -7 -8 8 -10 -11 -12 -13
leaf_value=-0.006915386697697065 -0.047826481347195332 -0.0070496849827844862 0.013082191071258442 -0.023450433434977734 -0.018464047744085717 0.030785272045069131 -0.026129560783873892 -0.050501508598931585 -0.0075243819783011763 0.00071565151933551609 -0.021354219219143579 1.1837268958030518e-05
leaf_weight=26.639879509806633 3.7363189607858649 86.411925636231899 76.330927804112434 143.6824924275279 13.209401257336138 5.1837546825408927 56.082213245332241 14.691517218947412 4.7840168029069892 11.795994639396666 4.6204772889614096 43.336733259260654
leaf_count=159 16 601 698 781 78 49 302 61 29 76 34 284
internal_value=-0.0117436 0.00154082 0.00260981 -0.0191964 -0.0135926 -0.00490846 -0.0199418 -0.0236572 -0.0399445 -0.021617 0.0111167 -0.0043042
internal_weight=490.506 176.283 172.547 314.222 139.268 91.5957 82.7221 174.954 19.4755 155.478 80.9514 56.5461
internal_count=3168 1398 1382 1770 823 650 461 947 90 857 732 362
is_linear=0
shrinkage=0.03


Tree=21
num_leaves=12
num_cat=0
split_feature=20 20 1 4 10 1 6 20 24 29 46
split_gain=51.0018 14.4985 9.51847 10.5954 7.91967 7.53071 6.99475 6.73951 6.21974 5.6162 1.74922
threshold=20.350000000000005 25.700000000000006 1.0000000180025095e-35 2.055769230769231 99.500000000000014 1.0000000180025095e-35 11.10874704491726 12.600000000000001 22.600000000000005 24.300000000000001 0.22712977707006368
decision_type=2 2 2 2 2 2 2 2 2 2 2
left_child=5 4 -3 -4 6 -1 -2 10 -9 -6 -7
right_child=1 2 3 -5 9 7 -8 8 -10 -11 -12
leaf_value=-0.061336611593732403 -0.0073417957532885122 -0.046367491164568612 -0.031707770674258166 0.016743293955396338 0.012323520959936352 -0.046024739219127801 -0.028336244941121233 -0.017101088580871022 -0.03227110339555446 -0.0068309383338896329 -0.024092587676306614
leaf_weight=4.0725393220782271 105.31800901144743 2.5121271014213553 4.3796774297952643 56.027977041900158 29.867461167275906 10.781412333250044 16.523337878286839 202.96816162765026 27.636491343379021 25.572125092148781 4.6993931308388701
leaf_count=17 707 11 27 539 227 47 99 1152 138 180 24
internal_value=-0.0113944 -0.00152081 0.010851 0.0132305 -0.00591176 -0.0208751 -0.0101889 -0.0202055 -0.0189191 0.00348831 -0.039367
internal_weight=490.359 240.201 62.9198 60.4077 177.281 250.158 121.841 246.085 230.605 55.4396 15.4808
internal_count=3168 1790 577 566 1213 1378 806 1361 1290 407 71
is_linear=0
shrinkage=0.03


Tree=22
num_leaves=13
num_cat=0
split_feature=20 1 20 26 40 35 24 41 20 6 43 23
split_gain=48.0114 10.0014 9.59474 9.57261 7.47007 7.05664 7.19785 5.99954 5.06087 6.16732 5.03668 1.80354
threshold=22.650000000000002 1.0000000180025095e-35 17.750000000000004 22.650000000000002 22.194858646137721 22.577753049840108 20.600000000000005 25.935335192814616 17.450000000000003 6.2560272903703416 11.500000000000002 39.900000000000006
decision_type=2 2 2 2 2 2 2 2 2 2 2 2
left_child=2 -2 8 4 -3 6 -4 -7 9 -1 -5 -10
right_child=1 3 5 10 -6 7 -8 -9 11 -11 -12 -13
leaf_value=-0.01340851656938933 -0.046525205577255688 -0.005505476741199296 -0.011698594079443729 0.0061045815284366421 0.012005762077743216 0.018493312007672544 -0.026974992137061896 -0.015639872051339494 -0.050852805645598742 -0.026591223999541835 0.026880717828803052 -0.027535455273802686
leaf_weight=51.690356448292732 3.655171424150466 82.965492494404316 129.58516540378332 22.322910979390144 29.79959799349308 11.14582569152117 35.326386824250221 7.933277264237403 7.4780872315168363 83.590183481574059 19.830984883010387 4.9693323448300362
leaf_count=289 16 603 790 205 257 82 193 49 31 427 201 25
internal_value=-0.0110537 0.00252429 -0.0175444 0.00368157 -0.000877911 -0.0129726 -0.014971 0.0043004 -0.0232385 -0.0215541 0.0158786 -0.0415439
internal_weight=490.293 158.574 331.719 154.919 112.765 183.991 164.912 19.0791 147.728 135.281 42.1539 12.4474
internal_count=3168 1282 1886 1266 860 1114 983 131 772 716 406 56
is_linear=0
shrinkage=0.03


Tree=23
num_leaves=12
num_cat=0
split_feature=20 20 11 1 21 35 1 27 7 24 25
split_gain=45.5614 13.0744 9.32549 9.4593 7.65467 9.15866 7.02725 6.83625 6.57477 5.62624 2.56295
threshold=20.350000000000005 25.700000000000006 6.6458333333333348 1.0000000180025095e-35 9.7000000000000011 21.411180165731089 1.0000000180025095e-35 26.600000000000005 1.7895621231590393 22.600000000000005 13.750000000000002
decision_type=2 2 2 2 2 2 2 2 2 2 2
left_child=6 4 -3 -4 5 -2 -1 -6 10 -10 -8
right_child=1 2 3 -5 7 -7 8 -9 9 -11 -12
leaf_value=-0.058697783438536114 -0.0058021018913081146 -0.044186000875287984 -0.044915650172040772 0.01540707108067528 -0.02220802072919394 0.013972846616328895 -0.054417735713164633 0.0055498336886168308 -0.015926033573052875 -0.030986974701047346 -0.029411964462411254
leaf_weight=4.0863548442721358 105.01009188592434 2.6888512521982184 2.4396730810403815 57.030455872416496 35.897273845970631 26.372455701231956 4.9392935782671001 10.269720785319803 201.62087836116552 25.102514319121838 14.572492927312849
leaf_count=17 712 13 11 553 219 208 21 74 1140 125 75
internal_value=-0.0107276 -0.00137963 0.0104616 0.0129324 -0.00552518 -0.00183267 -0.0196792 -0.0160334 -0.0190317 -0.0175936 -0.035742
internal_weight=490.03 239.709 62.159 59.4701 177.55 131.383 250.322 46.167 246.235 226.723 19.5118
internal_count=3168 1790 577 564 1213 920 1378 293 1361 1265 96
is_linear=0
shrinkage=0.03


Tree=24
num_leaves=13
num_cat=0
split_feature=20 10 20 1 0 24 32 6 33 26 25 11
split_gain=42.8699 9.28784 9.50317 9.07757 8.20536 7.92881 7.99061 6.86009 6.16295 7.13199 6.23622 3.8606
threshold=22.050000000000004 35.500000000000007 25.900000000000002 1.0000000180025095e-35 1.0000000180025095e-35 18.450000000000003 18.599967254254782 6.2259740259740264 18.893311004055608 24.400000000000002 26.500000000000004 24.900000000000002
decision_type=2 2 2 2 2 2 2 2 2 2 2 2
left_child=5 -2 4 -4 -3 6 7 -1 10 -10 -7 -8
right_child=1 2 3 -5 -6 8 11 -9 9 -11 -12 -13
leaf_value=-0.0051111110730064999 -0.032226451777650579 -0.010059309278340636 -0.044260572330943035 0.015321011222125633 0.0062886919145970967 -0.021031936958161541 0.0012080958013462365 -0.023580672770112301 -0.047953807531920509 -0.0056872007410374865 0.0016553439378772913 -0.01742677186076947
leaf_weight=26.678931698203087 7.0569718778133383 57.67469646781683 2.4020763486623755 54.897984012961388 53.046346746385098 143.99039689451456 43.890403859317303 56.280003301799297 14.332349814474584 4.7951079457998267 11.797779835760592 12.96014930307865
leaf_count=159 36 405 11 537 409 781 285 302 61 29 76 77
internal_value=-0.0104102 0.0014895 0.00290559 0.0128233 -0.002227 -0.0170299 -0.0117038 -0.017641 -0.021287 -0.0373579 -0.0193138 -0.00304007
internal_weight=489.803 175.078 168.021 57.3001 110.721 314.725 139.809 82.9589 174.916 19.1275 155.788 56.8506
internal_count=3168 1398 1362 548 814 1770 823 461 947 90 857 362
is_linear=0
shrinkage=0.03


Tree=25
num_leaves=12
num_cat=0
split_feature=20 20 11 1 10 6 1 20 42 29 43
split_gain=40.756 11.8144 8.42936 8.58643 7.0875 7.56655 6.52338 6.48597 5.80023 5.23366 1.4828
threshold=20.250000000000004 25.700000000000006 6.6458333333333348 1.0000000180025095e-35 99.500000000000014 11.10874704491726 1.0000000180025095e-35 12.450000000000001 15.603974969037223 24.300000000000001 11.500000000000002
decision_type=2 2 2 2 2 2 2 2 2 2 2
left_child=6 4 -3 -4 5 -2 -1 10 -9 -6 -8
right_child=1 2 3 -5 9 -7 7 8 -10 -11 -12
leaf_value=-0.056311718165298549 -0.0062694717734987967 -0.041876985733499496 -0.043643192873166002 0.014726773761291553 0.012089810855416824 -0.027702445155089617 -0.048166416545809186 -0.030160404331322065 -0.015180206897232255 -0.0063222201941468643 -0.028156069916871352
leaf_weight=4.087796337902545 109.37990111112595 2.6965993270277968 2.3635569363832465 56.203814908862114 30.302439346909523 17.14850752055645 6.8473694920539838 26.29129832983017 201.91383853554726 25.660810343921185 6.4934353157877922
leaf_count=17 731 13 11 553 230 101 29 134 1137 180 32
internal_value=-0.0101064 -0.00141564 0.00998339 0.0123712 -0.00524239 -0.0091743 -0.0187307 -0.0180947 -0.0169061 0.00364735 -0.0384267
internal_weight=489.389 243.756 61.264 58.5674 182.492 126.528 245.634 241.546 228.205 55.9632 13.3408
internal_count=3168 1819 577 564 1242 832 1349 1332 1271 410 61
is_linear=0
shrinkage=0.03


Tree=26
num_leaves=12
num_cat=0
split_feature=20 34 20 6 4 1 20 15 24 8 43
split_gain=38.3452 10.9058 9.36368 9.51694 9.10119 6.20447 6.28493 5.49273 5.32276 5.28392 1.42361
threshold=20.350000000000005 22.705676509322796 24.450000000000003 11.140735502121643 2.4400000000000008 1.0000000180025095e-35 12.450000000000001 12.915057915057917 22.600000000000005 1.6139050290522943 11.500000000000002
decision_type=2 2 2 2 2 2 2 2 2 2 2
left_child=5 2 3 -2 -4 -1 10 9 -8 -3 -7
right_child=1 7 4 -5 -6 6 8 -9 -10 -11 -12
leaf_value=-0.054691285102347206 -0.0057756632261378978 0.020132140367664579 -0.027790036514746465 -0.030454221509595855 0.0085148178947205937 -0.047077155945829452 -0.014605630629269712 -0.032169155201700182 -0.028688006747720759 -0.013272980022608408 -0.027415651903357752
leaf_weight=4.0827075019478789 113.87190619856119 32.878760799765587 6.9087531343102446 16.045410886406898 61.849666893482208 6.7963920235633832 205.64802525937557 2.2776764407753936 27.371253415942192 4.8962229266762725 6.4691086038947105
leaf_count=17 754 294 41 91 559 29 1162 16 138 35 32
internal_value=-0.00980886 -0.00120652 -0.00408551 -0.00882358 0.00486696 -0.0180113 -0.0174032 0.0130743 -0.0162598 0.0158023 -0.0374889
internal_weight=489.096 238.728 198.676 129.917 68.7584 250.367 246.285 40.0527 233.019 37.775 13.2655
internal_count=3168 1790 1445 845 600 1378 1361 345 1300 329 61
is_linear=0
shrinkage=0.03


Tree=27
num_leaves=12
num_cat=0
split_feature=20 1 29 26 33 22 40 23 43 17 46
split_gain=36.1542 8.71601 8.5387 7.79195 6.95953 8.13231 6.37977 5.5297 4.91078 4.25627 4.33531
threshold=22.650000000000002 1.0000000180025095e-35 24.650000000000002 22.650000000000002 18.893311004055608 19.450000000000003 22.194858646137721 46.050000000000004 11.500000000000002 24.250000000000004 0.23885577055904453
decision_type=2 2 2 2 2 2 2 2 2 2 2
left_child=2 -2 4 6 5 -1 -3 -6 -5 10 -4
right_child=1 3 9 8 7 -7 -8 -9 -10 -11 -12
leaf_value=-0.025311698958690867 -0.044539864410043491 -0.0049167213597188057 -0.011671610152341203 0.0048869574641067235 -0.039711656306684877 -0.012749887369230011 0.011342664882124995 -0.0033287629366021204 0.02570915253799436 0.022285224714126594 0.0085332363639228272
leaf_weight=61.959805801510811 3.4896225035190573 83.138721838593483 44.17175954580307 21.822998873889446 19.62811324745417 184.48609209805727 29.399122186005116 4.6504323780536643 19.129674449563026 4.7449073418974868 12.196724012494085
leaf_count=314 16 603 263 205 91 1074 257 29 201 34 81
internal_value=-0.00951979 0.00234248 -0.0151314 0.00340836 -0.0174178 -0.0159081 -0.000669157 -0.0327427 0.0146134 -0.00500278 -0.00729979
internal_weight=488.818 156.98 331.838 153.491 270.724 246.446 112.538 24.2785 40.9527 61.1134 56.3685
internal_count=3168 1282 1886 1266 1508 1388 860 120 406 378 344
is_linear=0
shrinkage=0.03


Tree=28
num_leaves=12
num_cat=0
split_feature=20 4 20 1 6 7 1 3 24 25 32
split_gain=34.4486 10.2896 11.9753 9.73816 8.70365 6.03388 5.80327 5.61341 4.89752 2.61692 3.18903
threshold=20.350000000000005 1.9289915966386555 24.450000000000003 1.0000000180025095e-35 11.140735502121643 1.7895621231590393 1.0000000180025095e-35 9.5000000000000018 22.600000000000005 13.750000000000002 20.302975158208593
decision_type=2 2 2 2 2 2 2 2 2 2 2
left_child=5 7 4 -4 -3 9 -7 -2 -8 -1 -11
right_child=1 2 3 -5 -6 6 8 -9 -10 10 -12
leaf_value=-0.051329900555044272 -0.042499554980767094 -0.0021434039326454759 -0.043513274060100318 0.011787189371950484 -0.025668569744919534 -0.052347986488630413 -0.013493270955321835 -0.0018785446382312517 -0.027623624397387071 -0.0075032915423344521 -0.036855023720390193
leaf_weight=5.1506262347102192 8.0460281521081907 129.2349393889308 2.9765400588512412 77.10406007617712 15.894790112972258 3.8153958022594443 201.80845265835524 4.9424934089183798 24.787034183740616 5.1612064689397803 9.3970284014940244
leaf_count=22 39 881 14 726 96 16 1140 34 125 30 45
internal_value=-0.00924364 -0.00107858 0.000418817 0.00973171 -0.00471991 -0.0170196 -0.0156568 -0.0270421 -0.015039 -0.0329514 -0.0264492
internal_weight=488.319 238.199 225.21 80.0806 145.13 250.12 230.411 12.9885 226.595 19.7089 14.5582
internal_count=3168 1790 1717 740 977 1378 1281 73 1265 97 75
is_linear=0
shrinkage=0.03


Tree=29
num_leaves=13
num_cat=0
split_feature=20 34 20 6 4 7 1 15 42 8 25 32
split_gain=32.4433 10.0531 8.01035 9.43426 8.11482 5.63829 5.4619 5.15429 4.99887 4.94676 2.44803 3.09397
threshold=20.250000000000004 22.705676509322796 24.450000000000003 11.140735502121643 2.4400000000000008 1.7895621231590393 1.0000000180025095e-35 12.915057915057917 15.603974969037223 1.6139050290522943 13.750000000000002 20.302975158208593
decision_type=2 2 2 2 2 2 2 2 2 2 2 2
left_child=5 2 3 -2 -4 10 -7 9 -8 -3 -1 -12
right_child=1 7 4 -5 -6 6 8 -9 -10 -11 11 -13
leaf_value=-0.049988636067745215 -0.0051454489392345907 0.019548496008688018 -0.02628227682047134 -0.029239424118883462 0.0079929372348222644 -0.051012436618040363 -0.027069664018372571 -0.031105096895182961 -0.01308879409179637 -0.012781298500898803 -0.0072795346642162617 -0.036408708240179777
leaf_weight=5.1304542273283031 118.36648224294186 32.432623639702797 6.921345852315425 16.68842101842165 61.064773544669151 3.7980814054608336 26.078782938420773 2.2858060523867598 196.03598894178867 4.9034761041402808 5.160268858075141 9.0147649645805341
leaf_count=22 781 294 41 93 559 16 134 16 1104 35 30 43
internal_value=-0.00897433 -0.00119752 -0.00389493 -0.00812269 0.00450354 -0.0166701 -0.0153403 0.0126252 -0.0147303 0.0153025 -0.0322315 -0.0258045
internal_weight=487.881 242.663 203.041 135.055 67.9861 245.218 225.913 39.6219 222.115 37.3361 19.3055 14.175
internal_count=3168 1819 1474 874 600 1349 1254 345 1238 329 95 73
is_linear=0
shrinkage=0.03


Tree=30
num_leaves=16
num_cat=0
split_feature=20 34 11 20 20 6 42 29 38 25 4 43 44 9 20
split_gain=30.5415 9.49472 7.57229 9.17468 5.56357 5.93676 8.48263 5.24212 5.06473 7.79822 2.95154 1.66621 1.28327 1.02684 0.329445
threshold=20.250000000000004 22.705676509322796 5.8452380952380958 24.450000000000003 14.050000000000002 6.2259740259740264 15.706052631578947 24.650000000000002 23.04684838894266 22.150000000000002 5.1291666666666673 11.500000000000002 38.160256410256416 81.071428571428584 12.350000000000003
decision_type=2 2 2 2 2 2 2 2 2 2 2 2 2 2 2
left_child=4 2 12 -4 11 6 -6 -7 10 -10 -3 14 -2 -13 -1
right_child=1 8 3 -5 5 7 -8 -9 9 -11 -12 13 -14 -15 -16
leaf_value=-0.043968328634727549 -0.042119688950234019 0.0066130560517102819 -0.0071090903513031404 0.0067786903833148724 -0.034377274907759221 -0.020279208248742308 -0.0018603482476881566 -0.0066568512385353695 0.027150461372865739 -0.0053406062069123557 0.041512818951951767 -0.033399123139237555 -0.018675322406427875 -0.015020102703180044 -0.033433249639242567
leaf_weight=5.6965252831578272 4.648884102702139 3.1752701103687269 130.93385048210621 63.611691303551197 8.4371114149689657 133.09784755855799 50.062878519296646 31.427250444889069 10.204896911978723 19.075776591897011 6.9646921455860138 4.6254957988858205 3.8344431966543198 6.6971768364310265 5.0306750386953354
leaf_count=25 22 27 852 579 41 714 299 188 91 154 73 22 21 36 24
internal_value=-0.00871129 -0.00116198 -0.00377796 -0.00256812 -0.0161797 -0.0147585 -0.00655007 -0.0176771 0.0123112 0.00598318 0.0305842 -0.0305552 -0.0315229 -0.0225282 -0.0390278
internal_weight=487.524 242.45 203.029 194.546 245.075 223.025 58.5 164.525 39.4206 29.2807 10.14 22.0499 8.48333 11.3227 10.7272
internal_count=3168 1819 1474 1431 1349 1242 340 902 345 245 100 107 43 58 49
is_linear=0
shrinkage=0.03


Tree=31
num_leaves=13
num_cat=0
split_feature=20 1 31 24 32 6 33 26 8 22 46 11
split_gain=28.9434 7.74045 7.95146 7.40218 6.5922 6.48051 6.25614 7.04533 5.45075 5.10939 4.81257 3.71998
threshold=22.050000000000004 1.0000000180025095e-35 26.043981748891877 18.450000000000003 18.599967254254782 6.2259740259740264 18.893311004055608 24.400000000000002 2.0191594144235316 30.750000000000004 0.17914135351110139 24.900000000000002
decision_type=2 2 2 2 2 2 2 2 2 2 2 2
left_child=3 -2 9 4 5 -1 8 -8 -5 -3 -4 -6
right_child=1 2 10 6 11 -7 7 -9 -10 -11 -12 -13
leaf_value=-0.0019626544696155516 -0.043478495943529046 -0.0014693808254922943 0.035795442077362086 -0.017460454760450574 0.0032336096524607769 -0.019937770862743964 -0.045366631698225406 -0.0031113294278265302 0.006414347547871237 -0.030967301579403063 0.0076642196955901748 -0.014979882547444121
leaf_weight=26.586997218430042 3.392537295818328 94.703864678740501 5.9899104461073867 146.1771676838398 44.171272717416286 56.226093307137489 13.783996760845186 4.7837050929665557 9.1447548344731313 5.5971380546689025 63.449565500020981 13.081313431262968
leaf_count=159 16 696 63 800 285 302 61 29 57 37 586 77
internal_value=-0.00845738 0.00139035 0.00228713 -0.013888 -0.00875538 -0.0141669 -0.0180222 -0.0344802 -0.0160548 -0.00311547 0.0100908 -0.000927886
internal_weight=487.088 173.133 169.74 313.955 140.066 82.8131 173.89 18.5677 155.322 100.301 69.4395 57.2526
internal_count=3168 1398 1382 1770 823 461 947 90 857 733 649 362
is_linear=0
shrinkage=0.03


Tree=32
num_leaves=12
num_cat=0
split_feature=20 4 20 1 44 20 1 3 24 42 7
split_gain=27.5393 8.82271 9.76978 7.02863 6.35801 5.50237 5.50383 5.18698 5.08525 2.67515 1.39426
threshold=20.350000000000005 1.9289915966386555 25.350000000000005 1.0000000180025095e-35 34.591666666666676 14.950000000000001 1.0000000180025095e-35 9.5000000000000018 22.600000000000005 18.674185559498593 5.1232531898272731
decision_type=2 2 2 2 2 2 2 2 2 2 2
left_child=5 7 4 -4 -3 9 -7 -2 -8 10 -1
right_child=1 2 3 -5 -6 6 8 -9 -10 -11 -12
leaf_value=-0.025001736529472234 -0.039808279771238811 0.010362231475010782 -0.041650772975143933 0.01278803848789907 -0.0058691667759507727 -0.049492253168578283 -0.011192315219866713 -0.00078234327603987879 -0.025128778662191809 -0.0057393331665383934 -0.039348194814167174
leaf_weight=14.069302029907709 8.0386826545000059 25.783883541822433 2.2155789732933036 58.325712218880653 137.78942939639091 3.7689500823616973 189.53201080858707 4.9541613683104506 26.909656561911106 4.359913043677806 10.758995838463305
leaf_count=71 39 188 11 586 932 16 1079 34 138 25 49
internal_value=-0.00821365 -0.000893357 0.000500013 0.0107958 -0.00331063 -0.0151732 -0.0135509 -0.0249277 -0.012925 -0.0274127 -0.0312186
internal_weight=486.506 237.107 224.115 60.5413 163.573 249.399 220.211 12.9928 216.442 29.1882 24.8283
internal_count=3168 1790 1717 597 1120 1378 1233 73 1217 145 120
is_linear=0
shrinkage=0.03


Tree=33
num_leaves=14
num_cat=0
split_feature=20 34 28 11 11 7 1 38 25 33 4 25 32
split_gain=25.9508 8.81534 6.83723 8.51727 7.39553 5.37117 4.99853 4.84608 7.37132 4.76926 2.85458 2.38659 2.85338
threshold=20.250000000000004 22.705676509322796 34.850000000000009 24.450000000000003 24.633333333333336 1.7895621231590393 1.0000000180025095e-35 23.04684838894266 22.150000000000002 19.262857142857147 5.1291666666666673 13.750000000000002 20.302975158208593
decision_type=2 2 2 2 2 2 2 2 2 2 2 2 2
left_child=5 2 3 -2 -4 11 -7 10 -9 -8 -3 -1 -13
right_child=1 7 4 -5 -6 6 9 8 -10 -11 -12 12 -14
leaf_value=-0.047770669515111219 -0.0089669564510967952 0.0065530663678255259 0.014297203191013021 0.011929311106436895 -0.015067303305592087 -0.047996676385348984 -0.011981915230802087 0.026608114250018654 -0.0051146538742313343 -0.032178891814409583 0.041063016865685011 -0.0059590092715375437 -0.033990655226517341
leaf_weight=5.0680313855409649 140.22726018726826 3.1605260074138624 32.032547615468502 20.067465670406818 10.169778808951376 3.7333619669079772 210.35308376699686 10.081219643354418 19.049546629190445 11.07663821429014 6.7955790087580681 5.1439021229743949 8.9624660313129407
leaf_count=22 957 27 281 163 73 16 1183 91 154 55 73 30 43
internal_value=-0.00797693 -0.00100465 -0.0035224 -0.00635093 0.00722104 -0.0148706 -0.0135726 0.012039 0.00586357 -0.0129922 0.030108 -0.0301129 -0.0237689
internal_weight=485.921 241.584 202.497 160.295 42.2023 244.337 225.163 39.0869 29.1308 221.43 9.95611 19.1744 14.1064
internal_count=3168 1819 1474 1120 354 1349 1254 345 245 1238 100 95 73
is_linear=0
shrinkage=0.03


Tree=34
num_leaves=12
num_cat=0
split_feature=20 1 29 33 22 21 11 30 33 17 46
split_gain=24.7164 7.43 6.94844 6.72014 7.04831 6.39903 6.35279 5.49315 4.96699 4.03008 4.11905
threshold=22.650000000000002 1.0000000180025095e-35 24.650000000000002 18.893311004055608 19.450000000000003 7.0500000000000007 5.8452380952380958 16.650000000000002 23.229620853080569 24.250000000000004 0.24130602262852843
decision_type=2 2 2 2 2 2 2 2 2 2 2
left_child=2 -2 3 4 -1 8 -7 -5 -3 10 -4
right_child=1 5 9 7 -6 6 -8 -9 -10 -11 -12
leaf_value=-0.021827917164083683 -0.042503794096619391 0.0053611731154260996 -0.009250138347320979 -0.045120359968466986 -0.010063537833876706 -0.031890993252916902 0.00027369639455465536 -0.016146631286654438 0.024750087475643064 0.023262264659659849 0.0119747109455985
leaf_weight=60.979776166379452 3.2846130132675162 41.495407275855541 46.503536388278008 11.086997956037523 184.53893646597862 5.8979834243655196 87.737688332796097 12.561719469726084 16.667735494673252 4.7552836909890166 9.9983265027403814
leaf_count=314 16 347 277 50 1074 30 707 70 182 34 67
internal_value=-0.00774399 0.0021363 -0.0123813 -0.0144566 -0.0129855 0.00310222 -0.00175231 -0.0297301 0.0109174 -0.00326196 -0.00549428
internal_weight=485.508 155.083 330.425 269.167 245.519 151.799 93.6357 23.6487 58.1631 61.2571 56.5019
internal_count=3168 1282 1886 1508 1388 1266 737 120 529 378 344
is_linear=0
shrinkage=0.03


Tree=35
num_leaves=14
num_cat=0
split_feature=20 28 30 4 23 28 8 20 1 39 46 6 38
split_gain=23.448 8.24904 9.47895 6.83832 6.07749 5.98392 5.54015 5.27549 5.1923 4.70985 1.36238 0.732228 0.62502
threshold=20.350000000000005 26.050000000000001 16.650000000000002 1.9289915966386555 41.850000000000001 22.500000000000004 1.5030790736333073 12.450000000000001 1.0000000180025095e-35 21.315683156137428 0.22712977707006368 4.8814120242691681 19.526927210141888
decision_type=2 2 2 2 2 2 2 2 2 2 2 2 2
left_child=7 5 4 -4 -3 6 -2 10 -9 -10 11 -1 -7
right_child=1 2 3 -5 -6 12 -8 8 9 -11 -12 -13 -14
leaf_value=-0.03015170577785534 0.01203613352737745 -0.0083967988984306272 -0.023248874451815421 0.00029616751735108364 -0.04529287561887891 0.020315295009544553 -0.022445407992015307 -0.04710494831021423 -0.013456487823294219 0.0043274331119841983 -0.01820576646326651 -0.047556727475871148 0.041177946509852008
leaf_weight=4.0907330587506276 24.926411464810375 8.8361473158001917 11.873320788145064 170.84989836066961 7.3686242848634711 1.6728878766298283 5.0418888479471198 3.9369555711746207 217.61867734789848 14.282396391034125 3.9658939242362967 4.646189421415329 5.682301826775074
leaf_count=20 218 58 67 1302 33 19 32 17 1210 90 21 20 61
internal_value=-0.007523 -0.000755812 -0.00318398 -0.00123378 -0.0251742 0.0121859 0.00623493 -0.0139556 -0.0129412 -0.0123612 -0.0327882 -0.0394075 0.0364329
internal_weight=484.792 236.251 198.928 182.723 16.2048 37.3235 29.9683 248.541 235.838 231.901 12.7028 8.73692 7.35519
internal_count=3168 1790 1460 1369 91 330 250 1378 1317 1300 61 40 80
is_linear=0
shrinkage=0.03


end of trees

feature_importances:
starter_k_percent_season=100
lineup_confirmed=40
starter_primary_pitch_put_away=20
starter_arsenal_put_away=19
starter_k_per_9_30d=16
starter_avg_batters_faced_30d=16
starter_max_pitches_30d=15
starter_primary_pitch_usage=14
opp_team_k_vs_primary_pitch=14
starter_whiff_percent_season=12
starter_arsenal_whiff_percent=12
opp_team_put_away_vs_starter_arsenal=11
starter_avg_ip_30d=10
starter_primary_pitch_whiff_percent=10
opp_team_k_vs_starter_arsenal=10
opp_team_games_14d=9
starter_primary_pitch_k_percent=8
opp_team_whiff_vs_secondary_pitch=8
starter_secondary_pitch_k_percent=7
opp_team_hits_per_pa_14d=7
starter_arsenal_k_percent=6
starter_era_30d=5
starter_whip_30d=5
starter_bb_percent_season=5
opp_team_whiff_vs_primary_pitch=5
starter_avg_pitches_30d=4
starter_prior_avg_batters_faced_vs_opp=4
opp_team_put_away_vs_secondary_pitch=4
is_home=3
starter_avg_so_30d=3
starter_secondary_pitch_usage=3
starter_secondary_pitch_whiff_percent=3
starter_starts_30d=2
starter_prior_k_per_9_vs_opp=2
starter_secondary_pitch_put_away=2
opp_team_pa_per_game_14d=2
opp_team_put_away_vs_primary_pitch=1
opp_team_whiff_vs_starter_arsenal=1

parameters:
[boosting: gbdt]
[objective: binary]
[metric: binary_logloss]
[tree_learner: serial]
[device_type: cpu]
[data_sample_strategy: bagging]
[data: ]
[valid: ]
[num_iterations: 1000]
[learning_rate: 0.03]
[num_leaves: 31]
[num_threads: 16]
[seed: 42]
[deterministic: 0]
[force_col_wise: 0]
[force_row_wise: 0]
[histogram_pool_size: -1]
[max_depth: 4]
[min_data_in_leaf: 20]
[min_sum_hessian_in_leaf: 0.001]
[bagging_fraction: 1]
[pos_bagging_fraction: 1]
[neg_bagging_fraction: 1]
[bagging_freq: 0]
[bagging_seed: 400]
[bagging_by_query: 0]
[feature_fraction: 1]
[feature_fraction_bynode: 1]
[feature_fraction_seed: 30056]
[extra_trees: 0]
[extra_seed: 12879]
[early_stopping_round: 0]
[early_stopping_min_delta: 0]
[first_metric_only: 0]
[max_delta_step: 0]
[lambda_l1: 0]
[lambda_l2: 0]
[linear_lambda: 0]
[min_gain_to_split: 0]
[drop_rate: 0.1]
[max_drop: 50]
[skip_drop: 0.5]
[xgboost_dart_mode: 0]
[uniform_drop: 0]
[drop_seed: 17869]
[top_rate: 0.2]
[other_rate: 0.1]
[min_data_per_group: 100]
[max_cat_threshold: 32]
[cat_l2: 10]
[cat_smooth: 10]
[max_cat_to_onehot: 4]
[top_k: 20]
[monotone_constraints: ]
[monotone_constraints_method: basic]
[monotone_penalty: 0]
[feature_contri: ]
[forcedsplits_filename: ]
[refit_decay_rate: 0.9]
[cegb_tradeoff: 1]
[cegb_penalty_split: 0]
[cegb_penalty_feature_lazy: ]
[cegb_penalty_feature_coupled: ]
[path_smooth: 0]
[interaction_constraints: ]
[verbosity: 1]
[saved_feature_importance_type: 0]
[use_quantized_grad: 0]
[num_grad_quant_bins: 4]
[quant_train_renew_leaf: 0]
[stochastic_rounding: 1]
[linear_tree: 0]
[max_bin: 255]
[max_bin_by_feature: ]
[min_data_in_bin: 3]
[bin_construct_sample_cnt: 200000]
[data_random_seed: 175]
[is_enable_sparse: 1]
[enable_bundle: 1]
[use_missing: 1]
[zero_as_missing: 0]
[feature_pre_filter: 1]
[pre_partition: 0]
[two_round: 0]
[header: 0]
[label_column: ]
[weight_column: ]
[group_column: ]
[ignore_column: ]
[categorical_feature: ]
[forcedbins_filename: ]
[precise_float_parser: 0]
[parser_config_file: ]
[objective_seed: 16083]
[num_class: 1]
[is_unbalance: 0]
[scale_pos_weight: 0.495751]
[sigmoid: 1]
[boost_from_average: 1]
[reg_sqrt: 0]
[alpha: 0.9]
[fair_c: 1]
[poisson_max_delta_step: 0.7]
[tweedie_variance_power: 1.5]
[lambdarank_truncation_level: 30]
[lambdarank_norm: 1]
[label_gain: ]
[lambdarank_position_bias_regularization: 0]
[eval_at: ]
[multi_error_top_k: 1]
[auc_mu_weights: ]
[num_machines: 1]
[local_listen_port: 12400]
[time_out: 120]
[machine_list_filename: ]
[machines: ]
[gpu_platform_id: -1]
[gpu_device_id: -1]
[gpu_use_dp: 0]
[num_gpu: 1]

end of parameters

pandas_categorical:[]
