tree
version=v4
num_class=1
num_tree_per_iteration=1
label_index=0
max_feature_idx=38
objective=binary sigmoid:1
feature_names=is_home lineup_confirmed opponent_lineup_size starter_starts_30d starter_avg_ip_30d starter_avg_so_30d starter_k_per_9_30d starter_era_30d starter_whip_30d starter_avg_pitches_30d starter_max_pitches_30d starter_avg_batters_faced_30d starter_k_percent_season starter_bb_percent_season starter_whiff_percent_season starter_primary_pitch_usage starter_primary_pitch_whiff_percent starter_primary_pitch_k_percent starter_primary_pitch_put_away starter_secondary_pitch_usage starter_secondary_pitch_whiff_percent starter_secondary_pitch_k_percent starter_secondary_pitch_put_away starter_arsenal_whiff_percent starter_arsenal_k_percent starter_arsenal_put_away opp_team_k_vs_primary_pitch opp_team_whiff_vs_primary_pitch opp_team_put_away_vs_primary_pitch opp_team_k_vs_secondary_pitch opp_team_whiff_vs_secondary_pitch opp_team_put_away_vs_secondary_pitch opp_team_k_vs_starter_arsenal opp_team_whiff_vs_starter_arsenal opp_team_put_away_vs_starter_arsenal opp_team_games_14d opp_team_pa_per_game_14d opp_team_k_rate_14d opp_team_hits_per_pa_14d
feature_infos=[0:1] [0:1] [0:9] [0:27] [0.20000000000000001:7.7000000000000002] [0:13] [0:22.5] [0:270] [0:40] [7.333333333333333:106.25] [9:117] [2.333333333333333:30.5] [4:37.700000000000003] [1.8999999999999999:26.100000000000001] [7.2999999999999998:34.700000000000003] [21.100000000000001:78.799999999999997] [5.2000000000000002:47.700000000000003] [2.8999999999999999:43.600000000000001] [6.0999999999999996:32.299999999999997] [15.699999999999999:44.399999999999999] [6.7999999999999998:51.100000000000001] [4.7999999999999998:49.5] [7.5999999999999996:33] [5.2000000000000002:42.399999999999999] [2.8999999999999999:41.799999999999997] [6.0999999999999996:32.299999999999997] [4.7999999999999998:56.899999999999999] [8.5029082774049218:57.100000000000001] [5.5:38.5] [4.7999999999999998:56.899999999999999] [8.5029082774049218:57.100000000000001] [5.5:38.5] [4.7999999999999998:43.060416666666661] [8.5029082774049218:42.999305555555551] [6.4000000000000004:38.5] [0:14] [23:64.5] none [0.078947368421052599:0.37037037037037029]
tree_sizes=1463 1513 1513 1410 1518 1514 1404 1515 1310 1519 1306 1410 1413 1415 1519 1522 1306 1415 1518 1627 1523 1417 1521 1413 1527 1416 1422 1521 1619 1522 1413 1618 1524

Tree=0
num_leaves=13
num_cat=0
split_feature=12 12 1 25 23 18 32 12 11 12 12 15
split_gain=214.796 34.8682 34.8154 32.1843 17.791 23.0592 13.0393 10.6614 10.3585 9.90338 10.4877 3.38087
threshold=22.050000000000004 17.750000000000004 1.0000000180025095e-35 20.15470330045288 24.499261992619932 18.250000000000004 24.041942804231095 25.550000000000004 11.583333333333334 17.450000000000003 12.450000000000001 39.900000000000006
decision_type=2 2 2 2 2 2 2 2 2 2 2 2
left_child=1 9 -2 6 8 -6 -4 -5 -3 10 -1 -11
right_child=2 4 3 7 5 -7 -8 -9 -10 11 -12 -13
leaf_value=0.62719386078690631 0.61116779203867522 0.64337439575497701 0.68942545165046787 0.70442507447813851 0.67280222258915601 0.61271088788647232 0.72707170894396134 0.72623831020738938 0.67894632248141407 0.61116779203867522 0.65668385692527931 0.64479830060135801
leaf_weight=12.064268112182615 3.5453970432281485 7.8503427952527991 79.819143652915955 30.619853064417839 14.23682849109173 9.638106629252432 9.2388733327388746 59.065891146659851 119.80780836939812 6.8692067712545377 108.15532714128494 4.4223304837942123
leaf_count=61 16 44 572 235 94 44 78 497 816 31 655 25
internal_value=0.678861 0.662504 0.704259 0.706106 0.672313 0.648544 0.693331 0.718791 0.676759 0.651201 0.653724 0.624339
internal_weight=465.333 283.044 182.289 178.744 151.533 23.8749 89.058 89.6857 127.658 131.511 120.22 11.2915
internal_count=3168 1770 1398 1382 998 138 650 732 860 772 716 56
is_linear=0
shrinkage=1


Tree=1
num_leaves=13
num_cat=0
split_feature=12 12 1 25 23 18 32 11 12 12 12 15
split_gain=198.206 32.9009 32.2467 28.5341 16.4974 20.5312 11.6748 11.416 10.188 8.80451 9.3466 2.96161
threshold=22.450000000000003 17.750000000000004 1.0000000180025095e-35 20.15470330045288 24.499261992619932 18.250000000000004 24.041942804231095 11.583333333333334 25.550000000000004 17.450000000000003 12.450000000000001 39.900000000000006
decision_type=2 2 2 2 2 2 2 2 2 2 2 2
left_child=1 9 -2 6 7 -6 -4 -3 -5 10 -1 -11
right_child=2 4 3 8 5 -7 -8 -9 -10 11 -12 -13
leaf_value=-0.070522450986666665 -0.085277453407292841 -0.056827499843048558 -0.011437209377130015 0.0026632078703110159 -0.027743055122925318 -0.0838626660535194 0.024610003835375868 -0.021427408741496224 0.024023845498397249 -0.085277453407292855 -0.043000589755434124 -0.054152538134268922
leaf_weight=12.355731315910814 3.6485543251037589 8.7779090926051122 75.938421800732613 30.591499805450439 14.373450241982939 9.9139965921640378 9.0499267876148206 124.25541388988495 58.571130342781544 7.0690740048885328 109.75903435051441 4.5047032833099365
leaf_count=61 16 48 543 235 94 44 77 842 497 31 655 25
internal_value=-0.0219656 -0.0372129 0.00299006 0.00483931 -0.0279142 -0.0506508 -0.00759875 -0.0237632 0.0166951 -0.0481555 -0.0457853 -0.0731631
internal_weight=468.809 291.009 177.8 174.151 157.321 24.2874 84.9883 133.033 89.1626 133.689 122.115 11.5738
internal_count=3168 1800 1368 1352 1028 138 620 890 732 772 716 56
is_linear=0
shrinkage=0.03


Tree=2
num_leaves=13
num_cat=0
split_feature=12 1 25 12 23 18 10 12 26 12 12 15
split_gain=183.256 29.3352 28.7218 28.6448 14.7423 18.4736 12.4316 9.73689 9.17241 7.91673 8.41322 2.63666
threshold=22.050000000000004 1.0000000180025095e-35 20.15470330045288 17.750000000000004 24.499261992619932 18.250000000000004 35.500000000000007 25.550000000000004 22.304634540135464 17.450000000000003 12.450000000000001 39.900000000000006
decision_type=2 2 2 2 2 2 2 2 2 2 2 2
left_child=3 -2 6 9 8 -6 -3 -4 -5 10 -1 -11
right_child=1 2 7 4 5 -7 -8 -9 -10 11 -12 -13
leaf_value=-0.067011796022379208 -0.080758935563310305 -0.054782839977503966 0.002585676346453872 -0.0264283672476823 -0.026670691917559761 -0.079443697579415828 -0.0051381929625903596 0.02350477738132007 -0.0040364242202448096 -0.080758935563310305 -0.041154456943524147 -0.051670021301458986
leaf_weight=12.608883030712603 3.7357048988342276 4.7965957000851622 30.56389969587326 110.33698511123657 14.500832140445711 10.147716797888277 84.756300799548626 58.0762123093009 19.351911060512066 7.237928241491316 111.21910679340363 4.5783305168151855
leaf_count=61 16 27 235 719 94 44 623 497 141 31 655 25
internal_value=-0.021161 0.00244129 0.00418553 -0.0359687 -0.0271292 -0.0483971 -0.00779724 0.0162917 -0.0230871 -0.0460262 -0.0437874 -0.0694881
internal_weight=471.91 181.929 178.193 289.982 154.337 24.6485 89.5529 88.6401 129.689 135.644 123.828 11.8163
internal_count=3168 1398 1382 1770 998 138 650 732 860 772 716 56
is_linear=0
shrinkage=0.03


Tree=3
num_leaves=12
num_cat=0
split_feature=12 1 12 25 23 18 32 4 12 14 6
split_gain=169.738 27.4328 27.321 25.5007 13.8331 16.7766 10.9453 10.2805 9.30678 7.7143 8.25379
threshold=22.450000000000003 1.0000000180025095e-35 17.750000000000004 20.15470330045288 24.499261992619932 18.250000000000004 24.041942804231095 2.8625000000000003 25.550000000000004 23.950000000000003 6.2560272903703416
decision_type=2 2 2 2 2 2 2 2 2 2 2
left_child=2 -2 9 6 7 -6 -3 -4 -5 10 -1
right_child=1 3 4 8 5 -7 -8 -9 -10 -11 -12
leaf_value=-0.036158020207605966 -0.076820856300963844 -0.010788941214648375 -0.050596720303308348 0.0025103501407262702 -0.025657193526089098 -0.075583408160541737 0.024206408205537225 -0.019634016877471967 0.02299832819776489 -0.0037207070142448828 -0.051404236533178306
leaf_weight=53.181038126349449 3.8082222938537589 76.417084462940693 10.461940586566923 30.53703473508358 14.619566127657892 10.342866376042364 8.9898796156048757 124.52895177900791 57.582019045948982 4.1366518288850775 80.077306360006332
leaf_count=312 16 543 57 235 94 44 77 833 497 29 431
internal_value=-0.0204016 0.00282828 -0.0342555 0.00457627 -0.0258275 -0.0463435 -0.00710535 -0.0220337 0.0158984 -0.0440673 -0.0453197
internal_weight=474.683 177.334 297.348 173.526 159.953 24.9624 85.407 134.991 88.1191 137.395 133.258
internal_count=3168 1368 1800 1352 1028 138 620 890 732 772 743
is_linear=0
shrinkage=0.03


Tree=4
num_leaves=13
num_cat=0
split_feature=12 1 25 12 23 18 11 12 26 30 34 15
split_gain=157.422 25.1418 25.6395 23.9529 12.4755 15.3676 11.3792 8.8964 8.3852 7.28119 10.2697 2.48047
threshold=22.050000000000004 1.0000000180025095e-35 20.15470330045288 17.750000000000004 24.499261992619932 19.250000000000004 5.8452380952380958 25.550000000000004 22.304634540135464 21.78474349167249 19.104420124316274 38.150000000000013
decision_type=2 2 2 2 2 2 2 2 2 2 2 2
left_child=3 -2 6 9 8 -6 -3 -4 -5 11 -11 -1
right_child=1 2 7 4 5 -7 -8 -9 -10 10 -12 -13
leaf_value=-0.067415004638128662 -0.073358725316055834 -0.051773180942671249 0.0024371552924857408 -0.024593951422872219 -0.025649643131398288 -0.07359831355279528 -0.0047269931825430194 0.022503859826294104 -0.0032765982721891236 -0.042938660397487519 -0.017446553212174587 -0.046351460188497007
leaf_weight=12.100383877754213 3.867356300354003 4.8931052163243285 30.510888993740082 111.97215866297483 15.332843236625196 9.9000883102416974 85.10575807094574 57.089351937174797 19.498859956860542 101.73599378764629 16.534401431679726 8.6133755370974523
leaf_count=55 16 27 235 719 97 41 623 497 141 564 106 47
internal_value=-0.0196828 0.00231316 0.00396097 -0.0331819 -0.0251407 -0.0444622 -0.00728482 0.0155147 -0.0214323 -0.0422485 -0.0393748 -0.0586562
internal_weight=477.155 181.466 177.599 295.688 156.704 25.2329 89.9989 87.6002 131.471 138.984 118.27 20.7138
internal_count=3168 1398 1382 1770 998 138 650 732 860 772 670 102
is_linear=0
shrinkage=0.03


Tree=5
num_leaves=13
num_cat=0
split_feature=12 1 12 25 23 18 32 11 12 12 6 15
split_gain=146.233 23.6806 23.0304 22.7947 11.8151 14.2227 10.2682 9.3578 8.50459 6.96968 7.53505 2.22585
threshold=22.450000000000003 1.0000000180025095e-35 17.750000000000004 20.15470330045288 24.499261992619932 18.250000000000004 24.041942804231095 11.583333333333334 25.550000000000004 17.450000000000003 6.2560272903703416 39.900000000000006
decision_type=2 2 2 2 2 2 2 2 2 2 2 2
left_child=2 -2 9 6 7 -6 -3 -4 -5 10 -1 -11
right_child=1 3 4 8 5 -7 -8 -9 -10 11 -12 -13
leaf_value=-0.029242493061469598 -0.070291848626396911 -0.01018582336085091 -0.049741849626988383 0.0023660463754900628 -0.023752854826311374 -0.069218726836906636 0.023803510104158876 -0.018366573736311016 0.022020799803346695 -0.072312379964253062 -0.044215357148231271 -0.046058875679360803
leaf_weight=48.949093364179134 3.9142494201660147 76.854023613035679 9.1706219762563688 30.48544605076313 14.837171368300917 10.627862349152563 8.9286415874958021 127.53273207694292 56.598941542208195 7.5248161256313306 79.18295581638813 4.7355837374925613
leaf_count=289 16 543 48 235 94 44 77 842 497 31 427 25
internal_value=-0.0190016 0.00267594 -0.0316674 0.00432816 -0.0239663 -0.0427281 -0.00664806 -0.0204714 0.0151403 -0.0405631 -0.0384954 -0.062172
internal_weight=479.342 176.781 302.561 172.867 162.168 25.465 85.7827 136.703 87.0844 140.392 128.132 12.2604
internal_count=3168 1368 1800 1352 1028 138 620 890 732 772 716 56
is_linear=0
shrinkage=0.03


Tree=6
num_leaves=12
num_cat=0
split_feature=12 1 25 12 23 18 26 10 6 14 12
split_gain=136.013 21.8284 22.8898 20.3215 10.7337 13.2002 10.44 8.5939 7.8861 6.9572 7.20821
threshold=22.050000000000004 1.0000000180025095e-35 20.15470330045288 17.750000000000004 24.499261992619932 18.250000000000004 24.039590976189828 64.500000000000014 10.719837157660995 23.950000000000003 17.450000000000003
decision_type=2 2 2 2 2 2 2 2 2 2 2
left_child=3 -2 6 9 8 -6 -3 -4 -5 10 -1
right_child=1 2 7 4 5 -7 -8 -9 -10 -11 -12
leaf_value=-0.038054781591174432 -0.067556909280691607 -0.0094038314312018291 -0.040129283254564274 -0.017604836179713281 -0.022890311603928591 -0.066515311440468905 0.033244131418286874 0.016402087081356098 -0.04283247605133083 -0.0010911223771943013 -0.062579700543904299
leaf_weight=125.61137107014656 3.9499495029449454 84.897247567772865 2.4919432401657096 120.74103962630033 14.932874128222467 10.726420432329176 5.5005898773670188 84.080200776457787 12.286816917359827 4.2282691597938529 11.799004331231115
leaf_count=691 16 601 16 791 94 44 49 716 69 29 52
internal_value=-0.0183556 0.00219294 0.00374975 -0.0307343 -0.0233616 -0.041127 -0.00680876 0.0147749 -0.0199349 -0.0389943 -0.0401607
internal_weight=481.246 180.92 176.97 300.326 158.687 25.6593 90.3978 86.5721 133.028 141.639 137.41
internal_count=3168 1398 1382 1770 998 138 650 732 860 772 743
is_linear=0
shrinkage=0.03


Tree=7
num_leaves=13
num_cat=0
split_feature=12 1 12 12 10 23 18 11 26 31 19 5
split_gain=126.665 20.6739 20.3789 19.6784 16.8271 10.2444 12.3575 8.49846 7.29982 6.53102 7.62329 6.467
threshold=22.450000000000003 1.0000000180025095e-35 25.700000000000006 17.750000000000004 57.500000000000007 24.499261992619932 19.250000000000004 11.583333333333334 24.039590976189828 20.20203555147398 27.000000000000004 3.8166666666666669
decision_type=2 2 2 2 2 2 2 2 2 2 2 2
left_child=3 -2 8 9 -4 7 -7 -5 -3 11 -11 -1
right_child=1 2 4 5 -6 6 -8 -9 -10 10 -12 -13
leaf_value=-0.03301528445497539 -0.065103486427078985 -0.0066491156792711772 -0.051354052170126778 -0.046713964828545423 0.020614977512787173 -0.022895341526151958 -0.065363714713216475 -0.017053599101479296 0.019275816345568245 -0.034255589748526272 0.018464845416152533 -0.046304728387427836
leaf_weight=69.156678542494774 3.9754197597503653 95.709760405123234 3.0672890394926062 9.3231493681669217 62.538048252463341 15.638908445835115 10.180978804826735 128.87892305850983 10.886974833905695 6.7231659144163114 3.9006043076515198 62.957400426268578
leaf_count=385 16 694 17 48 549 97 41 842 92 37 29 321
internal_value=-0.0177399 0.00253358 0.00409503 -0.0293833 0.0172502 -0.0222952 -0.0396409 -0.0190545 -0.00400134 -0.0375285 -0.0148988 -0.0393482
internal_weight=482.937 176.177 172.202 306.76 65.6053 164.022 25.8199 138.202 106.597 142.738 10.6238 132.114
internal_count=3168 1368 1352 1800 566 1028 138 890 786 772 66 706
is_linear=0
shrinkage=0.03


Tree=8
num_leaves=11
num_cat=0
split_feature=12 10 1 12 12 23 18 26 14 12
split_gain=118.083 19.2234 20.3023 22.6694 17.4452 9.36232 11.6037 7.57313 6.32735 6.69039
threshold=22.050000000000004 35.500000000000007 1.0000000180025095e-35 25.700000000000006 17.750000000000004 24.499261992619932 18.250000000000004 22.304634540135464 23.950000000000003 17.450000000000003
decision_type=2 2 2 2 2 2 2 2 2 2
left_child=4 -2 -3 -4 8 7 -7 -6 9 -1
right_child=1 2 3 -5 5 6 -8 -9 -10 -11
leaf_value=-0.035238393461054812 -0.048233614105236411 -0.062890927994095722 -0.0028184887028105355 0.019904888842685941 -0.021535599655524418 -0.021259434569509499 -0.061933301472257334 -0.0014583545586034407 -0.0001265219983928215 -0.058704999480313547
leaf_weight=127.49631364643574 6.5850750133395186 3.9915480613708487 107.1830063983798 62.584184415638447 114.55417221039534 15.107888489961626 10.843229688704012 19.836662441492081 4.2580137550830832 11.960092231631277
leaf_count=691 36 16 793 553 719 94 44 141 29 52
internal_value=-0.0171534 0.00207927 0.00398602 0.00555842 -0.0285608 -0.0217576 -0.0382543 -0.0185721 -0.036151 -0.0372509
internal_weight=484.4 180.344 173.759 169.767 304.056 160.342 25.9511 134.391 143.714 139.456
internal_count=3168 1398 1362 1346 1770 998 138 860 772 743
is_linear=0
shrinkage=0.03


Tree=9
num_leaves=13
num_cat=0
split_feature=12 1 25 12 13 32 18 32 10 12 5 35
split_gain=110.176 18.2107 18.9026 16.9931 9.18585 9.11393 9.11218 8.61215 7.48538 6.25238 7.22118 1.61939
threshold=22.450000000000003 1.0000000180025095e-35 20.15470330045288 17.750000000000004 9.5500000000000025 24.041942804231095 20.750000000000004 22.26039020377392 64.500000000000014 12.450000000000001 3.7083333333333335 11.500000000000002
decision_type=2 2 2 2 2 2 2 2 2 2 2 2
left_child=3 -2 5 9 7 -3 -6 -5 -4 11 -11 -1
right_child=1 2 8 4 6 -7 -8 -9 -10 10 -12 -13
leaf_value=-0.064536211898668247 -0.060886092679935201 -0.0093141860327706754 -0.036612451174247586 -0.020841290090746294 -0.025774128703396359 0.022923201555767297 -0.061462622513780957 -0.001167586557655913 0.015452360171920728 -0.025015819483550295 -0.039177988119017071 -0.043658395459536974
leaf_weight=6.8812540620565397 3.9991528987884513 77.461271353065968 2.5622086971998206 105.71045510470867 26.654594466090202 8.7882110849022848 8.4896733611822111 24.705566234886646 82.726699717342854 58.44931098818779 72.716340057551861 6.5040519535541534
leaf_count=29 16 543 16 659 161 77 34 174 716 334 377 32
internal_value=-0.0165941 0.00239827 0.00387365 -0.0273446 -0.0207827 -0.00602942 -0.0343953 -0.0171144 0.0138883 -0.0348603 -0.0328671 -0.0543915
internal_weight=485.649 175.538 171.538 310.111 165.56 86.2495 35.1443 130.416 85.2889 144.551 131.166 13.3853
internal_count=3168 1368 1352 1800 1028 620 195 833 732 772 711 61
is_linear=0
shrinkage=0.03


Tree=10
num_leaves=11
num_cat=0
split_feature=12 10 1 12 12 14 26 30 34 15
split_gain=102.905 17.4177 17.9783 20.9407 15.1385 8.44573 6.9603 6.15867 8.84918 2.00883
threshold=22.050000000000004 35.500000000000007 1.0000000180025095e-35 25.700000000000006 17.750000000000004 27.350000000000005 22.304634540135464 21.78474349167249 19.104420124316274 38.150000000000013
decision_type=2 2 2 2 2 2 2 2 2 2
left_child=4 -2 -3 -4 7 6 -6 9 -9 -1
right_child=1 2 3 -5 5 -7 -8 8 -10 -11
leaf_value=-0.056128585378858481 -0.045507589942669652 -0.059061665901845355 -0.0027175628537456898 0.019210761106800298 -0.021655511448801405 -0.052867928196086503 -0.0044101713928911693 -0.034282367481908667 -0.011088457470441277 -0.03759092205616138
leaf_weight=12.6245563775301 6.6949813067913047 3.998990297317504 107.25524329394102 61.765217758715153 129.72871112078428 6.8616945743560782 25.14617083966732 106.44386205077171 17.196372546255589 9.0200605764985067
leaf_count=55 36 16 793 553 794 31 173 564 106 47
internal_value=-0.0160586 0.00197104 0.00380822 0.00529571 -0.0266122 -0.0202985 -0.0188555 -0.0336408 -0.0310565 -0.0484033
internal_weight=486.736 179.714 173.019 169.02 307.021 161.737 154.875 145.285 123.64 21.6446
internal_count=3168 1398 1362 1346 1770 998 967 772 670 102
is_linear=0
shrinkage=0.03


Tree=11
num_leaves=12
num_cat=0
split_feature=12 1 25 12 26 23 18 10 4 14 6
split_gain=96.1274 16.1582 17.2658 14.8373 8.77199 8.47127 10.3503 8.14575 7.59357 5.83302 6.37387
threshold=22.450000000000003 1.0000000180025095e-35 20.15470330045288 17.750000000000004 24.039590976189828 24.499261992619932 18.250000000000004 57.500000000000007 2.8625000000000003 23.950000000000003 6.2560272903703416
decision_type=2 2 2 2 2 2 2 2 2 2 2
left_child=3 -2 4 9 -3 8 -7 -4 -5 10 -1
right_child=1 2 7 5 -6 6 -8 -9 -10 -11 -12
leaf_value=-0.025701508634210762 -0.057394939738642375 -0.0081926469822065501 -0.041252321096151019 -0.040339791641649345 0.03181095251606119 -0.019177822665991186 -0.057460387703701252 0.014904047897871016 -0.01444456894260678 0.0018671511387864793 -0.038708202049825322
leaf_weight=56.278428666293621 3.9917595386505118 81.178288713097572 2.3925412073731414 11.061044439673422 5.2525648847222319 15.317156210541727 10.864536225795744 82.04053408652544 129.68410686403513 4.3155426010489455 85.308998860418797
leaf_count=312 16 572 14 57 48 94 44 718 833 29 431
internal_value=-0.0155449 0.00227019 0.0036641 -0.0255027 -0.00576155 -0.0193945 -0.0350638 0.0133128 -0.0164797 -0.0324911 -0.0335383
internal_weight=487.686 174.856 170.864 312.83 86.4309 166.927 26.1817 84.4331 140.745 145.903 141.587
internal_count=3168 1368 1352 1800 620 1028 138 732 890 772 743
is_linear=0
shrinkage=0.03


Tree=12
num_leaves=12
num_cat=0
split_feature=12 10 1 12 12 16 27 30 34 9 15
split_gain=89.9612 15.763 16.0201 19.3486 13.2547 7.91308 7.20162 5.80256 8.21356 2.86424 1.92599
threshold=22.050000000000004 35.500000000000007 1.0000000180025095e-35 25.700000000000006 17.750000000000004 13.600000000000001 22.577753049840108 21.78474349167249 19.104420124316274 92.550000000000011 38.150000000000013
decision_type=2 2 2 2 2 2 2 2 2 2 2
left_child=4 -2 -3 -4 7 9 -7 10 -9 -6 -1
right_child=1 2 3 -5 5 6 -8 8 -10 -11 -12
leaf_value=-0.05323609715013386 -0.042962785588680941 -0.055866878748414027 -0.0026236415953230178 0.018540467271962683 -0.010785398837132157 -0.024323278664353222 -0.0026540238762681866 -0.031995276253273586 -0.0097235296346346763 0.01035225216042575 -0.035152340072888706
leaf_weight=12.689204603433611 6.7906600683927527 3.978106975555419 107.31795056164265 60.960327103734016 17.581860020756725 121.18376679718494 15.57771899551153 107.33634582161903 17.305421575903893 8.5874996408820135 9.1030496284365636
leaf_count=55 36 16 793 553 114 716 106 564 106 62 47
internal_value=-0.015055 0.00186922 0.00363658 0.00504325 -0.0248499 -0.018963 -0.0218551 -0.0314001 -0.028903 -0.00384906 -0.0456822
internal_weight=488.412 179.047 172.256 168.278 309.365 162.931 136.761 146.434 124.642 26.1694 21.7923
internal_count=3168 1398 1362 1346 1770 998 822 772 670 176 102
is_linear=0
shrinkage=0.03


Tree=13
num_leaves=12
num_cat=0
split_feature=12 10 1 12 12 23 18 38 12 12 35
split_gain=84.1451 14.7228 15.1443 18.3817 12.4666 7.80714 9.89454 7.16706 5.71093 6.79036 1.52419
threshold=22.050000000000004 35.500000000000007 1.0000000180025095e-35 25.900000000000002 17.750000000000004 24.499261992619932 19.250000000000004 0.18871713268167004 12.450000000000001 17.450000000000003 11.500000000000002
decision_type=2 2 2 2 2 2 2 2 2 2 2
left_child=4 -2 -3 -4 8 7 -7 -6 10 -10 -1
right_child=1 2 3 -5 5 6 -8 -9 9 -11 -12
leaf_value=-0.058677793255036317 -0.041319107054057815 -0.054461401643091691 -0.002373678311643201 0.01844388444948724 5.7019540885936467e-05 -0.01863227759695181 -0.056408510335580177 -0.018487574332219963 -0.026283584122493001 -0.049348936545569003 -0.038561439086095294
leaf_weight=6.9804387092590314 6.8480597883462897 3.9586303234100333 109.19320388883352 58.693470597267151 22.417817205190659 16.059304192662243 10.206042662262915 114.83930377662182 120.59225279837847 12.696663334965704 6.590280570089817
leaf_count=29 36 16 809 537 152 97 41 708 655 56 32
internal_value=-0.0145823 0.00181763 0.00353663 0.00490418 -0.0240241 -0.0183262 -0.0333112 -0.0154587 -0.0303684 -0.0284807 -0.0489088
internal_weight=489.075 178.693 171.845 167.887 310.382 163.522 26.2653 137.257 146.86 133.289 13.5707
internal_count=3168 1398 1362 1346 1770 998 138 860 772 711 61
is_linear=0
shrinkage=0.03


Tree=14
num_leaves=13
num_cat=0
split_feature=12 1 25 12 26 13 18 32 10 31 19 12
split_gain=78.7957 13.6552 15.2569 12.2677 8.26755 7.63023 7.76675 7.37641 7.02187 5.45926 6.66741 5.55299
threshold=22.450000000000003 1.0000000180025095e-35 20.15470330045288 17.750000000000004 24.039590976189828 9.5500000000000025 20.750000000000004 22.26039020377392 57.500000000000007 20.068219912078519 27.000000000000004 12.450000000000001
decision_type=2 2 2 2 2 2 2 2 2 2 2 2
left_child=3 -2 4 9 -3 7 -7 -5 -4 11 -11 -1
right_child=1 2 8 5 -6 6 -8 -9 -10 10 -12 -13
leaf_value=-0.051016891546865985 -0.053164828908388126 -0.0077806000462324991 -0.03749804119949629 -0.017633342196410915 0.031280668687675608 -0.022073262408399245 -0.055040473998290818 0.00044234467330786129 0.014062283926473435 -0.026403882634066338 0.021832040131210866 -0.029211148698662218
leaf_weight=11.480269461870192 3.9338834285736075 81.433359384536743 2.4492712393403044 107.82979676127434 5.1873531565070143 27.246985025703907 8.4188066720962507 25.036545321345329 80.776960417628288 7.2873430699110013 3.9917539656162262 124.43850015848875
leaf_count=50 16 572 14 659 48 161 34 174 718 39 29 654
internal_value=-0.0141314 0.0020922 0.00337203 -0.0230611 -0.00544138 -0.0175345 -0.0298551 -0.0142273 0.0125449 -0.0293886 -0.00933284 -0.031053
internal_weight=489.511 173.781 169.847 315.73 86.6207 168.532 35.6658 132.866 83.2262 147.198 11.2791 135.919
internal_count=3168 1368 1352 1800 620 1028 195 833 732 772 68 704
is_linear=0
shrinkage=0.03


Tree=15
num_leaves=13
num_cat=0
split_feature=12 1 12 18 11 15 34 26 30 34 35 15
split_gain=73.9152 13.4066 12.9357 12.6703 10.3985 8.42104 6.95397 6.46614 5.37388 7.41671 5.28609 1.73358
threshold=22.650000000000002 1.0000000180025095e-35 17.750000000000004 22.650000000000002 5.8452380952380958 32.150000000000006 15.805350917251074 21.768399570341305 21.78474349167249 19.104420124316274 11.500000000000002 38.150000000000013
decision_type=2 2 2 2 2 2 2 2 2 2 2 2
left_child=2 -2 8 4 -3 7 -7 -4 11 -10 -5 -1
right_child=1 3 5 10 -6 6 -8 -9 9 -11 -12 -13
leaf_value=-0.049358473661295164 -0.051965438032416773 -0.038021485863245323 -0.010147274637070549 0.0080628313089683434 0.0012306768710473226 -0.035787211434088022 -0.016979739314688023 0.020983429818055836 -0.028989947410583437 -0.0078981692405602089 0.028866648976845027 -0.032243525862878659
leaf_weight=12.695081576704981 3.9043786525726309 6.4408303871750823 26.550821393728256 23.112845502793789 106.70012149214745 20.574301540851593 126.36554381251335 7.760018676519393 108.17332931607962 17.421202629804611 20.961627349257469 9.1766318976879102
leaf_count=55 16 35 170 205 825 112 772 60 564 106 201 47
internal_value=-0.0136976 0.00294798 -0.0218564 0.00431173 -0.00100385 -0.0164884 -0.0196131 -0.0031065 -0.0284542 -0.0260643 0.017957 -0.0421776
internal_weight=489.837 161.12 328.717 157.215 113.141 181.251 146.94 34.3108 147.466 125.595 44.0745 21.8717
internal_count=3168 1282 1886 1266 860 1114 884 230 772 670 406 102
is_linear=0
shrinkage=0.03


Tree=16
num_leaves=11
num_cat=0
split_feature=12 10 12 1 12 0 14 11 14 6
split_gain=69.4982 12.7155 13.2173 12.8503 10.3516 9.31804 7.02033 6.27925 5.27755 6.1626
threshold=22.050000000000004 35.500000000000007 25.550000000000004 1.0000000180025095e-35 17.750000000000004 1.0000000180025095e-35 27.350000000000005 11.583333333333334 23.950000000000003 6.2560272903703416
decision_type=2 2 2 2 2 2 2 2 2 2
left_child=4 -2 5 -4 8 -3 7 -6 9 -1
right_child=1 2 3 -5 6 -7 -8 -9 -10 -11
leaf_value=-0.020901263136702534 -0.038076990901498922 -0.012058263323973436 -0.050853144160087897 0.016427728844272196 -0.038822757593053155 0.0059086967124806072 -0.046375216774884778 -0.013815331651735334 0.00486750351637076 -0.033613321315638038
leaf_weight=56.99482711404562 6.948989510536193 53.67850873619318 2.6610306054353705 64.057163029909134 9.6229440048336965 50.343321450054646 6.8433889821171752 148.34808315336704 4.3816967383027068 86.279406636953354
leaf_count=312 36 376 11 590 48 385 31 919 29 431
internal_value=-0.0132771 0.00170291 0.00332193 0.0137443 -0.0217957 -0.00336282 -0.0166274 -0.0153387 -0.0275646 -0.0285564
internal_weight=490.159 177.689 170.74 66.7182 312.47 104.022 164.814 157.971 147.656 143.274
internal_count=3168 1398 1362 601 1770 761 998 967 772 743
is_linear=0
shrinkage=0.03


Tree=17
num_leaves=12
num_cat=0
split_feature=12 10 12 1 21 0 34 14 27 9 31
split_gain=65.1624 11.9127 12.5703 12.4797 9.79137 7.8023 7.61362 8.80893 6.40178 4.3907 3.46352
threshold=22.050000000000004 35.500000000000007 25.700000000000006 1.0000000180025095e-35 24.650000000000002 1.0000000180025095e-35 15.996471624702547 19.450000000000003 12.021348513868199 93.100000000000009 17.182757899142086
decision_type=2 2 2 2 2 2 2 2 2 2 2
left_child=4 -2 5 -4 6 -3 9 -8 -6 -1 -10
right_child=1 2 3 -5 8 -7 7 -9 10 -11 -12
leaf_value=-0.038946158258647223 -0.036744459794846966 -0.010625750011738388 -0.049819210982929518 0.016909024179125362 0.031747941596963009 0.0054596216420235684 -0.031817428628082477 -0.017845413562275675 -0.029276388402509197 -0.006241326894403822 -0.0090605481766178417
leaf_weight=36.203037522733212 6.984400436282157 56.538721404969692 2.6351576298475257 58.986363217234612 3.1235781908035269 52.193224340677261 54.456895381212234 159.73129200190306 9.1339633166789991 4.1143361032009116 46.243510246276855
leaf_count=179 36 398 11 553 24 400 275 927 50 26 289
internal_value=-0.0128733 0.001656 0.0032304 0.0140555 -0.0211051 -0.00290449 -0.023649 -0.0213978 -0.010038 -0.0356087 -0.0123949
internal_weight=490.344 177.338 170.353 61.6215 313.007 108.732 254.506 214.188 58.5011 40.3174 55.3775
internal_count=3168 1398 1362 564 1770 798 1407 1202 363 205 339
is_linear=0
shrinkage=0.03


Tree=18
num_leaves=13
num_cat=0
split_feature=12 1 18 12 11 15 38 28 12 12 35 15
split_gain=61.1356 11.8169 11.2656 11.0517 8.64173 7.85029 6.12633 6.08494 5.39662 6.1324 5.15 1.94185
threshold=22.650000000000002 1.0000000180025095e-35 22.650000000000002 17.750000000000004 5.8452380952380958 31.850000000000005 0.23258341759352882 18.213755458515287 17.450000000000003 12.600000000000001 11.500000000000002 39.900000000000006
decision_type=2 2 2 2 2 2 2 2 2 2 2 2
left_child=3 -2 4 8 -3 7 -7 -5 9 -1 -4 -10
right_child=1 2 10 5 -6 6 -8 -9 11 -11 -12 -13
leaf_value=-0.041911530222505711 -0.049429919738689716 -0.034444844467144214 0.0072252224250194405 -0.01015643462930938 0.001086891424393593 -0.020890664117346223 -0.0062175250993470642 0.018456143474705634 -0.054197878331089397 -0.021893288835240377 0.027966158892129889 -0.030126073443305309
leaf_weight=15.563542045652865 3.8144103437662116 6.5389414206147185 22.770110376179218 21.311126664280895 106.42122633010149 118.91553062945604 32.638067610561848 9.7497047334909421 7.6470955312252027 119.69781509786844 20.451832927763462 4.980359323322773
leaf_count=71 16 35 205 135 825 697 209 73 31 645 201 25
internal_value=-0.0124825 0.00273986 0.00401399 -0.0198516 -0.000969939 -0.0149148 -0.0177307 -0.00117521 -0.0259476 -0.0241966 0.0170395 -0.0447038
internal_weight=490.5 159.997 156.182 330.503 112.96 182.614 151.554 31.0608 147.889 135.261 43.2219 12.6275
internal_count=3168 1282 1266 1886 860 1114 906 208 772 716 406 56
is_linear=0
shrinkage=0.03


Tree=19
num_leaves=14
num_cat=0
split_feature=12 25 1 21 32 34 14 27 5 13 30 9 31
split_gain=57.5012 10.9222 10.7783 9.11441 8.3857 7.12712 8.11829 6.00428 5.85156 5.78064 4.63986 4.06351 3.22012
threshold=22.050000000000004 20.15470330045288 1.0000000180025095e-35 24.650000000000002 24.041942804231095 15.996471624702547 18.350000000000005 12.021348513868199 2.2583333333333337 7.4500000000000011 33.952161889188162 93.100000000000009 17.182757899142086
decision_type=2 2 2 2 2 2 2 2 2 2 2 2 2
left_child=3 4 -3 5 8 11 -7 -5 -2 -4 -6 -1 -9
right_child=1 2 9 7 10 6 -8 12 -10 -11 -12 -13 -14
leaf_value=-0.037034872443883135 -0.032723778321561169 -0.04825088714928763 0.020170362762469828 0.031373862740741408 0.042588068078840732 -0.032269635562673281 -0.017297086149395294 -0.027653457186710414 -0.0058620673366101481 0.0041097154589661957 -0.0012498796395774181 -0.0056144760544458083 -0.0082161136179584402
leaf_weight=36.271975256502628 8.0782215893268567 2.8206787854433051 36.937032863497734 3.1149601861834517 4.7221734672784788 40.068968676030636 174.67009320855141 9.1890755668282491 75.639354191720486 44.430595397949219 4.0251162275671959 4.1257816776633254 46.426442965865135
leaf_count=179 44 12 352 24 46 199 1003 50 532 380 32 26 289
internal_value=-0.0121071 0.0015842 0.0094019 -0.0198129 -0.00553373 -0.0222656 -0.0200909 -0.00915753 -0.00845405 0.0114005 0.0224158 -0.0338259 -0.0114276
internal_weight=490.52 176.653 84.1883 313.867 92.4649 255.137 214.739 58.7305 83.7176 81.3676 8.74729 40.3978 55.6155
internal_count=3168 1398 744 1770 654 1407 1202 363 576 732 78 205 339
is_linear=0
shrinkage=0.03


Tree=20
num_leaves=13
num_cat=0
split_feature=12 1 25 16 24 26 6 25 18 17 8 11
split_gain=53.9612 10.3368 12.2617 8.77047 9.12598 7.77834 7.37447 6.45008 7.40628 7.08194 5.74059 3.74858
threshold=22.050000000000004 1.0000000180025095e-35 20.15470330045288 18.450000000000003 18.599967254254782 24.039590976189828 6.2259740259740264 18.893311004055608 24.400000000000002 26.500000000000004 1.7973139044943822 24.900000000000002
decision_type=2 2 2 2 2 2 2 2 2 2 2 2
left_child=3 -2 5 4 6 -3 -1 9 -9 -5 -4 -6
right_child=1 2 10 7 11 -7 -8 8 -10 -11 -12 -13
leaf_value=-0.0069315869960803233 -0.047826481205004427 -0.0070496379626747586 0.013082191071258442 -0.023464841740267584 -9.3007595173925578e-05 0.030785294592854309 -0.026101677962980366 -0.05050134100777303 -0.0075243168856293273 0.00071563034742525076 -0.021354219219143579 -0.018501818136088227
leaf_weight=26.637835055589676 3.7363189905881873 86.411957278847694 76.330927804112434 143.66903060674667 43.652169860899448 5.1837575510144225 56.086880579590797 14.69149859249592 4.7840209379792205 11.795998804271219 4.6204772889614096 12.896598212420939
leaf_count=159 16 601 698 781 285 49 302 61 29 76 34 77
internal_value=-0.0117438 0.00154084 0.00260984 -0.0191969 -0.0135796 -0.00490841 -0.0199288 -0.023669 -0.0399443 -0.0216301 0.0111167 -0.00429135
internal_weight=490.497 176.283 172.547 314.214 139.273 91.5957 82.7247 174.941 19.4755 155.465 80.9514 56.5488
internal_count=3168 1398 1382 1770 823 650 461 947 90 857 732 362
is_linear=0
shrinkage=0.03


Tree=21
num_leaves=12
num_cat=0
split_feature=12 12 1 4 10 1 6 12 16 21 38
split_gain=50.9102 14.5189 9.51847 10.5954 7.97997 7.56065 6.98994 6.74622 6.22923 5.61176 1.74921
threshold=20.350000000000005 25.700000000000006 1.0000000180025095e-35 2.055769230769231 99.500000000000014 1.0000000180025095e-35 11.10874704491726 12.600000000000001 22.600000000000005 24.300000000000001 0.22712977707006368
decision_type=2 2 2 2 2 2 2 2 2 2 2
left_child=5 4 -3 -4 6 -1 -2 10 -9 -6 -7
right_child=1 2 3 -5 9 7 -8 8 -10 -11 -12
leaf_value=-0.061415599271666142 -0.0073713962183319433 -0.046367491164568612 -0.031707771388750028 0.016743293934797225 0.012342234293133461 -0.04602443172198175 -0.028359746480274037 -0.017089304198170532 -0.032270851027581995 -0.0068033276018182641 -0.024092341768243295
leaf_weight=4.0710952281951895 105.30149656534195 2.5121271014213553 4.3796774297952643 56.027976870536804 29.871309667825699 10.781401902437208 16.521701492369175 202.97547943145037 27.636506371200085 25.575909025967121 4.6993905901908866
leaf_count=17 707 11 27 539 227 47 99 1152 138 180 24
internal_value=-0.0113946 -0.00152942 0.010851 0.0132305 -0.00592368 -0.0208664 -0.0102178 -0.0201956 -0.0189087 0.00351104 -0.0393667
internal_weight=490.354 240.19 62.9198 60.4077 177.27 250.164 121.823 246.093 230.612 55.4472 15.4808
internal_count=3168 1790 577 566 1213 1378 806 1361 1290 407 71
is_linear=0
shrinkage=0.03


Tree=22
num_leaves=13
num_cat=0
split_feature=12 1 18 12 32 27 16 33 12 6 35 15
split_gain=48.0136 10.0015 9.57247 9.54585 7.46987 7.03787 7.23657 5.98035 5.06879 6.14278 5.03665 1.80347
threshold=22.650000000000002 1.0000000180025095e-35 22.650000000000002 17.750000000000004 22.194858646137721 22.577753049840108 20.600000000000005 25.935335192814616 17.450000000000003 6.2560272903703416 11.500000000000002 39.900000000000006
decision_type=2 2 2 2 2 2 2 2 2 2 2 2
left_child=3 -2 4 8 -3 6 -5 -7 9 -1 -4 -10
right_child=1 2 10 5 -6 7 -8 -9 11 -11 -12 -13
leaf_value=-0.01340883935387698 -0.046525270112431939 -0.0055052079155853426 0.0061046925978034189 -0.011699009069782699 0.012005796478695588 0.018441690475752153 -0.027017340648379608 -0.015639319033103834 -0.050852612812876792 -0.026565235191101991 0.026880747656453902 -0.027535703499829797
leaf_weight=51.689022816717625 3.6551745980978003 82.965671993792057 22.322943836450577 129.58551472425461 29.799614407122135 11.141903921961786 35.321051746606827 7.9332977905869475 7.4780767858028394 83.595900483429432 19.830996088683605 4.9693354889750481
leaf_count=289 16 603 205 790 257 82 193 49 31 427 201 25
internal_value=-0.0110538 0.00252445 0.00368174 -0.0175448 -0.00087771 -0.0129844 -0.01498 0.00426754 -0.0232241 -0.0215385 0.0158786 -0.0415439
internal_weight=490.289 158.574 154.919 331.714 112.765 183.982 164.907 19.0752 147.732 135.285 42.1539 12.4474
internal_count=3168 1282 1266 1886 860 1114 983 131 772 716 406 56
is_linear=0
shrinkage=0.03


Tree=23
num_leaves=12
num_cat=0
split_feature=12 12 11 1 13 27 1 19 7 16 17
split_gain=45.4862 13.399 9.32549 9.4593 7.6821 9.29975 6.99306 6.81807 6.48835 5.5126 2.53328
threshold=20.250000000000004 25.700000000000006 6.6458333333333348 1.0000000180025095e-35 9.7000000000000011 21.411180165731089 1.0000000180025095e-35 26.600000000000005 1.7895621231590393 22.600000000000005 13.750000000000002
decision_type=2 2 2 2 2 2 2 2 2 2 2
left_child=6 4 -3 -4 5 -2 -1 -6 10 -10 -8
right_child=1 2 3 -5 7 -7 8 -9 9 -11 -12
leaf_value=-0.058769452734562487 -0.0059002384791443947 -0.04418601374651384 -0.0449156465073298 0.015407068187748819 -0.022040553404413941 0.013962138590306884 -0.054453800671640726 0.0055768389771560694 -0.016060236995536929 -0.030986576722852138 -0.029511621299149578
leaf_weight=4.0852186977863303 108.51213786751032 2.6888512074947348 2.4396730810403815 57.03045155107975 37.131225638091564 26.371308453381062 4.9393086656928089 10.270558059215544 197.25063171982765 25.102537572383881 14.203683182597159
leaf_count=17 734 13 11 553 226 208 21 74 1113 125 73
internal_value=-0.0107277 -0.00156633 0.0104616 0.0129324 -0.00566784 -0.00201691 -0.0198466 -0.0160567 -0.0191882 -0.0177453 -0.0359472
internal_weight=490.026 244.444 62.159 59.4701 182.285 134.883 245.581 47.4018 241.496 222.353 19.143
internal_count=3168 1819 577 564 1242 942 1349 300 1332 1238 94
is_linear=0
shrinkage=0.03


Tree=24
num_leaves=13
num_cat=0
split_feature=12 10 12 1 0 16 24 6 25 18 17 31
split_gain=42.8769 9.28832 9.50178 9.07757 8.20528 7.95405 7.96903 6.82923 6.15694 7.13306 6.24233 3.59002
threshold=22.050000000000004 35.500000000000007 25.900000000000002 1.0000000180025095e-35 1.0000000180025095e-35 18.450000000000003 18.599967254254782 6.2259740259740264 18.893311004055608 24.400000000000002 26.500000000000004 16.410503663416986
decision_type=2 2 2 2 2 2 2 2 2 2 2 2
left_child=5 -2 4 -4 -3 6 7 -1 10 -10 -7 -8
right_child=1 2 3 -5 -6 8 11 -9 9 -11 -12 -13
leaf_value=-0.0051232043150397089 -0.032226627485195641 -0.010058100434198837 -0.044260568608872862 0.015321008273353733 0.0062897363709137804 -0.021041596175810112 -0.018550513662359245 -0.02355142328494194 -0.047954445129356857 -0.0056849055316431007 0.0016567562335677072 0.00062078431543513329
leaf_weight=26.677251935005188 7.0569802597165099 57.67535974085331 2.4020763486623755 54.897980354726315 53.046898990869522 143.9795446023345 10.868873618543146 56.282575733959675 14.332471132278444 4.7951625585556021 11.797884754836558 45.982608333230019
leaf_count=159 36 405 11 537 409 781 63 302 61 29 76 299
internal_value=-0.0104104 0.00149018 0.00290629 0.0128233 -0.00222587 -0.0170308 -0.0116964 -0.0176255 -0.0212949 -0.0373578 -0.0193225 -0.00304439
internal_weight=489.796 175.079 168.022 57.3001 110.722 314.716 139.811 82.9598 174.905 19.1276 155.777 56.8515
internal_count=3168 1398 1362 548 814 1770 823 461 947 90 857 362
is_linear=0
shrinkage=0.03


Tree=25
num_leaves=12
num_cat=0
split_feature=12 12 11 1 10 1 12 7 21 16 35
split_gain=40.6548 11.5633 8.42936 8.58642 7.04633 6.60318 6.58381 6.55363 5.36696 5.33466 1.48293
threshold=20.350000000000005 25.700000000000006 6.6458333333333348 1.0000000180025095e-35 99.500000000000014 1.0000000180025095e-35 12.450000000000001 7.207594936708861 24.300000000000001 22.600000000000005 11.500000000000002
decision_type=2 2 2 2 2 2 2 2 2 2 2
left_child=5 4 -3 -4 7 -1 10 -2 -6 -8 -7
right_child=1 2 3 -5 8 6 9 -9 -10 -11 -12
leaf_value=-0.056374677427150015 -0.0069055645746392297 -0.041876992264443635 -0.043643189090436428 0.014726769792231628 0.012395621414120263 -0.048163575583394479 -0.015095061619467966 -0.030610249440083212 -0.0063200083140689369 -0.029183409640358385 -0.028152212073191553
leaf_weight=4.0869418010115615 110.65754426270723 2.6965993121266356 2.3635569363832465 56.203811205923557 29.80934739112854 6.8472522273659688 205.54363310337067 11.596825726330279 25.660612002015114 27.416136398911476 6.4933203086256981
leaf_count=17 739 13 11 553 227 29 1162 67 180 138 32
internal_value=-0.0101067 -0.00125606 0.00998339 0.0123712 -0.00513044 -0.0185544 -0.0179268 -0.00915415 0.0037377 -0.0167531 -0.0384233
internal_weight=489.376 238.988 61.264 58.5674 177.724 250.387 246.3 122.254 55.47 232.96 13.3406
internal_count=3168 1790 577 564 1213 1378 1361 806 407 1300 61
is_linear=0
shrinkage=0.03


Tree=26
num_leaves=12
num_cat=0
split_feature=12 12 11 1 13 6 22 1 12 34 35
split_gain=38.2457 11.178 7.95046 8.18307 6.9989 9.00235 6.2121 6.17396 6.20165 5.68519 1.42373
threshold=20.250000000000004 25.700000000000006 6.6458333333333348 1.0000000180025095e-35 9.7000000000000011 11.140735502121643 18.250000000000004 1.0000000180025095e-35 12.450000000000001 15.603974969037223 11.500000000000002
decision_type=2 2 2 2 2 2 2 2 2 2 2
left_child=7 4 -3 -4 5 -2 -6 -1 10 -10 -9
right_child=1 2 3 -5 6 -7 -8 8 9 -11 -12
leaf_value=-0.054749902073824228 0.0013785209363952468 -0.040568698203405043 -0.043060606216998885 0.014390560171787546 -0.030143479958123942 -0.021642495300343317 -0.0072231867346860589 -0.047074492745908268 -0.02951074249269274 -0.014677602433042671 -0.027411936879586304
leaf_weight=4.0820398330688468 117.61509186029434 2.6999962255358687 2.3242627829313269 55.797635279595852 16.112874984741211 17.572007603943348 31.346665009856224 6.7962594106793386 26.281613051891327 201.95505473017693 6.4689846411347389
leaf_count=17 833 13 11 553 92 109 208 29 134 1137 32
internal_value=-0.00980979 -0.00138395 0.00975536 0.0120931 -0.00509338 -0.00161382 -0.0150048 -0.0181631 -0.0175446 -0.0163856 -0.0374858
internal_weight=489.052 243.469 60.8219 58.1219 182.647 135.187 47.4595 245.584 241.502 228.237 13.2652
internal_count=3168 1819 577 564 1242 942 300 1349 1332 1271 61
is_linear=0
shrinkage=0.03


Tree=27
num_leaves=13
num_cat=0
split_feature=12 1 21 18 25 14 32 15 35 24 27 27
split_gain=36.1685 8.45609 8.4466 7.80815 6.76041 8.10105 6.55128 5.44968 4.94315 3.99625 5.74217 1.41845
threshold=22.650000000000002 1.0000000180025095e-35 24.650000000000002 22.650000000000002 18.893311004055608 19.450000000000003 22.194858646137721 46.050000000000004 11.500000000000002 23.126089663760904 12.021348513868199 20.493061863168769
decision_type=2 2 2 2 2 2 2 2 2 2 2 2
left_child=2 -2 4 6 5 -1 -3 -6 -5 10 -4 -11
right_child=1 3 9 8 7 -7 -8 -9 -10 11 -12 -13
leaf_value=-0.025309492448115832 -0.044140297207334978 -0.0050025653607799593 0.031787358746643846 0.0048421373230982598 -0.039472158689123613 -0.012771852471081034 0.011465599366391199 -0.0033424255350750559 0.025738633431572289 0.031409368146136582 -0.010096082975384849 0.0033071796409396021
leaf_weight=61.959380716085434 3.4445500373840323 83.069681979715824 3.1247632130980483 21.796309590339661 19.568058662116531 184.49045176059008 29.448086090385914 4.650303602218627 19.130360253155231 3.20616291463375 51.498169921338558 3.2602850571274757
leaf_count=314 16 603 24 205 91 1074 257 29 201 25 306 23
internal_value=-0.00952331 0.00234538 -0.015136 0.0033889 -0.0174102 -0.0159239 -0.000692527 -0.0325347 0.0146098 -0.00506006 -0.0077001 0.0172407
internal_weight=488.647 156.889 331.758 153.444 270.668 246.45 112.518 24.2184 40.9267 61.0894 54.6229 6.46645
internal_count=3168 1282 1886 1266 1508 1388 860 120 406 378 330 48
is_linear=0
shrinkage=0.03


Tree=28
num_leaves=14
num_cat=0
split_feature=12 26 12 6 4 7 1 30 17 16 4 17 24
split_gain=34.2006 10.5828 8.61934 9.443 8.73993 6.05568 5.82356 5.1137 7.81702 4.92175 2.91266 2.61795 3.22171
threshold=20.350000000000005 22.705676509322796 24.450000000000003 11.140735502121643 2.4400000000000008 1.7895621231590393 1.0000000180025095e-35 23.04684838894266 22.150000000000002 22.600000000000005 5.1291666666666673 13.750000000000002 20.302975158208593
decision_type=2 2 2 2 2 2 2 2 2 2 2 2 2
left_child=5 2 3 -2 -4 11 -7 10 -9 -8 -3 -1 -13
right_child=1 7 4 -5 -6 6 9 8 -10 -11 -12 12 -14
leaf_value=-0.051336282097281714 -0.0054379566402220237 0.0075638723622200605 -0.027350488586645915 -0.030001846711247972 0.008290923118024136 -0.052388837480509598 -0.013460240083619353 0.027714600942204678 -0.004660518111468546 -0.027625362178490008 0.041960740745706326 -0.0074110247622262149 -0.036911925230011335
leaf_weight=5.1507770866155651 113.87978745251894 3.2245709374546987 6.8875340744853011 16.073015779256821 61.329986669123173 3.8143782317638388 201.80877608060837 10.317599952220919 19.207831092178822 24.787583582103252 7.0809670314192772 5.1621671319007865 9.3954121470451337
leaf_count=22 754 27 41 91 559 16 1140 91 154 125 73 30 45
internal_value=-0.00924755 -0.00110691 -0.00394302 -0.0084761 0.00469241 -0.0169938 -0.0156286 0.0130035 0.0066529 -0.0150098 0.0311981 -0.0329546 -0.0264508
internal_weight=488.12 238.001 198.17 129.953 68.2175 250.119 230.411 39.831 29.5254 226.596 10.3055 19.7084 14.5576
internal_count=3168 1790 1445 845 600 1378 1281 345 245 1265 100 97 75
is_linear=0
shrinkage=0.03


Tree=29
num_leaves=13
num_cat=0
split_feature=12 1 23 16 24 6 25 18 17 8 34 11
split_gain=32.2898 7.78186 8.52536 7.24182 6.80419 6.5657 5.81068 6.83664 5.4122 5.18918 4.89211 3.6434
threshold=22.050000000000004 1.0000000180025095e-35 26.043981748891877 18.450000000000003 18.599967254254782 6.2259740259740264 18.893311004055608 24.400000000000002 26.500000000000004 1.7973139044943822 17.021870799198798 24.900000000000002
decision_type=2 2 2 2 2 2 2 2 2 2 2 2
left_child=3 -2 9 4 5 -1 8 -8 -5 -3 -4 -6
right_child=1 2 10 6 11 -7 7 -9 -10 -11 -12 -13
leaf_value=-0.0028514098225384046 -0.043577344931786798 -0.0011603431681063666 0.00018722065424836353 -0.018505066417932432 0.0024582501973718853 -0.020929339746463781 -0.045368874709130633 -0.0037613816967481104 0.002650551014846582 -0.025074670778413181 0.016552205093514627 -0.015586441461178682
leaf_weight=26.637691289186478 3.3932618200778952 91.384856432676315 26.469473600387573 143.78190618008375 44.058578215539455 56.28928292542696 13.798640459775926 4.7872974127531043 11.774689160287378 8.9676551148295385 43.389331951737404 13.054333344101904
leaf_count=159 16 676 233 781 285 302 61 29 76 57 416 77
internal_value=-0.00897597 0.00140766 0.00230446 -0.0147135 -0.00963451 -0.0151224 -0.0187979 -0.0346518 -0.0169037 -0.00329736 0.0103515 -0.00166624
internal_weight=487.787 173.605 170.211 314.182 140.04 82.927 174.143 18.5859 155.557 100.353 69.8588 57.1129
internal_count=3168 1398 1382 1770 823 461 947 90 857 733 649 362
is_linear=0
shrinkage=0.03


Tree=30
num_leaves=12
num_cat=0
split_feature=12 4 12 1 6 7 1 3 12 17 23
split_gain=30.6906 9.92934 11.0676 9.0291 8.59435 5.73471 5.52176 5.48834 4.95764 2.52867 3.01769
threshold=20.350000000000005 1.9289915966386555 24.450000000000003 1.0000000180025095e-35 11.140735502121643 1.7895621231590393 1.0000000180025095e-35 9.5000000000000018 14.950000000000001 13.750000000000002 23.10321592649311
decision_type=2 2 2 2 2 2 2 2 2 2 2
left_child=5 7 4 -4 -3 9 -7 -2 -8 -1 -11
right_child=1 2 3 -5 -6 6 8 -9 -10 10 -12
leaf_value=-0.049731545400827123 -0.041796997666255858 -0.0018825801747822347 -0.042600787496224084 0.011449250596642681 -0.025237547557600746 -0.050649600888670078 -0.026255931375094729 -0.0016278082364900083 -0.012502631045615593 -0.0095368736497103007 -0.03713840158548648
leaf_weight=5.1243221834301975 8.0397449731826764 129.10939533263445 2.886524870991706 76.524957224726677 15.930385030806063 3.788157992064952 26.749934449791908 4.9435675814747801 199.6017846763134 6.2734775543212882 8.2569960132241231
leaf_count=22 39 881 14 726 96 16 134 34 1131 36 39
internal_value=-0.00871681 -0.000993966 0.000481541 0.00948459 -0.00444776 -0.0160575 -0.0147291 -0.026502 -0.014128 -0.0316117 -0.0252215
internal_weight=487.229 237.435 224.451 79.4115 145.04 249.795 230.14 12.9833 226.352 19.6548 14.5305
internal_count=3168 1790 1717 740 977 1378 1281 73 1265 97 75
is_linear=0
shrinkage=0.03


Tree=31
num_leaves=14
num_cat=0
split_feature=12 26 11 12 12 34 6 30 17 25 4 35 36
split_gain=28.8927 9.91359 7.54789 9.07524 5.43447 5.71896 7.925 4.81673 7.3754 4.03219 2.83682 1.38291 1.25907
threshold=20.250000000000004 22.705676509322796 5.8452380952380958 24.450000000000003 12.450000000000001 15.603974969037223 6.2560272903703416 23.04684838894266 22.150000000000002 16.134993261001419 5.1291666666666673 11.500000000000002 38.160256410256416
decision_type=2 2 2 2 2 2 2 2 2 2 2 2 2
left_child=4 2 12 -4 11 9 -7 10 -9 -6 -3 -1 -2
right_child=1 7 3 -5 5 6 -8 8 -10 -11 -12 -13 -14
leaf_value=-0.044237562375541717 -0.04199832848184018 0.0071677883256078025 -0.0070965645084385054 0.0067432590148387662 -0.017194066161178738 -0.0033254457155904968 -0.016575778543842717 0.027130329731928388 -0.0044596070822475985 -0.040557570616078703 0.041364595103008141 -0.024635583745666125 -0.018769858343480682
leaf_weight=6.6112578287720662 4.6458757296204549 3.1954387500882131 130.67685475200415 63.297150269150734 14.804304979741575 55.830185562372208 149.15988995879889 10.186755500733854 19.167551562190056 12.067427359521387 6.8923994898796082 6.3507488518953323 3.8327078595757484
leaf_count=29 22 27 852 579 80 330 821 91 154 57 73 32 21
internal_value=-0.0084642 -0.00111077 -0.00379144 -0.00258039 -0.0157297 -0.0146728 -0.012967 0.0126488 0.00650297 -0.027686 0.0305324 -0.0346336 -0.031498
internal_weight=486.719 241.895 202.453 193.974 244.824 231.862 204.99 39.4421 29.3543 26.8717 10.0878 12.962 8.47858
internal_count=3168 1819 1474 1431 1349 1288 1151 345 245 137 100 61 43
is_linear=0
shrinkage=0.03


Tree=32
num_leaves=13
num_cat=0
split_feature=12 1 21 13 11 25 14 22 25 24 27 27
split_gain=27.2905 7.48096 7.44248 6.63098 6.66994 6.55535 7.26879 5.12691 5.09389 3.50322 5.27574 1.37502
threshold=22.650000000000002 1.0000000180025095e-35 24.650000000000002 7.0500000000000007 5.8452380952380958 18.893311004055608 19.450000000000003 16.650000000000002 23.229620853080569 23.126089663760904 12.021348513868199 20.493061863168769
decision_type=2 2 2 2 2 2 2 2 2 2 2 2
left_child=2 -2 5 8 -5 6 -1 -7 -3 10 -4 -11
right_child=1 3 9 4 -6 7 -8 -9 -10 11 -12 -13
leaf_value=-0.022732744541430993 -0.042597844160780232 0.0054233751301728545 0.031754412151727175 -0.032702191331390726 0.00024910961849405232 -0.045140110303775072 -0.010808195846375455 -0.017196154882048068 0.024994603458919858 0.031230321960487067 -0.0083989270096451844 0.0035313737978215289
leaf_weight=61.275817058980465 3.291068732738494 41.611906416714191 3.1230925619602194 5.9000663980841628 87.825517863035202 11.119898036122324 184.62656135857105 12.610128328204153 16.801645822823048 3.1985768973827353 51.638187147676945 3.2537338510155678
leaf_count=314 16 347 24 30 707 50 1074 70 182 25 306 23
internal_value=-0.00821761 0.00215124 -0.0130889 0.00311925 -0.00182519 -0.0152328 -0.0137796 -0.0302907 0.0110527 -0.00364544 -0.00610894 0.0172625
internal_weight=486.276 155.43 330.846 152.139 93.7256 269.632 245.902 23.73 58.4136 61.2136 54.7613 6.45231
internal_count=3168 1282 1886 1266 737 1508 1388 120 529 378 330 48
is_linear=0
shrinkage=0.03


end of trees

feature_importances:
starter_k_percent_season=94
lineup_confirmed=37
starter_primary_pitch_put_away=20
starter_arsenal_put_away=19
starter_max_pitches_30d=15
starter_avg_batters_faced_30d=15
starter_k_per_9_30d=14
starter_primary_pitch_usage=13
starter_arsenal_whiff_percent=13
opp_team_k_vs_primary_pitch=12
starter_whiff_percent_season=11
opp_team_k_vs_starter_arsenal=10
opp_team_put_away_vs_starter_arsenal=10
starter_primary_pitch_whiff_percent=9
opp_team_whiff_vs_primary_pitch=9
opp_team_games_14d=9
starter_primary_pitch_k_percent=8
starter_avg_ip_30d=7
opp_team_whiff_vs_secondary_pitch=7
starter_bb_percent_season=6
starter_secondary_pitch_k_percent=6
starter_arsenal_k_percent=6
opp_team_put_away_vs_secondary_pitch=5
starter_era_30d=4
is_home=3
starter_avg_so_30d=3
starter_avg_pitches_30d=3
starter_secondary_pitch_usage=3
opp_team_hits_per_pa_14d=3
starter_whip_30d=2
starter_secondary_pitch_put_away=2
starter_starts_30d=1
opp_team_put_away_vs_primary_pitch=1
opp_team_whiff_vs_starter_arsenal=1
opp_team_pa_per_game_14d=1

parameters:
[boosting: gbdt]
[objective: binary]
[metric: binary_logloss]
[tree_learner: serial]
[device_type: cpu]
[data_sample_strategy: bagging]
[data: ]
[valid: ]
[num_iterations: 1000]
[learning_rate: 0.03]
[num_leaves: 31]
[num_threads: 16]
[seed: 42]
[deterministic: 0]
[force_col_wise: 0]
[force_row_wise: 0]
[histogram_pool_size: -1]
[max_depth: 4]
[min_data_in_leaf: 20]
[min_sum_hessian_in_leaf: 0.001]
[bagging_fraction: 1]
[pos_bagging_fraction: 1]
[neg_bagging_fraction: 1]
[bagging_freq: 0]
[bagging_seed: 400]
[bagging_by_query: 0]
[feature_fraction: 1]
[feature_fraction_bynode: 1]
[feature_fraction_seed: 30056]
[extra_trees: 0]
[extra_seed: 12879]
[early_stopping_round: 0]
[early_stopping_min_delta: 0]
[first_metric_only: 0]
[max_delta_step: 0]
[lambda_l1: 0]
[lambda_l2: 0]
[linear_lambda: 0]
[min_gain_to_split: 0]
[drop_rate: 0.1]
[max_drop: 50]
[skip_drop: 0.5]
[xgboost_dart_mode: 0]
[uniform_drop: 0]
[drop_seed: 17869]
[top_rate: 0.2]
[other_rate: 0.1]
[min_data_per_group: 100]
[max_cat_threshold: 32]
[cat_l2: 10]
[cat_smooth: 10]
[max_cat_to_onehot: 4]
[top_k: 20]
[monotone_constraints: ]
[monotone_constraints_method: basic]
[monotone_penalty: 0]
[feature_contri: ]
[forcedsplits_filename: ]
[refit_decay_rate: 0.9]
[cegb_tradeoff: 1]
[cegb_penalty_split: 0]
[cegb_penalty_feature_lazy: ]
[cegb_penalty_feature_coupled: ]
[path_smooth: 0]
[interaction_constraints: ]
[verbosity: 1]
[saved_feature_importance_type: 0]
[use_quantized_grad: 0]
[num_grad_quant_bins: 4]
[quant_train_renew_leaf: 0]
[stochastic_rounding: 1]
[linear_tree: 0]
[max_bin: 255]
[max_bin_by_feature: ]
[min_data_in_bin: 3]
[bin_construct_sample_cnt: 200000]
[data_random_seed: 175]
[is_enable_sparse: 1]
[enable_bundle: 1]
[use_missing: 1]
[zero_as_missing: 0]
[feature_pre_filter: 1]
[pre_partition: 0]
[two_round: 0]
[header: 0]
[label_column: ]
[weight_column: ]
[group_column: ]
[ignore_column: ]
[categorical_feature: ]
[forcedbins_filename: ]
[precise_float_parser: 0]
[parser_config_file: ]
[objective_seed: 16083]
[num_class: 1]
[is_unbalance: 0]
[scale_pos_weight: 0.495751]
[sigmoid: 1]
[boost_from_average: 1]
[reg_sqrt: 0]
[alpha: 0.9]
[fair_c: 1]
[poisson_max_delta_step: 0.7]
[tweedie_variance_power: 1.5]
[lambdarank_truncation_level: 30]
[lambdarank_norm: 1]
[label_gain: ]
[lambdarank_position_bias_regularization: 0]
[eval_at: ]
[multi_error_top_k: 1]
[auc_mu_weights: ]
[num_machines: 1]
[local_listen_port: 12400]
[time_out: 120]
[machine_list_filename: ]
[machines: ]
[gpu_platform_id: -1]
[gpu_device_id: -1]
[gpu_use_dp: 0]
[num_gpu: 1]

end of parameters

pandas_categorical:[]
