tree
version=v4
num_class=1
num_tree_per_iteration=1
label_index=0
max_feature_idx=46
objective=binary sigmoid:1
feature_names=is_home lineup_confirmed opponent_lineup_size starter_starts_30d starter_avg_ip_30d starter_avg_so_30d starter_k_per_9_30d starter_era_30d starter_whip_30d starter_avg_pitches_30d starter_max_pitches_30d starter_avg_batters_faced_30d starter_prior_starts_vs_opp starter_prior_ip_vs_opp starter_prior_so_vs_opp starter_prior_k_per_9_vs_opp starter_prior_avg_pitches_vs_opp starter_prior_avg_batters_faced_vs_opp starter_days_since_last_vs_opp starter_last_so_vs_opp starter_k_percent_season starter_bb_percent_season starter_whiff_percent_season starter_primary_pitch_usage starter_primary_pitch_whiff_percent starter_primary_pitch_k_percent starter_primary_pitch_put_away starter_secondary_pitch_usage starter_secondary_pitch_whiff_percent starter_secondary_pitch_k_percent starter_secondary_pitch_put_away starter_arsenal_whiff_percent starter_arsenal_k_percent starter_arsenal_put_away opp_team_k_vs_primary_pitch opp_team_whiff_vs_primary_pitch opp_team_put_away_vs_primary_pitch opp_team_k_vs_secondary_pitch opp_team_whiff_vs_secondary_pitch opp_team_put_away_vs_secondary_pitch opp_team_k_vs_starter_arsenal opp_team_whiff_vs_starter_arsenal opp_team_put_away_vs_starter_arsenal opp_team_games_14d opp_team_pa_per_game_14d opp_team_k_rate_14d opp_team_hits_per_pa_14d
feature_infos=[0:1] [0:1] [0:9] [0:27] [0.20000000000000001:7.7000000000000002] [0:13] [0:22.5] [0:270] [0:40] [7.333333333333333:106.25] [9:117] [2.333333333333333:30.5] [0:3] [2.1000000000000001:15] [0:17] [0:20.25] [40:110] [12:31] [1:124] [0:14] [4:37.700000000000003] [1.8999999999999999:26.100000000000001] [7.2999999999999998:34.700000000000003] [21.100000000000001:78.799999999999997] [5.2000000000000002:47.700000000000003] [2.8999999999999999:43.600000000000001] [6.0999999999999996:32.299999999999997] [15.699999999999999:44.399999999999999] [6.7999999999999998:51.100000000000001] [4.7999999999999998:49.5] [7.5999999999999996:33] [5.2000000000000002:42.399999999999999] [2.8999999999999999:41.799999999999997] [6.0999999999999996:32.299999999999997] [4.7999999999999998:56.899999999999999] [8.5029082774049218:57.100000000000001] [5.5:38.5] [4.7999999999999998:56.899999999999999] [8.5029082774049218:57.100000000000001] [5.5:38.5] [4.7999999999999998:43.060416666666661] [8.5029082774049218:42.999305555555551] [6.4000000000000004:38.5] [0:14] [23:64.5] none [0.078947368421052599:0.37037037037037029]
tree_sizes=1430 1510 1512 1517 1516 1523 1519 1519

Tree=0
num_leaves=13
num_cat=0
split_feature=20 1 20 31 26 10 20 20 29 20 20 40
split_gain=192.189 52.1392 33.16 30.6827 30.3219 26.1143 21.8432 17.5771 16.3326 11.3828 2.17728 1.56316
threshold=22.050000000000004 1.0000000180025095e-35 17.750000000000004 24.499261992619932 19.250000000000004 55.500000000000007 25.050000000000004 17.450000000000003 18.800000000000004 14.050000000000002 26.050000000000004 20.537321940595653
decision_type=2 2 2 2 2 2 2 2 2 2 2 2
left_child=2 -2 7 8 -5 10 -7 9 -4 -1 -3 -9
right_child=1 5 3 4 -6 6 -8 11 -10 -11 -12 -13
leaf_value=1.2635083839937793 1.2286707845858411 1.3106756318378907 1.3778412234775648 1.3205576410733435 1.2286707845858411 1.3554356478659191 1.3903091052998784 1.2303968187812822 1.3199948132388264 1.2973281311169538 1.2662360010511367 1.2583383778424431
leaf_weight=11.07499051466584 2.5733025074005118 2.5830922424793235 4.8179495222866526 6.339554484933613 6.5940876752138138 36.64298852533102 28.92447953671217 4.3830054663121691 49.786410789936781 46.82990999147296 1.611111134290695 3.059992328286171
leaf_count=107 16 37 101 97 41 687 642 28 759 609 16 28
internal_value=1.32194 1.36129 1.30052 1.31526 1.27371 1.36618 1.37082 1.28528 1.3251 1.29086 1.29361 1.24188
internal_weight=205.221 72.335 132.886 67.538 12.9336 69.7617 65.5675 65.3479 54.6044 57.9049 4.1942 7.443
internal_count=3168 1398 1770 998 138 1382 1329 772 860 716 53 56
is_linear=0
shrinkage=1


Tree=1
num_leaves=13
num_cat=0
split_feature=20 1 20 31 26 10 20 29 20 22 20 41
split_gain=165.398 44.1797 27.178 25.3143 23.7592 23.1019 20.4165 14.3894 13.7241 9.8914 1.75241 1.18562
threshold=22.050000000000004 1.0000000180025095e-35 17.750000000000004 24.499261992619932 19.250000000000004 55.500000000000007 24.450000000000003 18.800000000000004 17.450000000000003 18.350000000000005 26.050000000000004 21.161232256015236
decision_type=2 2 2 2 2 2 2 2 2 2 2 2
left_child=2 -2 8 7 -5 10 -7 -4 9 -1 -3 -10
right_child=1 5 3 4 -6 6 -8 -9 11 -11 -12 -13
leaf_value=-0.094771025567963477 -0.13250055427137775 -0.062412614796309739 0.00019880164912451951 -0.05351086108443958 -0.13250055427137772 -0.023274128510537846 0.010138806227383029 -0.054020633772292666 -0.13119548943349973 -0.07009037354327928 -0.10120515346677288 -0.10776229612362118
leaf_weight=24.345260292291641 2.802412509918212 2.6865203976631156 4.8173596635460845 6.5559115037322027 7.1811820566654205 32.945863381028175 32.888893447816372 51.502292931079865 4.7660498693585378 36.564485743641853 1.7184360623359678 3.280953124165535
leaf_count=248 16 37 101 97 41 603 726 759 28 468 16 28
internal_value=-0.0522442 -0.0156929 -0.0714495 -0.0582892 -0.0948034 -0.0110325 -0.00658212 -0.0493829 -0.0848197 -0.0799551 -0.0775461 -0.121641
internal_weight=212.056 73.0421 139.013 70.0567 13.7371 70.2397 65.8348 56.3197 68.9567 60.9097 4.40496 8.047
internal_count=3168 1398 1770 998 138 1382 1329 860 772 716 53 56
is_linear=0
shrinkage=0.03


Tree=2
num_leaves=13
num_cat=0
split_feature=20 1 20 31 26 10 20 29 20 42 21 41
split_gain=143.968 38.6907 23.6558 21.6593 19.2902 17.3424 18.6327 13.0631 11.1189 8.22147 2.1331 0.929715
threshold=22.450000000000003 1.0000000180025095e-35 17.750000000000004 24.499261992619932 19.250000000000004 55.500000000000007 25.050000000000004 18.800000000000004 17.450000000000003 18.379685351363566 9.8500000000000032 21.161232256015236
decision_type=2 2 2 2 2 2 2 2 2 2 2 2
left_child=2 -2 8 7 -5 10 -7 -4 9 -1 -3 -10
right_child=1 5 3 4 -6 6 -8 -9 11 -11 -12 -13
leaf_value=-0.079160212833091284 -0.11978048416326335 -0.050286154665745417 -0.0036583536991384551 -0.050323348457012876 -0.11978048416326334 -0.020279880832998146 0.012158636952453498 -0.05098639744891869 -0.118663663280898 -0.050989519857918268 -0.09359628760981796 -0.098550206364300952
leaf_weight=52.32488702237606 3.00366187095642 2.3531372286379328 5.8137565478682509 6.7587953917682153 7.6968835443258286 36.102881953120232 28.53071878105402 54.001499388366938 5.105649031698702 11.345573253929613 1.8112460710108278 3.4767953455448151
leaf_count=562 16 32 119 97 41 661 642 771 28 154 17 28
internal_value=-0.0491863 -0.0143855 -0.0662399 -0.0543506 -0.0873056 -0.00978406 -0.00596079 -0.0463863 -0.0784612 -0.0741404 -0.0691234 -0.110516
internal_weight=218.325 71.8016 146.524 74.2709 14.4557 68.798 64.6336 59.8153 72.2529 63.6705 4.16438 8.58244
internal_count=3168 1368 1800 1028 138 1352 1303 890 772 716 49 56
is_linear=0
shrinkage=0.03


Tree=3
num_leaves=13
num_cat=0
split_feature=20 1 20 21 10 20 26 29 20 22 20 40
split_gain=126.308 33.9227 20.09 18.8586 15.5797 17.3881 12.8168 10.9525 9.28656 7.95949 1.97046 0.770974
threshold=22.450000000000003 1.0000000180025095e-35 17.750000000000004 9.5500000000000025 55.500000000000007 25.050000000000004 20.750000000000004 19.250000000000004 17.450000000000003 19.050000000000004 26.050000000000004 20.537321940595653
decision_type=2 2 2 2 2 2 2 2 2 2 2 2
left_child=2 -2 8 7 10 -6 -5 -4 9 -1 -3 -10
right_child=1 4 3 6 5 -7 -8 -9 11 -11 -12 -13
leaf_value=-0.079485712007572443 -0.1096456214103122 -0.046820156206514287 -0.0035407790158340949 -0.058923522945606335 -0.019437780430965418 0.011882511091860436 -0.11020792902529736 -0.046944167685727754 -0.10870437210603025 -0.058682201900504008 -0.087691142771630731 -0.090862242003334454
leaf_weight=33.203524552285671 3.1799519062042227 2.4401040934026232 5.8264079466462126 12.573660120368006 36.53026495501399 28.321123525500298 6.7351120561361304 51.330228805541992 5.4021465145051462 33.005646534264088 1.8792977035045622 3.6539657264947891
leaf_count=319 16 33 119 161 661 642 34 714 28 397 16 28
internal_value=-0.0464562 -0.0138389 -0.0620094 -0.0511791 -0.0094344 -0.00575996 -0.0768121 -0.0425197 -0.0730123 -0.069115 -0.0646024 -0.101505
internal_weight=224.081 72.3507 151.731 76.4654 69.1708 64.8514 19.3088 57.1566 75.2653 66.2092 4.3194 9.05611
internal_count=3168 1368 1800 1028 1352 1303 195 833 772 716 49 56
is_linear=0
shrinkage=0.03


Tree=4
num_leaves=13
num_cat=0
split_feature=20 1 20 31 26 5 20 1 20 20 21 9
split_gain=111.629 30.0949 17.3161 16.4668 14.3641 14.1161 14.2455 11.2991 7.95217 7.09857 5.69761 0.67398
threshold=22.450000000000003 1.0000000180025095e-35 17.750000000000004 24.499261992619932 19.250000000000004 2.2583333333333337 24.450000000000003 1.0000000180025095e-35 17.450000000000003 14.050000000000002 9.2500000000000018 86.450000000000017
decision_type=2 2 2 2 2 2 2 2 2 2 2 2
left_child=2 -2 8 7 -5 10 -7 -4 9 -1 -3 -10
right_child=1 5 3 4 -6 6 -8 -9 11 -11 -12 -13
leaf_value=-0.084288749122964385 -0.10137455821745919 -0.023829991390988247 -0.11721068942655183 -0.044529974785566959 -0.10222412415844526 -0.019537604859793684 0.0088338912567795403 -0.039338781625373138 -0.084741867507947946 -0.059962388657690505 -0.083438656587122281 -0.10092896077938246
leaf_weight=13.425919204950331 3.3337016105651847 2.8494732119143 1.7242764458060253 7.1508507132530204 8.5007542073726636 31.155035581439734 32.588597103953362 61.127922415733337 4.0253148898482305 55.111919108778238 2.9241627976298332 5.4484886601567268
leaf_count=107 16 45 11 97 41 553 726 879 28 609 28 28
internal_value=-0.0440003 -0.0133238 -0.0582788 -0.0483316 -0.075865 -0.00910136 -0.00503283 -0.0414751 -0.0682888 -0.0647277 -0.0540199 -0.0940512
internal_weight=229.366 72.851 156.515 78.5038 15.6516 69.5173 63.7436 62.8522 78.0116 68.5378 5.77364 9.4738
internal_count=3168 1368 1800 1028 138 1352 1279 890 772 716 73 56
is_linear=0
shrinkage=0.03


Tree=5
num_leaves=13
num_cat=0
split_feature=20 1 20 21 10 20 29 26 20 42 20 41
split_gain=99.3074 26.9619 15.1148 14.9629 13.086 15.3135 9.54549 9.37676 6.94982 6.4622 1.82046 0.636515
threshold=22.450000000000003 1.0000000180025095e-35 17.750000000000004 9.5500000000000025 55.500000000000007 25.050000000000004 19.250000000000004 20.750000000000004 17.450000000000003 18.379685351363566 25.350000000000005 21.161232256015236
decision_type=2 2 2 2 2 2 2 2 2 2 2 2
left_child=2 -2 8 6 10 -6 -4 -5 9 -1 -3 -10
right_child=1 4 3 7 5 -7 -8 -9 11 -11 -12 -13
leaf_value=-0.065053290615626508 -0.094493657894123353 -0.036091000493648398 -0.0021824212991116217 -0.052747449712284199 -0.017931917001251713 0.011428007326529177 -0.042151776621763823 -0.094990700893913455 -0.094032841407249657 -0.041239035016280678 -0.074370640174900138 -0.078477061480465946
leaf_weight=58.225415490567684 3.4669926166534415 1.9619397744536389 5.9748201072216025 13.278857797384264 37.308820396661758 27.978661917150021 53.79679224640131 7.3449515849351874 5.8775100372731668 12.447744764387606 2.599692065268755 3.9640397280454636
leaf_count=562 16 26 119 161 661 642 714 34 28 154 23 28
internal_value=-0.0417745 -0.0128353 -0.0549602 -0.0457588 -0.00878218 -0.00534985 -0.0381564 -0.0677919 -0.0641479 -0.0608589 -0.0579067 -0.0877672
internal_weight=234.226 73.3161 160.91 80.3954 69.8491 65.2875 59.7716 20.6238 80.5147 70.6732 4.56163 9.84155
internal_count=3168 1368 1800 1028 1352 1303 833 195 772 716 49 56
is_linear=0
shrinkage=0.03


Tree=6
num_leaves=13
num_cat=0
split_feature=20 1 20 21 4 26 41 10 33 20 22 41
split_gain=88.8415 24.3538 13.3286 13.3467 12.0676 9.51465 9.32574 8.73617 7.35566 6.18824 6.26838 0.565268
threshold=22.450000000000003 1.0000000180025095e-35 17.750000000000004 9.2500000000000018 5.6633333333333349 20.750000000000004 22.696111423890883 35.500000000000007 20.15470330045288 17.450000000000003 18.350000000000005 21.161232256015236
decision_type=2 2 2 2 2 2 2 2 2 2 2 2
left_child=2 -2 9 6 7 -5 -4 -3 -6 10 -1 -11
right_child=1 4 3 5 8 -7 -8 -9 -10 11 -12 -13
leaf_value=-0.068105250696887457 -0.088678490141217092 -0.06237491678356008 -0.041347081129842929 -0.049572850446137046 -0.014229428663045345 -0.089107576340397704 -0.011177286925131659 -0.012977848456727975 0.023979940795308029 -0.088212648120510287 -0.050148991028051128 -0.073783156796047009
leaf_weight=29.384962700307369 3.5816535949707022 3.462537318468093 43.135678913444281 19.688926942646507 6.8533948138356235 7.5909972786903372 11.728186849504707 46.435574743896723 13.401091340929268 6.0741551965475065 43.250089149922132 4.0877442136406898
leaf_count=248 16 33 569 235 125 34 190 876 318 28 468 28
internal_value=-0.0397491 -0.012374 -0.0519867 -0.0434248 -0.00847826 -0.0605739 -0.0348977 -0.0164056 0.0110513 -0.060481 -0.0574133 -0.0824082
internal_weight=238.675 73.7343 164.941 82.1438 70.1526 27.2799 54.8639 49.8981 20.2545 82.797 72.6351 10.1619
internal_count=3168 1368 1800 1028 1352 269 759 909 443 772 716 56
is_linear=0
shrinkage=0.03


Tree=7
num_leaves=13
num_cat=0
split_feature=20 1 20 31 31 26 42 21 32 20 20 9
split_gain=79.8977 22.155 11.8821 12.1633 11.5322 10.6619 10.2618 8.47584 7.24537 5.59304 5.72907 0.530414
threshold=22.450000000000003 1.0000000180025095e-35 17.750000000000004 24.499261992619932 23.269212410501193 18.250000000000004 20.498365413922297 10.950000000000001 21.941316647342514 17.450000000000003 14.750000000000002 86.450000000000017
decision_type=2 2 2 2 2 2 2 2 2 2 2 2
left_child=2 -2 9 6 8 -5 -4 -6 -3 10 -1 -11
right_child=1 4 3 5 7 -7 -8 -9 -10 11 -12 -13
leaf_value=-0.069115815304264083 -0.083699025690569195 0.014710725669887044 -0.038035532694413142 -0.036760717636555827 0.0066416161351887174 -0.084732164178429326 0.019485670002433876 -0.030461063821402925 -0.030331102559010226 -0.069890824882664848 -0.049643173673804081 -0.083575045880390109
leaf_weight=17.90580091252923 3.679313898086547 3.7484276518225697 63.876553285866976 7.3554734662175205 37.658236984163523 9.6276151798665506 2.9188845083117476 6.4974248036742202 22.551963243633509 4.4242206364870054 56.522504150867462 6.0154320001602173
leaf_count=137 16 77 834 94 809 44 56 104 362 28 579 28
internal_value=-0.0378899 -0.0119328 -0.0493004 -0.0412858 -0.00818511 -0.0639555 -0.0355219 0.00118202 -0.0239116 -0.0572122 -0.0543279 -0.0777758
internal_weight=242.782 74.1354 168.646 83.7785 70.4561 16.9831 66.7954 44.1557 26.3004 84.868 74.4283 10.4397
internal_count=3168 1368 1800 1028 1352 138 890 913 439 772 716 56
is_linear=0
shrinkage=0.03


end of trees

feature_importances:
starter_k_percent_season=37
lineup_confirmed=9
starter_primary_pitch_put_away=8
starter_max_pitches_30d=6
starter_bb_percent_season=6
starter_arsenal_whiff_percent=6
starter_secondary_pitch_k_percent=5
opp_team_whiff_vs_starter_arsenal=5
starter_whiff_percent_season=3
opp_team_put_away_vs_starter_arsenal=3
starter_avg_pitches_30d=2
opp_team_k_vs_starter_arsenal=2
starter_avg_ip_30d=1
starter_avg_so_30d=1
starter_arsenal_k_percent=1
starter_arsenal_put_away=1

parameters:
[boosting: gbdt]
[objective: binary]
[metric: binary_logloss]
[tree_learner: serial]
[device_type: cpu]
[data_sample_strategy: bagging]
[data: ]
[valid: ]
[num_iterations: 1000]
[learning_rate: 0.03]
[num_leaves: 31]
[num_threads: 16]
[seed: 42]
[deterministic: 0]
[force_col_wise: 0]
[force_row_wise: 0]
[histogram_pool_size: -1]
[max_depth: 4]
[min_data_in_leaf: 20]
[min_sum_hessian_in_leaf: 0.001]
[bagging_fraction: 1]
[pos_bagging_fraction: 1]
[neg_bagging_fraction: 1]
[bagging_freq: 0]
[bagging_seed: 400]
[bagging_by_query: 0]
[feature_fraction: 1]
[feature_fraction_bynode: 1]
[feature_fraction_seed: 30056]
[extra_trees: 0]
[extra_seed: 12879]
[early_stopping_round: 0]
[early_stopping_min_delta: 0]
[first_metric_only: 0]
[max_delta_step: 0]
[lambda_l1: 0]
[lambda_l2: 0]
[linear_lambda: 0]
[min_gain_to_split: 0]
[drop_rate: 0.1]
[max_drop: 50]
[skip_drop: 0.5]
[xgboost_dart_mode: 0]
[uniform_drop: 0]
[drop_seed: 17869]
[top_rate: 0.2]
[other_rate: 0.1]
[min_data_per_group: 100]
[max_cat_threshold: 32]
[cat_l2: 10]
[cat_smooth: 10]
[max_cat_to_onehot: 4]
[top_k: 20]
[monotone_constraints: ]
[monotone_constraints_method: basic]
[monotone_penalty: 0]
[feature_contri: ]
[forcedsplits_filename: ]
[refit_decay_rate: 0.9]
[cegb_tradeoff: 1]
[cegb_penalty_split: 0]
[cegb_penalty_feature_lazy: ]
[cegb_penalty_feature_coupled: ]
[path_smooth: 0]
[interaction_constraints: ]
[verbosity: 1]
[saved_feature_importance_type: 0]
[use_quantized_grad: 0]
[num_grad_quant_bins: 4]
[quant_train_renew_leaf: 0]
[stochastic_rounding: 1]
[linear_tree: 0]
[max_bin: 255]
[max_bin_by_feature: ]
[min_data_in_bin: 3]
[bin_construct_sample_cnt: 200000]
[data_random_seed: 175]
[is_enable_sparse: 1]
[enable_bundle: 1]
[use_missing: 1]
[zero_as_missing: 0]
[feature_pre_filter: 1]
[pre_partition: 0]
[two_round: 0]
[header: 0]
[label_column: ]
[weight_column: ]
[group_column: ]
[ignore_column: ]
[categorical_feature: ]
[forcedbins_filename: ]
[precise_float_parser: 0]
[parser_config_file: ]
[objective_seed: 16083]
[num_class: 1]
[is_unbalance: 0]
[scale_pos_weight: 0.252174]
[sigmoid: 1]
[boost_from_average: 1]
[reg_sqrt: 0]
[alpha: 0.9]
[fair_c: 1]
[poisson_max_delta_step: 0.7]
[tweedie_variance_power: 1.5]
[lambdarank_truncation_level: 30]
[lambdarank_norm: 1]
[label_gain: ]
[lambdarank_position_bias_regularization: 0]
[eval_at: ]
[multi_error_top_k: 1]
[auc_mu_weights: ]
[num_machines: 1]
[local_listen_port: 12400]
[time_out: 120]
[machine_list_filename: ]
[machines: ]
[gpu_platform_id: -1]
[gpu_device_id: -1]
[gpu_use_dp: 0]
[num_gpu: 1]

end of parameters

pandas_categorical:[]
