tree
version=v4
num_class=1
num_tree_per_iteration=1
label_index=0
max_feature_idx=46
objective=binary sigmoid:1
feature_names=is_home lineup_confirmed opponent_lineup_size starter_starts_30d starter_avg_ip_30d starter_avg_so_30d starter_k_per_9_30d starter_era_30d starter_whip_30d starter_avg_pitches_30d starter_max_pitches_30d starter_avg_batters_faced_30d starter_prior_starts_vs_opp starter_prior_ip_vs_opp starter_prior_so_vs_opp starter_prior_k_per_9_vs_opp starter_prior_avg_pitches_vs_opp starter_prior_avg_batters_faced_vs_opp starter_days_since_last_vs_opp starter_last_so_vs_opp starter_k_percent_season starter_bb_percent_season starter_whiff_percent_season starter_primary_pitch_usage starter_primary_pitch_whiff_percent starter_primary_pitch_k_percent starter_primary_pitch_put_away starter_secondary_pitch_usage starter_secondary_pitch_whiff_percent starter_secondary_pitch_k_percent starter_secondary_pitch_put_away starter_arsenal_whiff_percent starter_arsenal_k_percent starter_arsenal_put_away opp_team_k_vs_primary_pitch opp_team_whiff_vs_primary_pitch opp_team_put_away_vs_primary_pitch opp_team_k_vs_secondary_pitch opp_team_whiff_vs_secondary_pitch opp_team_put_away_vs_secondary_pitch opp_team_k_vs_starter_arsenal opp_team_whiff_vs_starter_arsenal opp_team_put_away_vs_starter_arsenal opp_team_games_14d opp_team_pa_per_game_14d opp_team_k_rate_14d opp_team_hits_per_pa_14d
feature_infos=[0:1] [0:1] [0:9] [0:27] [0.20000000000000001:7.7000000000000002] [0:13] [0:22.5] [0:270] [0:40] [7.333333333333333:106.25] [9:117] [2.333333333333333:30.5] [0:3] [2.1000000000000001:15] [0:17] [0:20.25] [40:110] [12:31] [1:124] [0:14] [4:37.700000000000003] [1.8999999999999999:26.100000000000001] [7.2999999999999998:34.700000000000003] [21.100000000000001:78.799999999999997] [5.2000000000000002:47.700000000000003] [2.8999999999999999:43.600000000000001] [6.0999999999999996:32.299999999999997] [15.699999999999999:44.399999999999999] [6.7999999999999998:51.100000000000001] [4.7999999999999998:49.5] [7.5999999999999996:33] [5.2000000000000002:42.399999999999999] [2.8999999999999999:41.799999999999997] [6.0999999999999996:32.299999999999997] [4.7999999999999998:56.899999999999999] [8.5029082774049218:57.100000000000001] [5.5:38.5] [4.7999999999999998:56.899999999999999] [8.5029082774049218:57.100000000000001] [5.5:38.5] [4.7999999999999998:43.060416666666661] [8.5029082774049218:42.999305555555551] [6.4000000000000004:38.5] [0:14] [23:64.5] none [0.078947368421052599:0.37037037037037029]
tree_sizes=1591 1696 1711 1706 1606 1701 1612 1722 1612 1705 1605 1614 1605 1612 1619 1717 1511 1610 1720 1719 1722 1615 1716 1622 1723 1823 1718 1715 1619 1727 1822 1617 1817 1731 1720

Tree=0
num_leaves=14
num_cat=0
split_feature=20 20 10 20 13 4 41 35 7 34 24 4 43
split_gain=512.204 88.9344 65.9538 46.6992 17.8979 17.3667 16.9527 16.3805 14.1829 9.90735 8.11458 4.91821 1.46106
threshold=22.650000000000002 18.650000000000002 67.500000000000014 29.850000000000005 6.4500000000000011 5.6633333333333349 23.587749933503186 22.577753049840108 6.6337618239146261 19.500535585909422 21.950000000000003 5.4733333333333336 11.500000000000002
decision_type=2 2 2 2 2 2 2 2 2 2 2 2 2
left_child=1 6 10 5 7 -4 8 -3 -1 -8 12 -5 -2
right_child=2 4 3 11 -6 -7 9 -9 -10 -11 -12 -13 -14
leaf_value=-0.62520558708545371 -0.64994127150351255 -0.59675357401830209 -0.56687174946106333 -0.54360131067298323 -0.54831800254353569 -0.55284752172938245 -0.57197508239898687 -0.57483782563993158 -0.60563020532437239 -0.60762623626940304 -0.59036072641959081 -0.52628560381371903 -0.62670238680386714
leaf_weight=159.67676872014999 5.0280584096908552 215.56004554033279 227.82981312274933 25.277420580387115 8.0971329212188703 122.03815907239914 8.4432200789451581 35.790633618831635 42.092031598091125 41.484746634960175 4.6036118865013114 35.490255892276764 4.7211509346961975
leaf_count=639 22 770 711 70 23 355 27 116 156 155 16 89 19
internal_value=-0.58431 -0.604544 -0.559973 -0.557764 -0.592219 -0.56198 -0.617249 -0.593633 -0.621122 -0.601597 -0.623187 -0.533488 -0.638688
internal_weight=936.133 511.145 424.988 410.636 259.448 349.868 251.697 251.351 201.769 49.928 14.3528 60.7677 9.74921
internal_count=3168 1886 1282 1225 909 1066 977 886 795 182 57 159 41
is_linear=0
shrinkage=1


Tree=1
num_leaves=15
num_cat=0
split_feature=20 20 10 20 11 38 24 46 41 7 20 30 25 8
split_gain=473.444 73.3109 63.79 49.8403 19.8683 17.0181 25.3039 24.9692 16.0918 13.5131 10.0418 9.70503 8.17821 1.42051
threshold=22.450000000000003 18.650000000000002 67.500000000000014 27.650000000000002 23.366666666666667 20.493061863168769 23.600000000000005 0.20247206378768476 23.587749933503186 6.6337618239146261 29.850000000000005 13.65 23.850000000000005 1.1127844712182065
decision_type=2 2 2 2 2 2 2 2 2 2 2 2 2 2
left_child=1 8 12 4 -4 7 -7 -3 9 -1 -5 -10 13 -2
right_child=2 5 3 10 -6 6 -8 -9 11 -11 -12 -13 -14 -15
leaf_value=-0.021158670637280535 -0.023572904121755809 -0.017984838355137978 0.029691052810072904 0.050212593618776863 0.045344788878993 0.0096330485798242649 -0.031485305136229762 0.043650309143272316 -0.027188159745179071 -0.0020335957656648332 0.066620660015932143 0.0078933724971307299 0.012740273730433746 -0.045846831719790301
leaf_weight=158.649368673563 4.9062872231006605 7.6487146317958823 185.27592474222183 73.265708699822426 120.39189940690994 186.41221138834953 14.51880696415901 26.104958742856979 8.5659716725349409 42.066163241863251 61.956551417708397 41.388621807098389 4.6208061277866355 5.4275228381156921
leaf_count=639 20 30 588 209 352 655 60 78 35 156 159 147 16 24
internal_value=0.0185433 -0.0020769 0.0404985 0.0425653 0.0358565 0.00997303 0.00666193 0.0296835 -0.0133584 -0.0171504 0.0577305 0.00187776 -0.0204365 -0.0352716
internal_weight=941.2 485.355 455.845 440.89 305.668 234.685 200.931 33.7537 250.67 200.716 135.222 49.9546 14.9546 10.3338
internal_count=3168 1800 1368 1308 940 823 715 108 977 795 368 182 60 44
is_linear=0
shrinkage=0.03


Tree=2
num_leaves=15
num_cat=0
split_feature=20 20 10 20 35 31 20 8 0 36 20 24 41 43
split_gain=439.462 78.6667 56.2025 39.0068 16.2882 20.8531 15.3198 16.3723 15.0081 12.2849 9.09381 7.39569 4.41977 1.41975
threshold=22.650000000000002 18.650000000000002 67.500000000000014 27.650000000000002 22.577753049840108 24.499261992619932 14.950000000000001 1.6472842010367368 1.0000000180025095e-35 18.537708514799419 29.850000000000005 21.950000000000003 19.333911026324159 11.500000000000002
decision_type=2 2 2 2 2 2 2 2 2 2 2 2 2 2
left_child=1 6 11 8 5 -3 12 -8 -4 -6 -5 13 -1 -2
right_child=2 4 3 10 9 -7 7 -9 -10 -11 -12 -13 -14 -15
leaf_value=-0.012301677189745747 -0.045068192669435195 0.011093015576118725 0.028433471250021106 0.048060708941344593 0.010922472414314432 -0.01569416035639578 -0.014383203379231126 0.0057202156358964005 0.042256938083731183 0.045283005641692541 0.06355949218705681 0.012399155743577688 -0.037554119342781127 -0.021913062923496367
leaf_weight=8.1748650372028333 4.8960296511650068 193.4069602638483 134.6913251131773 74.234369203448296 17.969696119427681 30.245547711849213 168.62265378236771 46.517567306756973 148.75005909800529 19.556291103363037 62.975977003574371 4.6340396702289572 26.326091319322586 4.6434645801782608
leaf_count=32 22 672 422 209 62 118 664 168 435 57 159 16 113 19
internal_value=0.017898 -0.00097066 0.0400644 0.0420441 0.0105393 0.00747046 -0.0130125 -0.0100364 0.035688 0.0288291 0.0551742 -0.0186933 -0.0315707 -0.0337972
internal_weight=945.645 510.82 434.825 420.652 261.178 223.653 249.641 215.14 283.441 37.526 137.21 14.1735 34.501 9.53949
internal_count=3168 1886 1282 1225 909 790 977 832 857 119 368 57 145 41
is_linear=0
shrinkage=0.03


Tree=3
num_leaves=15
num_cat=0
split_feature=20 20 10 20 11 41 38 24 46 20 7 34 25 8
split_gain=407.93 64.9786 54.8865 42.2648 24.8743 15.3215 15.3128 23.458 22.7957 13.2184 12.6887 9.18809 8.36483 1.42505
threshold=22.450000000000003 18.650000000000002 67.500000000000014 25.900000000000002 23.550000000000004 23.587749933503186 20.493061863168769 23.600000000000005 0.20247206378768476 29.850000000000005 7.4303484706483784 19.500535585909422 24.300000000000001 1.1127844712182065
decision_type=2 2 2 2 2 2 2 2 2 2 2 2 2 2
left_child=1 5 12 4 -4 10 8 -8 -3 -5 -1 -7 13 -2
right_child=2 6 3 9 -6 11 7 -9 -10 -11 -12 -13 -14 -15
leaf_value=-0.019580854636729889 -0.022410109120332315 -0.0178208447713896 0.024043050338209585 0.044242538217972117 0.043777695837625995 0.03060591851725666 0.008989052431916715 -0.030781226890980177 0.041001408624601339 0.060806066016598909 0.0016630794152038637 -0.0036407862610741315 0.014980848038829391 -0.044730832365959476
leaf_weight=169.08086884021759 4.826265484094618 7.6338545978069297 161.99686634540558 135.19140210747719 89.097083628177643 8.5025906264781934 187.45191530883312 14.37132792174816 26.556873127818108 63.839009657502174 29.757357880473137 41.289272576570511 4.4224607348442069 5.5169469714164734
leaf_count=686 20 30 514 382 253 27 655 60 78 159 109 155 15 25
internal_value=0.0172862 -0.00197233 0.037363 0.03923 0.0310456 -0.0126749 0.00930231 0.00615711 0.027868 0.0495553 -0.0164016 0.00220727 -0.0195509 -0.0343157
internal_weight=949.534 484.644 464.89 450.124 251.094 248.63 236.014 201.823 34.1907 199.03 198.838 49.7919 14.7657 10.3432
internal_count=3168 1800 1368 1308 767 977 823 715 108 541 795 182 60 45
is_linear=0
shrinkage=0.03


Tree=4
num_leaves=14
num_cat=0
split_feature=20 20 10 20 13 20 8 26 4 35 25 41 5
split_gain=379.611 69.6759 48.236 33.0005 16.0146 14.663 15.2303 14.0389 13.8267 7.6388 7.56241 4.31897 1.39311
threshold=22.650000000000002 18.650000000000002 67.500000000000014 27.650000000000002 6.4500000000000011 14.950000000000001 1.6472842010367368 20.350000000000005 5.7366666666666672 19.635189513521873 23.850000000000005 19.333911026324159 1.3484848484848486
decision_type=2 2 2 2 2 2 2 2 2 2 2 2 2
left_child=1 5 10 8 7 11 -7 -3 -4 -5 12 -1 -2
right_child=2 4 3 9 -6 6 -8 -9 -10 -11 -12 -13 -14
leaf_value=-0.011525179416826436 -0.021314767347098321 0.010974518586069373 0.028574377795875048 0.041306511488776343 0.050805861514420313 -0.013659797869035322 0.0057519280988825383 -0.011539244334921079 0.042734786787637147 0.055938616914221806 0.014563299683943539 -0.036626210384004959 -0.044237404709521519
leaf_weight=8.0986050218343717 4.7462392598390561 226.33503840863705 197.79013375937939 49.726487904787064 8.314254477620123 167.11408199369907 46.498099237680435 28.01268145442009 90.435146227478981 90.645612671971321 4.4371266812086096 25.897643834352493 4.7986689805984497
leaf_count=32 20 779 604 138 23 664 168 107 253 230 15 113 22
internal_value=0.0167059 -0.000929067 0.037038 0.0388268 0.00983426 -0.0123468 -0.00943434 0.00849496 0.0330174 0.0507552 -0.0177962 -0.0306466 -0.032839
internal_weight=952.85 510.27 442.579 428.597 262.662 247.608 213.612 254.348 288.225 140.372 13.982 33.9962 9.54491
internal_count=3168 1886 1282 1225 909 977 832 886 857 368 57 145 42
is_linear=0
shrinkage=0.03


Tree=5
num_leaves=15
num_cat=0
split_feature=20 20 10 20 11 41 38 24 46 7 20 30 25 21
split_gain=353.952 57.5553 47.5578 36.2242 21.9436 14.5864 14.0337 23.2297 16.4357 11.9158 11.6961 8.91804 7.65109 1.43199
threshold=22.450000000000003 18.650000000000002 67.500000000000014 25.900000000000002 23.550000000000004 23.587749933503186 21.411180165731089 23.600000000000005 0.20247206378768476 6.6337618239146261 29.850000000000005 13.65 24.300000000000001 7.5500000000000007
decision_type=2 2 2 2 2 2 2 2 2 2 2 2 2 2
left_child=1 5 12 4 -4 9 8 -8 -3 -1 -5 -7 13 -2
right_child=2 6 3 10 -6 11 7 -9 -10 -11 -12 -13 -14 -15
leaf_value=-0.019519809843186006 -0.021514337747341062 -0.012370800449620564 0.02225257292434268 0.04084386607564082 0.040646799173375582 -0.025698420272766569 0.0082376753141899361 -0.03302574591030729 0.036082493084395845 -0.0014763139538427289 0.056276587157373353 0.0082408220552000876 0.014025407691548728 -0.044105393813111772
leaf_weight=155.15162168443203 4.8991875946521741 8.0398162901401502 163.9256577193737 137.69997416436672 90.646345868706703 8.3842088282108289 186.89700448513031 13.142187580466269 29.126235470175743 41.818542063236237 65.089384108781815 41.251420170068741 4.456063136458396 5.2116056084632874
leaf_count=639 21 31 514 382 253 35 650 56 86 156 159 147 15 24
internal_value=0.0161529 -0.00187827 0.0346381 0.0363377 0.0288023 -0.0120264 0.00867204 0.00552675 0.025601 -0.015689 0.0457973 0.00250797 -0.018725 -0.0331589
internal_weight=955.739 483.811 471.928 457.361 254.572 246.606 237.205 200.039 37.1661 196.97 202.789 49.6356 14.5669 10.1108
internal_count=3168 1800 1368 1308 767 977 823 706 117 795 541 182 60 45
is_linear=0
shrinkage=0.03


Tree=6
num_leaves=14
num_cat=0
split_feature=20 20 10 20 11 20 8 13 31 42 25 41 8
split_gain=330.03 54.2691 44.2815 33.6244 20.3273 13.973 14.1761 13.4506 11.6558 10.9756 7.30156 4.19972 1.42727
threshold=22.450000000000003 18.650000000000002 67.500000000000014 25.900000000000002 23.550000000000004 14.950000000000001 1.6472842010367368 6.4500000000000011 25.047627118644069 14.038970720585819 24.300000000000001 19.333911026324159 1.1127844712182065
decision_type=2 2 2 2 2 2 2 2 2 2 2 2 2
left_child=1 5 10 4 -4 11 -7 8 -3 -5 12 -1 -2
right_child=2 7 3 9 -6 6 -8 -9 -10 -11 -12 -13 -14
leaf_value=-0.01081284102138705 -0.020504577532797785 0.009514372211563097 0.021478588049146416 -0.0024714940672044242 0.039123814830899939 -0.012981261099632789 0.0057667507919402731 0.046637859162149929 -0.011561793384476143 0.045130220996781205 0.013554522045800751 -0.035703110537166363 -0.043229816297776537
leaf_weight=8.0263719558715803 4.6854644417762739 202.96295022964478 164.72523562610149 4.4565991014242163 91.338749960064888 165.65000136196613 46.484658092260361 7.998132035136222 26.725391983985901 199.83396379649639 4.4722894430160514 25.434178903698921 5.3018833547830582
leaf_count=32 20 698 514 15 253 664 168 22 103 526 15 113 25
internal_value=0.0156273 -0.00182515 0.0333909 0.0350146 0.0277727 -0.011715 -0.00887305 0.00839378 0.00706205 0.0440918 -0.0183029 -0.0297325 -0.0325685
internal_weight=958.096 483.282 474.814 460.355 256.064 245.595 212.135 237.686 229.688 204.291 14.4596 33.4606 9.98735
internal_count=3168 1800 1368 1308 767 977 832 823 801 541 60 145 45
is_linear=0
shrinkage=0.03


Tree=7
num_leaves=15
num_cat=0
split_feature=20 20 10 20 0 35 24 41 7 36 34 25 11 11
split_gain=308.372 58.0639 38.7685 27.5569 15.1027 14.5315 17.7639 13.8838 11.1337 10.6286 8.52141 6.60781 5.67189 1.41721
threshold=22.650000000000002 18.650000000000002 67.500000000000014 28.500000000000004 1.0000000180025095e-35 22.577753049840108 20.250000000000004 23.587749933503186 6.6337618239146261 18.537708514799419 19.500535585909422 23.850000000000005 18.366666666666667 5.4142857142857155
decision_type=2 2 2 2 2 2 2 2 2 2 2 2 2 2
left_child=1 7 11 4 -4 6 -3 8 -1 -7 -9 13 -5 -2
right_child=2 5 3 12 -6 9 -8 10 -10 -11 -12 -13 -14 -15
leaf_value=-0.018747557711297668 -0.019287007814234824 0.010182322918436468 0.024325900527477306 0.025852772594816477 0.036870992383303852 0.0093657079528467416 -0.010815360383319646 0.030048667570539693 -0.001268606358094551 0.041039529041726246 -0.0029023633486369442 0.013345072356732855 0.051813653136433616 -0.042835947616417028
leaf_weight=153.39936451613903 4.5891832709312421 181.02964225411415 165.16134767234325 8.337798133492468 181.0357773900032 18.185047417879105 45.343284711241722 8.5356960892677289 41.718077629804611 20.045071467757225 40.951581001281738 4.4781164526939383 82.691561251878738 4.6110005527734756
leaf_count=639 20 618 494 24 505 62 172 27 156 57 155 15 202 22
internal_value=0.0151245 -0.000874501 0.0331922 0.0347481 0.0308861 0.00886556 0.00597641 -0.0114109 -0.0150104 0.0259731 0.00278112 -0.0165421 0.0494358 -0.0310894
internal_weight=960.113 509.208 450.905 437.226 346.197 264.603 226.373 244.605 195.117 38.2301 49.4873 13.6783 91.0294 9.20018
internal_count=3168 1886 1282 1225 999 909 790 977 795 119 182 57 226 42
is_linear=0
shrinkage=0.03


Tree=8
num_leaves=14
num_cat=0
split_feature=20 20 10 20 13 11 36 44 20 36 25 21 8
split_gain=288.474 48.3375 38.6629 29.9541 19.0254 18.6984 13.1071 12.2462 11.7055 10.2418 6.69053 1.43978 0.00294239
threshold=22.450000000000003 18.050000000000004 67.500000000000014 25.900000000000002 7.0500000000000007 23.550000000000004 16.410503663416986 31.854166666666668 14.950000000000001 16.053524396315662 24.300000000000001 7.5500000000000007 1.3321956769055745
decision_type=2 2 2 2 2 2 2 2 2 2 2 2 2
left_child=1 7 10 5 6 -4 -3 12 -9 -5 11 -2 -1
right_child=2 4 3 9 -6 -7 -8 8 -10 -11 -12 -13 -14
leaf_value=-0.044175122363887487 -0.019674839802238699 -0.0067552894337312274 0.019802677787810304 0.028545912788695262 0.062856706629996636 0.036637125989814653 0.009199964930702775 -0.027849092925705074 -0.0077628384335819995 0.044680001078799339 0.01270114073246212 -0.042740996109383256 -0.045205744029146198
leaf_weight=5.6647425740957242 4.742832884192465 59.955259799957275 166.33882035315037 45.384585425257683 5.3239520490169516 92.348857879638672 204.02907106280327 30.782216250896454 172.09455849230289 161.12491232156754 4.5009330958127967 5.0062837451696396 4.4529134035110474
leaf_count=26 21 224 514 128 13 253 704 135 678 413 15 24 20
internal_value=0.0146439 -0.00173759 0.031123 0.032614 0.00670864 0.0258124 0.00557626 -0.0124169 -0.0108105 0.0411342 -0.0175523 -0.0315196 -0.0446287
internal_weight=961.75 482.303 479.447 465.197 269.308 258.688 263.984 212.994 202.877 206.509 14.25 9.74912 10.1177
internal_count=3168 1800 1368 1308 941 767 928 859 813 541 60 45 46
is_linear=0
shrinkage=0.03


Tree=9
num_leaves=15
num_cat=0
split_feature=20 20 10 20 0 35 31 41 7 36 30 36 4 22
split_gain=269.899 51.7231 33.7235 25.3092 14.1851 13.3321 16.9191 13.0824 10.7576 9.82317 8.15476 6.29826 4.22033 1.65937
threshold=22.650000000000002 18.650000000000002 67.500000000000014 29.850000000000005 1.0000000180025095e-35 22.577753049840108 24.499261992619932 23.587749933503186 7.4303484706483784 18.537708514799419 13.65 17.55509866894792 5.4733333333333336 28.250000000000004
decision_type=2 2 2 2 2 2 2 2 2 2 2 2 2 2
left_child=1 7 11 4 -4 6 -3 8 -1 -7 -9 13 -5 -2
right_child=2 5 3 12 -6 9 -8 10 -10 -11 -12 -13 -14 -15
leaf_value=-0.017373207826677967 -0.043205228023437847 0.0087414934291509573 0.023296635032495544 0.04051747898223617 0.034977899765478403 0.0086788242455353437 -0.015413768950825722 -0.02437845621408365 0.0022914069541630682 0.039009745077191835 0.0083724990584048298 0.0122099064877062 0.055873637181099688 -0.017063632497207961
leaf_weight=163.77857136726379 4.6094523221254331 197.04392258822918 179.58399456739426 27.570820316672325 195.32151886820793 18.279071405529976 30.081504359841347 8.2053733021020872 29.555535167455673 20.263027191162109 41.191137030720711 4.7075423598289481 38.739735975861549 4.1554728895425797
leaf_count=686 22 672 529 70 537 62 118 35 109 57 147 17 89 18
internal_value=0.0141833 -0.000835786 0.0309766 0.0324042 0.0293824 0.00831071 0.00554226 -0.0108466 -0.014367 0.0246249 0.00293216 -0.0157789 0.0494888 -0.0308114
internal_weight=963.087 508.398 454.689 441.216 374.906 265.668 227.125 242.731 193.334 38.5421 49.3965 13.4725 66.3106 8.76493
internal_count=3168 1886 1282 1225 1066 909 790 977 795 119 182 57 159 40
is_linear=0
shrinkage=0.03


Tree=10
num_leaves=14
num_cat=0
split_feature=20 20 10 20 13 10 41 36 38 44 35 25 8
split_gain=253.015 43.3441 33.8936 27.2873 17.7098 12.992 11.5706 12.3891 11.1667 11.0821 6.33968 6.27354 1.45207
threshold=22.450000000000003 17.950000000000003 67.500000000000014 27.650000000000002 7.0500000000000007 92.500000000000014 25.935335192814616 18.963251960536301 19.388743695638201 32.519230769230781 19.635189513521873 24.300000000000001 1.1127844712182065
decision_type=2 2 2 2 2 2 2 2 2 2 2 2 2
left_child=1 6 11 5 8 -4 9 -8 -3 -1 -5 12 -2
right_child=2 4 3 10 -6 -7 7 -9 -10 -11 -12 -13 -14
leaf_value=-0.040349566541596181 -0.018241318644052991 0.022969201226400462 0.014152536353648342 0.03280973344239016 0.059944719636021965 0.028769457951427657 0.022229810495078686 -0.027729038082726039 0.0029585020203883924 -0.012484287019372814 0.045926700527429136 0.01231380846699005 -0.041690800227748702
leaf_weight=13.905174657702444 4.5030695199966413 27.985565692186356 69.757968366146088 51.350921258330345 5.3890632688999167 253.99932850897312 16.039794906973842 6.192014053463935 243.25921432673931 168.50013782083988 93.624214082956314 4.5133180022239676 5.0329112857580185
leaf_count=63 20 87 217 138 13 723 54 26 867 690 230 15 25
internal_value=0.0137427 -0.00165037 0.0290876 0.0304637 0.00609302 0.02562 -0.0121181 0.00831525 0.0050231 -0.0146085 0.0412806 -0.0168259 -0.0306175
internal_weight=964.053 481.271 482.782 468.732 276.634 323.757 204.637 22.2318 271.245 182.405 144.975 14.0493 9.53598
internal_count=3168 1800 1368 1308 967 940 833 80 954 753 368 60 45
is_linear=0
shrinkage=0.03


Tree=11
num_leaves=14
num_cat=0
split_feature=20 20 10 20 13 0 20 8 35 36 41 4 22
split_gain=237.142 46.0812 29.4334 23.1079 15.3235 13.2223 12.6095 13.0804 11.936 5.93477 4.22496 3.98611 1.62468
threshold=22.650000000000002 18.650000000000002 67.500000000000014 29.850000000000005 7.0500000000000007 1.0000000180025095e-35 14.950000000000001 1.6472842010367368 22.577753049840108 17.55509866894792 19.333911026324159 5.4733333333333336 28.250000000000004
decision_type=2 2 2 2 2 2 2 2 2 2 2 2 2
left_child=1 6 9 5 8 -4 10 -8 -3 12 -1 -5 -2
right_child=2 4 3 11 -6 -7 7 -9 -10 -11 -12 -13 -14
leaf_value=-0.0085344334222729901 -0.042387240764538023 0.0041132925168419713 0.021574842042284652 0.037909105999744605 0.057653512278810631 0.032812965143197738 -0.011614884048394487 0.0064839933399374449 0.022321314527546342 0.012039736055312019 -0.033912349316985384 0.052815337032613666 -0.016235320387665616
leaf_weight=7.7857889384031287 4.4762164056301099 223.2435576915741 180.79621702432632 27.644186481833458 5.4344022274017325 196.77755251526833 162.53963945806026 46.140649795532227 37.903659775853157 4.7047133445739737 24.428997367620468 38.816765174269676 4.0928698480129242
leaf_count=32 22 779 529 70 13 537 664 168 117 17 113 89 18
internal_value=0.0133191 -0.000799953 0.0289871 0.030303 0.00779363 0.0274317 -0.0103099 -0.0076131 0.00675606 -0.0150326 -0.0277789 0.0466151 -0.0298962
internal_weight=964.785 507.477 457.309 444.035 266.582 377.574 240.895 208.68 261.147 13.2738 32.2148 66.461 8.56909
internal_count=3168 1886 1282 1225 909 1066 977 832 896 57 145 159 40
is_linear=0
shrinkage=0.03


Tree=12
num_leaves=14
num_cat=0
split_feature=20 20 10 20 11 13 41 36 44 36 42 24 5
split_gain=222.723 38.4379 30.372 25.2249 16.2977 15.4307 10.9459 11.6591 10.7477 10.5346 9.7909 5.69038 1.60051
threshold=22.200000000000006 17.950000000000003 67.500000000000014 25.900000000000002 23.550000000000004 7.0500000000000007 25.935335192814616 18.963251960536301 32.519230769230781 15.596084476349189 14.038970720585819 21.750000000000004 1.3484848484848486
decision_type=2 2 2 2 2 2 2 2 2 2 2 2 2
left_child=1 6 11 4 -4 9 8 -8 -1 -3 -5 12 -2
right_child=2 5 3 10 -6 -7 7 -9 -10 -11 -12 -13 -14
leaf_value=-0.039577927830663627 -0.016467511965980206 -0.015622262784587108 0.016801784641529264 -0.007252196995508815 0.032387861283783202 0.055561596548949523 0.021728729503841342 -0.026934194471899091 -0.011885057748268686 0.0063940539481981105 0.037294338101937191 0.0082737536497686642 -0.041608411843927044
leaf_weight=13.643328845500944 4.3479589372873289 21.228965491056442 169.36858516931534 4.5393221378326407 93.83168937265873 5.4692739844322196 16.103520482778553 6.1132666170597068 167.04201517999172 248.80834996700287 204.08944383263588 5.8373487293720236 4.7892370373010635
leaf_count=63 20 83 515 15 254 13 54 26 690 865 526 20 24
internal_value=0.0129129 -0.00162391 0.027199 0.028534 0.0223583 0.00567366 -0.0115328 0.00833843 -0.0139761 0.00466324 0.0363251 -0.0148636 -0.029645
internal_weight=965.212 478.409 486.804 471.829 263.2 275.507 202.902 22.2168 180.685 270.037 208.629 14.9745 9.1372
internal_count=3168 1794 1374 1310 769 961 833 80 753 948 541 64 44
is_linear=0
shrinkage=0.03


Tree=13
num_leaves=14
num_cat=0
split_feature=20 20 10 20 13 10 20 41 38 35 24 11 4
split_gain=209.018 36.2823 28.4568 23.8336 14.4395 12.3052 10.9203 11.1871 10.2545 5.90439 5.44244 1.57288 0.573656
threshold=22.200000000000006 17.950000000000003 67.500000000000014 27.650000000000002 7.0500000000000007 92.500000000000014 12.450000000000001 23.587749933503186 19.388743695638201 19.635189513521873 21.750000000000004 5.4142857142857155 5.0633333333333344
decision_type=2 2 2 2 2 2 2 2 2 2 2 2 2
left_child=1 6 10 5 8 -4 12 -8 -3 -5 11 -2 -1
right_child=2 4 3 9 -6 -7 7 -9 -10 -11 -12 -13 -14
leaf_value=-0.042444675468182334 -0.016068310530013192 0.021640370597813353 0.012040342593885232 0.02958176267930895 0.053642663993446325 0.026186347157877068 -0.013210187468706282 0.0046316910122873832 0.0025241975896324281 0.042216435672722527 0.0080089179136009839 -0.041151674912800251 -0.028806479859542971
leaf_weight=8.6913505494594556 4.314619451761244 28.196230426430702 70.552370086312294 51.595855906605721 5.4945616424083701 256.72204850614071 149.10355013608932 40.144015595316887 242.1498064249754 93.814763531088829 5.84927874803543 4.7016594260931015 4.0782050788402548
leaf_count=42 20 87 218 138 13 724 625 147 861 230 20 24 19
internal_value=0.0125221 -0.00157783 0.0263418 0.0276271 0.00549649 0.0231368 -0.0112373 -0.00942549 0.00451795 0.0377333 -0.0145278 -0.0291484 -0.0380891
internal_weight=965.408 477.858 487.551 472.685 275.841 327.274 202.017 189.248 270.346 145.411 14.8656 9.01628 12.7696
internal_count=3168 1794 1374 1310 961 942 833 772 948 368 64 44 61
is_linear=0
shrinkage=0.03


Tree=14
num_leaves=14
num_cat=0
split_feature=20 20 10 20 13 0 20 8 36 36 41 4 22
split_gain=196.527 38.8426 24.1292 20.9807 12.5395 12.3956 11.577 12.5088 11.4465 5.51447 4.13562 3.85369 1.64728
threshold=22.650000000000002 18.650000000000002 67.500000000000014 29.850000000000005 7.0500000000000007 1.0000000180025095e-35 14.950000000000001 1.6472842010367368 16.410503663416986 17.55509866894792 19.333911026324159 5.4733333333333336 28.250000000000004
decision_type=2 2 2 2 2 2 2 2 2 2 2 2 2
left_child=1 6 9 5 8 -4 10 -8 -3 12 -1 -5 -2
right_child=2 4 3 11 -6 -7 7 -9 -10 -11 -12 -13 -14
leaf_value=-0.0073824089980997808 -0.041529939158265035 -0.0055839075285656521 0.019160503379055727 0.034544402133118574 0.051874799411223929 0.030004480883236057 -0.010929895096520538 0.0068131298410445407 0.0094973705477304389 0.01202912245385852 -0.03273909564329025 0.049223919013329835 -0.014758572496000702
leaf_weight=7.6595424860715893 4.3109221160411817 58.219307646155357 182.07668705284595 27.588475555181503 5.5110823810100547 198.07920411229134 160.91817884147167 45.977916300296783 204.01741379499435 4.6878029853105536 23.703611955046654 38.634839028120041 3.9768245369195938
leaf_count=32 22 212 529 70 13 537 664 168 684 17 113 89 18
internal_value=0.0121464 -0.000750428 0.026353 0.0275253 0.00709034 0.0248107 -0.00956163 -0.00698691 0.00614917 -0.0139751 -0.0265465 0.0431085 -0.0286839
internal_weight=965.362 506.007 459.355 446.379 267.748 380.156 238.259 206.896 262.237 12.9755 31.3632 66.2233 8.28775
internal_count=3168 1886 1282 1225 909 1066 977 832 896 57 145 159 40
is_linear=0
shrinkage=0.03


Tree=15
num_leaves=15
num_cat=0
split_feature=20 20 20 10 38 46 46 34 9 20 40 9 35 46
split_gain=184.942 31.3336 25.8427 23.345 13.0534 18.8508 17.6024 12.8676 11.1852 10.3042 10.651 5.57541 4.86124 0.576857
threshold=22.050000000000004 17.950000000000003 27.650000000000002 70.500000000000014 19.388743695638201 0.20247206378768476 0.19862222784649938 21.152537364642722 30.757142857142863 12.450000000000001 21.166370398343478 20.211111111111112 19.533426994069288 0.22859982959386538
decision_type=2 2 2 2 2 2 2 2 2 2 2 2 2 2
left_child=1 9 3 11 5 -3 -6 -5 -4 13 -11 -2 -10 -1
right_child=2 4 8 7 6 -7 -8 -9 12 10 -12 -13 -14 -15
leaf_value=-0.041611587778517686 -0.0017625512562966291 -0.018185473369849825 -0.017165916573440368 0.01763049168008721 0.015353026220191218 0.037207979493578208 -0.0025688769534333595 0.030356530922938572 0.02854632364232098 -0.01325896854331505 0.002879040629979325 -0.042855106954229075 0.040218319129912992 -0.027746957417128171
leaf_weight=8.4344817996025068 6.2941858917474729 7.3196164220571545 3.6033747494220725 231.93781147897243 69.534641459584236 22.603072047233582 169.6842488348484 103.38095484673977 48.076253205537796 137.67747329175472 50.238146260380745 5.6293566823005676 96.726644411683083 3.9730066359043112
leaf_count=42 25 28 15 681 233 62 614 283 128 582 190 28 238 19
internal_value=0.0117845 -0.00170931 0.0245655 0.0200872 0.00497721 0.0236578 0.00264055 0.021554 0.0350439 -0.0106929 -0.00894457 -0.0211632 0.0363431 -0.037172
internal_weight=965.113 469.465 495.649 347.242 269.142 29.9227 239.219 335.319 148.406 200.323 187.916 11.9235 144.803 12.4075
internal_count=3168 1770 1398 1017 937 90 847 964 381 833 772 53 366 61
is_linear=0
shrinkage=0.03


Tree=16
num_leaves=13
num_cat=0
split_feature=20 20 10 20 13 0 41 41 7 34 26 4
split_gain=174.092 34.5217 21.1469 19.5039 11.7498 11.6597 11.0085 10.9749 10.2679 7.66979 5.2686 3.71829
threshold=22.650000000000002 18.650000000000002 67.500000000000014 29.850000000000005 7.0500000000000007 1.0000000180025095e-35 20.83650736702074 23.587749933503186 6.6337618239146261 19.500535585909422 18.150000000000002 5.4733333333333336
decision_type=2 2 2 2 2 2 2 2 2 2 2 2
left_child=1 7 10 5 6 -4 -3 8 -1 -9 -2 -5
right_child=2 4 3 11 -6 -7 -8 9 -10 -11 -12 -13
leaf_value=-0.016077559722963701 -0.031934190755267641 -0.0033768155091882727 0.017804908080008133 0.03253733461171484 0.049964613202670989 0.028308292152434935 0.0098670596424263474 0.02933463381409953 0.00095686374158535353 -0.0019047536276252785 0.0066013090327614043 0.046999679851693135
leaf_weight=146.87295305728912 6.5863127559423429 82.156682968139648 182.60004909336567 27.460433602333069 5.5175626724958411 198.54754409193993 180.7793891876936 8.5739834010601026 40.664416268467903 40.4119932949543 6.1979743391275406 38.335354045033455
leaf_count=639 34 292 529 70 13 537 604 27 156 155 23 89
internal_value=0.0114353 -0.000724573 0.0247919 0.0258801 0.00663808 0.0232763 0.00572889 -0.00908117 -0.0123839 0.00356306 -0.0132517 0.0409637
internal_weight=964.705 504.977 459.728 446.943 268.454 381.148 262.936 236.523 187.537 48.986 12.7843 65.7958
internal_count=3168 1886 1282 1225 909 1066 896 977 795 182 57 159
is_linear=0
shrinkage=0.03


Tree=17
num_leaves=14
num_cat=0
split_feature=20 20 20 10 13 36 4 9 20 40 35 9 4
split_gain=163.769 32.7708 20.3912 18.2737 11.7153 13.5536 10.105 10.052 9.97158 9.84641 4.61419 4.13913 0.584662
threshold=22.650000000000002 17.950000000000003 27.650000000000002 70.500000000000014 6.4500000000000011 15.603974969037223 5.7366666666666672 30.757142857142863 12.450000000000001 21.166370398343478 19.533426994069288 20.211111111111112 5.0633333333333344
decision_type=2 2 2 2 2 2 2 2 2 2 2 2 2
left_child=1 8 3 11 5 -3 -5 -4 12 -10 -9 -2 -1
right_child=2 4 7 6 -6 -7 -8 10 9 -11 -12 -13 -14
leaf_value=-0.041056568939097406 -0.0022698942566198844 -0.015441541601681704 -0.016585089350229818 0.017300528456029439 0.038908275064785003 0.0064995432462105519 0.02912953784897894 0.026861658496599793 -0.012656210528850154 0.0028830705360033235 0.038248840667687224 -0.041439885353306991 -0.026950196249536339
leaf_weight=8.2477353513240796 5.1504370868206006 27.977862358093262 3.5578061044216147 207.48622576892376 9.1428564935922605 268.58471810817719 94.642514407634735 48.000943824648857 136.36564913392067 50.212919384241104 96.232527047395706 4.5933241248130798 3.892245650291442
leaf_count=42 21 109 15 603 24 920 253 128 582 190 238 24 19
internal_value=0.011099 -0.000704241 0.0240516 0.0197019 0.00546078 0.00442961 0.021006 0.0332304 -0.0101884 -0.0084742 0.0344592 -0.0207351 -0.0365339
internal_weight=964.088 504.424 459.664 311.873 305.705 296.563 302.129 147.791 198.719 186.579 144.233 9.74376 12.14
internal_count=3168 1886 1282 901 1053 1029 856 381 833 772 366 45 61
is_linear=0
shrinkage=0.03


Tree=18
num_leaves=15
num_cat=0
split_feature=20 20 20 37 10 40 7 11 36 38 36 38 46 46
split_gain=154.667 31.0911 18.1288 15.7161 15.1714 13.0714 10.7301 10.321 10.246 9.92069 8.91403 8.65101 6.9499 6.38115
threshold=21.150000000000002 25.550000000000004 17.950000000000003 17.847340425531922 71.500000000000014 22.466548629984668 0.59406587661206001 23.366666666666667 18.264181594542162 22.577753049840108 16.053524396315662 23.865865384615386 0.21543332780266577 0.20341060152874713
decision_type=2 2 2 2 2 2 2 2 2 2 2 2 2 2
left_child=2 4 9 8 13 -5 -3 -6 -4 12 -8 -11 -1 -2
right_child=1 6 3 5 7 -7 10 -9 -10 11 -12 -13 -14 -15
leaf_value=-0.010939996642537655 0.0081351876130835426 -0.014068186354431985 0.0077889409125402927 -0.0056472905157374546 0.012198955208245653 0.013951167217802464 0.018792953197544513 0.023391479167380665 0.040994052380619851 0.027341106626339973 0.03338919544781644 -0.0086599020783349606 -0.042502193151458936 -0.032341766125040243
leaf_weight=11.954615622758867 6.0929879248142234 5.0106781125068656 20.69469054043293 127.99738386273384 198.00565394759178 40.262538567185402 47.700275123119354 118.54061324894428 14.035787820816038 6.2322040200233451 178.82886947691441 166.47320692241192 13.225277096033095 8.2536318600177747
leaf_count=51 23 18 69 472 612 133 134 336 38 23 463 695 64 37
internal_value=0.0107745 0.0209231 -0.00346414 0.00283484 0.0150228 -0.00095762 0.0293552 0.0163903 0.0212083 -0.00992561 0.0303157 -0.00736078 -0.0275175 -0.0151513
internal_weight=963.308 562.433 400.876 202.99 330.893 168.26 231.54 316.546 34.7305 197.885 226.529 172.705 25.1799 14.3466
internal_count=3168 1623 1545 712 1008 605 615 948 107 833 597 718 115 60
is_linear=0
shrinkage=0.03


Tree=19
num_leaves=15
num_cat=0
split_feature=20 20 20 10 36 38 46 46 44 38 9 9 9 5
split_gain=145.807 24.8689 21.9984 19.0067 11.995 11.5279 17.3549 16.4445 10.1047 9.84157 9.48708 5.28616 4.45344 0.00357756
threshold=22.050000000000004 17.950000000000003 27.650000000000002 70.500000000000014 16.227426269273263 19.388743695638201 0.20247206378768476 0.19862222784649938 31.854166666666668 22.577753049840108 30.757142857142863 20.211111111111112 97.633333333333354 4.1000000000000005
decision_type=2 2 2 2 2 2 2 2 2 2 2 2 2 2
left_child=1 8 3 11 -5 6 -3 -7 13 -10 -4 -2 -12 -1
right_child=2 5 10 4 -6 7 -8 -9 9 -11 12 -13 -14 -15
leaf_value=-0.042403184168103285 -0.0012493226679014314 -0.018339983878494275 -0.016808354655579411 0.0075204755240548121 0.021786443634915165 0.014393001078648078 0.034766158515239905 -0.0028852203638650253 -0.026301792963950993 -0.0056317945827319624 0.03007301882634195 -0.041818345065301493 0.043246466442122433 -0.041167908007042245
leaf_weight=4.1094222068786603 6.2473067194223386 7.317875728011134 3.5658209770917884 65.965293735265732 270.80798543989658 69.984799578785896 22.774079263210297 169.9960560053587 23.711191117763519 164.95933136343956 114.52258460223675 5.3799472600221634 28.930664047598839 4.3370856046676636
leaf_count=20 25 28 15 201 763 233 62 614 109 682 297 28 69 22
internal_value=0.0104585 -0.00156487 0.0217967 0.0176901 0.0189921 0.00434836 0.0218516 0.00215357 -0.00966667 -0.0082295 0.0315282 -0.0200207 0.0327297 -0.0417689
internal_weight=962.609 467.19 495.42 348.401 336.773 270.073 30.092 239.981 197.117 188.671 147.019 11.6273 143.453 8.44651
internal_count=3168 1770 1398 1017 964 937 90 847 833 791 381 53 366 42
is_linear=0
shrinkage=0.03


Tree=20
num_leaves=15
num_cat=0
split_feature=20 20 20 10 26 22 20 41 43 0 9 35 9 46
split_gain=137.586 27.3406 17.9141 15.4435 10.7382 12.4028 10.4158 11.2742 9.62597 9.46041 8.9547 4.3227 3.92892 0.60902
threshold=22.650000000000002 18.650000000000002 27.650000000000002 70.500000000000014 20.350000000000005 24.250000000000004 12.450000000000001 23.587749933503186 3.5000000000000004 1.0000000180025095e-35 30.757142857142863 19.533426994069288 20.211111111111112 0.22859982959386538
decision_type=2 2 2 2 2 2 2 2 2 2 2 2 2 2
left_child=1 6 3 12 8 -6 13 -8 -3 -5 -4 -12 -2 -1
right_child=2 4 10 9 5 -7 7 -9 -10 -11 11 -13 -14 -15
leaf_value=-0.040382712135968342 -0.0018040132962827372 -0.026194957045828419 -0.016387731775009629 0.013576627706743987 -7.3218905795610978e-05 -0.04507811833815057 -0.010208783490656027 0.0064629494458342445 0.0089820759949884518 0.024198698644157711 0.02449752872632004 0.035556860274793795 -0.040466763858360899 -0.025752380401666244
leaf_weight=8.0040020644664747 5.1249356120824796 7.2181378453969947 3.5478994697332373 143.57479616999626 22.198474749922756 7.3312554508447638 175.45188461244106 46.097990810871124 232.88350576162338 159.07076579332352 47.774374455213547 95.178010866045952 4.3934482783079147 3.7654232680797568
leaf_count=42 21 28 15 421 77 33 748 168 771 435 128 238 24 19
internal_value=0.010155 -0.000681616 0.0220379 0.0179762 0.00582497 -0.0112464 -0.00820084 -0.00673989 0.00792455 0.0191596 0.0306924 0.0318609 -0.0196498 -0.035702
internal_weight=961.615 502.951 458.664 312.164 269.631 29.5297 233.319 221.55 240.102 302.646 146.5 142.952 9.51838 11.7694
internal_count=3168 1886 1282 901 909 110 977 916 799 856 381 366 45 61
is_linear=0
shrinkage=0.03


Tree=21
num_leaves=14
num_cat=0
split_feature=20 20 20 11 6 44 7 40 7 11 36 41 21
split_gain=130.038 27.121 15.6997 13.1747 13.3096 10.381 13.2203 13.0594 9.92995 9.84464 8.20638 4.19872 2.56621
threshold=21.150000000000002 25.550000000000004 14.950000000000001 23.366666666666667 11.66389811738649 40.679487179487182 1.9534930677076328 21.637823915036293 0.59406587661206001 22.708333333333339 16.053524396315662 19.333911026324159 9.5500000000000025
decision_type=2 2 2 2 2 2 2 2 2 2 2 2 2
left_child=2 3 11 9 -5 6 -4 -7 -3 -2 -10 -1 -13
right_child=1 8 5 4 -6 7 -8 -9 10 -11 -12 12 -14
leaf_value=-0.0045537637407577136 0.012019269169301005 -0.014849176906981855 -0.021363654962366904 0.024323132097579529 -0.016521452694933429 -0.022221201120079411 0.0023939975423288959 0.0085734689627987061 0.016934834778283354 -0.0055990974965918899 0.030971106010069215 -0.040565311987030568 -0.020203396167713602
leaf_weight=7.3358538299798992 178.88692639768124 4.9734065681695929 22.750221818685532 111.02993886172771 7.6767025142908087 41.627172872424126 287.19181869924068 17.648792624473572 47.523277178406715 33.96300120651722 177.525495454669 11.517697542905809 10.788279131054876
leaf_count=32 560 18 95 310 26 173 1070 62 134 112 463 60 53
internal_value=0.00986219 0.0191653 -0.00323615 0.013674 0.0216817 -0.00154972 0.000650149 -0.0130524 0.0270805 0.00920803 0.0280071 -0.0242422 -0.0307173
internal_weight=960.439 561.579 398.86 331.557 118.707 369.218 309.942 59.276 230.022 212.85 225.049 29.6418 22.306
internal_count=3168 1623 1545 1008 336 1400 1165 235 615 672 597 145 113
is_linear=0
shrinkage=0.03


Tree=22
num_leaves=15
num_cat=0
split_feature=20 20 4 20 13 36 3 44 38 38 42 30 35 27
split_gain=122.861 24.9967 17.2546 13.7639 10.9893 10.9155 10.7758 9.20763 9.15892 8.1781 7.03408 11.5324 6.9034 4.91373
threshold=22.650000000000002 17.950000000000003 5.6633333333333349 25.900000000000002 7.0500000000000007 20.20203555147398 1.5000000000000002 40.139423076923087 22.577753049840108 23.865865384615386 17.653581337975815 23.200000000000003 21.78474349167249 25.950000000000003
decision_type=2 2 2 2 2 2 2 2 2 2 2 2 2 2
left_child=1 8 3 6 5 -3 -2 -5 12 -10 11 -4 -1 -12
right_child=2 4 10 7 -6 -7 -8 -9 9 -11 13 -13 -14 -15
leaf_value=-0.038096818513741713 -0.0072870998666128475 0.002168019508474033 0.028602395159254914 0.029027333696979716 0.046690210729603221 0.022733625194888377 0.014165113025009519 0.0085282729845119042 0.027089883185380321 -0.0078874129910104541 0.027063876004693621 0.00063755642402048502 -0.0048012443634807833 0.040617800943565756
leaf_weight=15.741018161177637 24.433801203966141 276.10581302642822 50.35002127289772 89.891467496752739 5.4996850788593283 25.361134752631187 153.25609838962555 25.262989953160286 6.2446394860744467 164.4611781090498 48.336104169487953 18.022838190197945 8.7031083256006223 47.955979749560356
leaf_count=78 82 962 132 239 13 78 454 75 23 695 128 55 37 117
internal_value=0.00957426 -0.000672235 0.0208198 0.0164511 0.00466479 0.00389812 0.0112153 0.0245302 -0.00906726 -0.0066079 0.0285893 0.021231 -0.0262422 0.0338141
internal_weight=959.626 502.117 457.509 292.844 306.967 301.467 177.69 115.154 195.15 170.706 164.665 68.3729 24.4441 96.2921
internal_count=3168 1886 1282 850 1053 1040 536 314 833 718 432 187 115 245
is_linear=0
shrinkage=0.03


Tree=23
num_leaves=14
num_cat=0
split_feature=20 20 20 10 44 7 40 7 5 26 46 41 21
split_gain=115.965 24.5084 14.6844 12.7133 9.85243 13.5167 12.1392 9.35988 8.92097 7.95556 6.02237 4.12518 2.55447
threshold=21.150000000000002 25.550000000000004 14.950000000000001 71.500000000000014 41.154761904761905 1.9534930677076328 21.637823915036293 0.59406587661206001 7.9000000000000012 23.750000000000004 0.20341060152874713 19.333911026324159 9.5500000000000025
decision_type=2 2 2 2 2 2 2 2 2 2 2 2 2
left_child=2 3 11 10 5 -4 -6 -3 -5 -9 -2 -1 -13
right_child=1 7 4 8 6 -7 -8 9 -10 -11 -12 12 -14
leaf_value=-0.0040189034684209122 0.0076526923495259863 -0.015059889760793383 -0.021513790006536009 0.015094858817342908 -0.023606482663524709 0.0022659376549530835 0.0072511878330848425 0.021961268926810443 -0.011840043514081666 0.033523294645199486 -0.031780462698488506 -0.040066762573373466 -0.019550116090561363
leaf_weight=7.2703488767147091 6.1045848280191413 4.9748555123805991 23.216608121991158 306.21557603776455 35.188780665397644 293.17640565335751 17.024996295571327 135.11594358086586 11.481810450553892 88.735973104834557 8.1249795258045179 11.248041421175005 10.617093399167059
leaf_count=32 23 18 98 910 149 1093 60 371 38 226 37 60 53
internal_value=0.00929801 0.0180863 -0.00309207 0.0128788 -0.00147146 0.000521005 -0.0135449 0.02564 0.0141214 0.0265445 -0.0148634 -0.0235952 -0.0301045
internal_weight=958.496 560.754 397.742 331.927 368.607 316.393 52.2138 228.827 317.697 223.852 14.2296 29.1355 21.8651
internal_count=3168 1623 1545 1008 1400 1191 209 615 948 597 60 145 113
is_linear=0
shrinkage=0.03


Tree=24
num_leaves=15
num_cat=0
split_feature=20 20 4 20 13 36 3 44 20 44 42 30 27 28
split_gain=109.802 22.7214 16.213 12.4943 10.4549 12.2148 10.1031 9.17812 8.7944 8.76016 6.79187 10.7457 4.73235 0.53707
threshold=22.650000000000002 17.950000000000003 5.6633333333333349 25.900000000000002 6.4500000000000011 15.596084476349189 1.5000000000000002 32.041666666666679 12.450000000000001 40.139423076923087 17.653581337975815 23.200000000000003 25.950000000000003 28.550000000000004
decision_type=2 2 2 2 2 2 2 2 2 2 2 2 2 2
left_child=1 7 3 6 5 -3 -2 13 -9 -5 11 -4 -12 -1
right_child=2 4 10 9 -6 -7 -8 8 -10 -11 12 -13 -14 -15
leaf_value=-0.027280565367323262 -0.0074545152324245858 -0.018393358318718848 0.027143366413065664 0.027573689719415324 0.036012864619444244 0.0051310772390175344 0.013321437968698079 -0.034087541078666676 -0.0055472587461971139 0.0075464768044178595 0.025753063538658336 0.00011504981013836591 0.039092918273148806 -0.041369543675622546
leaf_weight=3.8863272666931135 24.420644730329514 21.400786876678467 50.010989964008331 89.409138649702072 9.1419781893491727 276.81513598561287 153.34091731905937 10.294391259551047 173.24714608490467 25.196302577853203 48.127721011638641 18.004440292716026 47.611509263515472 6.5210159868001938
leaf_count=19 82 85 132 239 24 944 454 56 725 75 128 55 117 33
internal_value=0.00902899 -0.000661857 0.0196799 0.0154469 0.00441165 0.0034429 0.0104673 -0.00870203 -0.00714801 0.0231707 0.0272374 0.0199887 0.032387 -0.0361084
internal_weight=957.428 501.307 456.122 292.367 307.358 298.216 177.762 193.949 183.542 114.605 163.755 68.0154 95.7392 10.4073
internal_count=3168 1886 1282 850 1053 1029 536 833 781 314 432 187 245 52
is_linear=0
shrinkage=0.03


Tree=25
num_leaves=16
num_cat=0
split_feature=20 20 4 20 6 5 6 20 8 40 44 20 42 6 46
split_gain=103.54 21.4883 15.4255 11.8559 10.4068 10.7106 9.68154 9.25532 10.3321 8.54303 8.30036 6.75174 7.41053 1.53703 0.638591
threshold=22.650000000000002 18.750000000000004 5.6633333333333349 25.900000000000002 5.4712874453644158 2.6770833333333335 9.3934543717152419 12.450000000000001 1.5711548987411057 20.537321940595653 40.139423076923087 29.850000000000005 17.653581337975815 11.068501170960189 0.22859982959386538
decision_type=2 2 2 2 2 2 2 2 2 2 2 2 2 2 2
left_child=1 7 3 6 9 -6 -2 14 -9 -3 -5 12 -4 -13 -1
right_child=2 4 11 10 5 -7 -8 8 -10 -11 -12 13 -14 -15 -16
leaf_value=-0.039019886707086976 0.016342718236793511 0.00038952962321218878 0.014735638585791517 0.026831201629113482 -0.020444813335807124 0.0053549771883174436 0.0022363827085490773 -0.0098792319614872583 0.0041582479849824631 0.043486959845364485 0.0073249715915409287 0.029048437244270007 0.029278450354185078 0.043515824876690673 -0.023512616434223275
leaf_weight=7.4398194551467878 99.757035806775093 6.5782778114080456 52.027315378189087 89.131025686860085 15.468648076057432 226.99473813176155 78.047169715166092 163.22124491631985 66.382952839136124 11.166019588708876 25.179738730192184 9.5264550149440783 80.064147531986237 21.582120209932327 3.5211067050695419
leaf_count=42 289 23 147 239 59 759 247 697 256 31 75 25 208 52 19
internal_value=0.00877049 -0.000643243 0.0191241 0.0149968 0.00533204 0.00370901 0.0101507 -0.00710641 -0.00582073 0.0275096 0.0225345 0.0265116 0.0235504 0.0390854 -0.0340383
internal_weight=956.088 500.773 455.315 292.115 260.208 242.463 177.804 240.565 229.604 17.7443 114.311 163.2 132.091 31.1086 10.9609
internal_count=3168 1886 1282 850 872 818 536 1014 953 54 314 432 355 77 61
is_linear=0
shrinkage=0.03


Tree=26
num_leaves=15
num_cat=0
split_feature=20 20 10 20 42 36 37 34 37 7 7 9 46 9
split_gain=98.0132 21.1 16.6459 13.1879 16.4082 12.2115 10.5041 9.88192 14.1955 10.2006 8.58753 8.45396 5.71745 4.28899
threshold=21.150000000000002 27.650000000000002 70.500000000000014 15.750000000000002 19.104420124316274 16.227426269273263 22.381620444058296 22.941879538367488 22.941879538367488 7.3799308401639356 4.1468365061590156 30.757142857142863 0.20341060152874713 97.633333333333354
decision_type=2 2 2 2 2 2 2 2 2 2 2 2 2 2
left_child=3 2 12 4 10 -4 -6 9 -9 -5 -1 -3 -2 -13
right_child=1 11 5 7 6 -7 -8 8 -10 -11 -12 13 -14 -15
leaf_value=-0.036283301235284719 0.0043864719000384937 -0.018606457798359653 0.0036358991854627443 -0.0045652396475333711 -0.021711440778443735 0.016940333253167211 0.030120266961006947 0.020166561791722538 -0.029274034776695195 0.01252773064524155 -0.011975459719913038 0.025108449596259925 -0.032348793017781756 0.038281867615829301
leaf_weight=23.636721074581146 6.5189397633075705 3.6350757181644431 76.85314504802227 248.98919025063515 5.3766846805810919 323.21290609240532 10.184485509991644 36.489736691117287 6.1005049645900717 35.959855332970619 29.28794176876545 111.46894837915897 9.1865728199481946 27.788529872894287
leaf_count=121 25 15 240 964 25 934 35 117 25 125 133 297 43 69
internal_value=0.00851996 0.0166131 0.0131952 -0.0028969 -0.0148692 0.0143845 0.0122114 -0.000393583 0.0130848 -0.00240815 -0.0228316 0.0265582 -0.017101 0.0277372
internal_weight=954.689 558.664 415.772 396.025 68.4858 400.066 15.5612 327.539 42.5902 284.949 52.9247 142.893 15.7055 139.257
internal_count=3168 1623 1242 1545 314 1174 60 1231 142 1089 254 381 68 366
is_linear=0
shrinkage=0.03


Tree=27
num_leaves=15
num_cat=0
split_feature=20 20 4 20 13 36 3 44 38 44 20 42 6 28
split_gain=92.801 19.4399 14.4642 10.9806 9.97772 9.73957 9.61791 8.85634 8.46755 7.89559 6.45167 6.96715 1.49322 0.5351
threshold=22.650000000000002 17.950000000000003 5.6633333333333349 25.900000000000002 7.0500000000000007 20.20203555147398 1.5000000000000002 32.041666666666679 22.577753049840108 40.139423076923087 29.850000000000005 17.653581337975815 11.068501170960189 28.550000000000004
decision_type=2 2 2 2 2 2 2 2 2 2 2 2 2 2
left_child=1 7 3 6 5 -3 -2 13 -9 -5 11 -4 -12 -1
right_child=2 4 10 9 -6 -7 -8 8 -10 -11 12 -13 -14 -15
leaf_value=-0.026515179281569191 -0.0080312877037243199 0.001672306797345708 0.013851459685905938 0.025608596306091119 0.044215323539534619 0.021023695580433845 0.012239396541456735 -0.024025838935419999 -0.0042016330002515737 0.0065418343676103717 0.027758866228816338 0.027980931216293359 0.042140381641623127 -0.040748061947395366
leaf_weight=3.8037087768316251 24.420842677354813 276.8353241533041 51.866952762007713 88.482906624674797 5.4633571356534949 25.569698333740234 153.35643437504768 22.069749265909195 159.78439503908157 25.089115113019943 9.382153585553171 79.627182304859161 21.134300753474236 6.3396953344345093
leaf_count=19 82 962 147 239 13 78 454 106 675 75 25 208 52 33
internal_value=0.00827688 -0.000637568 0.0181058 0.0141099 0.00403447 0.00330855 0.00945486 -0.0081292 -0.00660749 0.0213966 0.0252917 0.0224077 0.0377188 -0.0354108
internal_weight=953.226 499.866 453.36 291.349 307.868 302.405 177.777 191.998 181.854 113.572 162.011 131.494 30.5165 10.1434
internal_count=3168 1886 1282 850 1053 1040 536 833 781 314 432 355 77 52
is_linear=0
shrinkage=0.03


Tree=28
num_leaves=14
num_cat=0
split_feature=20 20 20 10 44 7 40 9 5 36 46 41 21
split_gain=87.6203 19.4214 12.4126 10.6774 9.40209 12.1641 11.1516 9.30337 8.73757 7.34901 5.49091 4.03172 2.61869
threshold=21.150000000000002 25.550000000000004 14.950000000000001 71.500000000000014 41.091666666666676 1.9534930677076328 21.637823915036293 30.757142857142863 7.9000000000000012 16.053524396315662 0.20341060152874713 19.333911026324159 9.5500000000000025
decision_type=2 2 2 2 2 2 2 2 2 2 2 2 2
left_child=2 3 11 10 5 -4 -6 -3 -5 -9 -2 -1 -13
right_child=1 7 4 8 6 -7 -8 9 -10 -11 -12 12 -14
leaf_value=-0.0025277004331228049 0.0068889365576523011 -0.021631758249045552 -0.020497719383193089 0.01319412164216026 -0.022477583153925763 0.0023174527031359802 0.0069895181226707435 0.012969079779950788 -0.013495219288278629 0.026248233062062774 -0.03081604091895845 -0.039112799771818932 -0.017816092275263987
leaf_weight=7.0907317548990276 6.1542214751243574 4.2150029242038718 22.668324053287506 306.52089609205723 35.916699841618538 291.31271350383759 17.04342745244503 47.924288749694824 11.452164337038992 172.58320227265358 7.9878374934196472 10.651518598198892 10.146322861313818
leaf_count=32 23 18 97 910 153 1090 60 137 38 460 37 60 53
internal_value=0.00804197 0.0157071 -0.00276839 0.0110985 -0.00130195 0.000670278 -0.0129946 0.0225183 0.0122329 0.0233622 -0.0144079 -0.0220629 -0.0287231
internal_weight=951.667 556.838 394.83 332.115 366.941 313.981 52.9601 224.722 317.973 220.507 14.1421 27.8886 20.7978
internal_count=3168 1623 1545 1008 1400 1187 213 615 948 597 60 145 113
is_linear=0
shrinkage=0.03


Tree=29
num_leaves=15
num_cat=0
split_feature=20 20 34 21 4 44 46 13 36 38 22 6 46 20
split_gain=83.1372 17.6821 13.907 13.2163 11.1098 10.7334 10.0856 9.44908 10.7077 8.94018 7.88512 10.6449 6.38195 0.00711113
threshold=22.650000000000002 18.050000000000004 20.755827354631055 9.9500000000000011 5.2900000000000018 31.854166666666668 0.22212028542303772 7.0500000000000007 16.410503663416986 22.577753049840108 25.250000000000004 8.875395228513943 0.24448191868090688 16.350000000000005
decision_type=2 2 2 2 2 2 2 2 2 2 2 2 2 2
left_child=1 5 3 4 -2 13 -5 8 -3 -7 11 -4 -12 -1
right_child=2 7 10 6 -6 9 -8 -9 -10 -11 12 -13 -14 -15
leaf_value=-0.039577743335185052 0.0080923704413274483 -0.0072910619289712564 -0.018809302706710041 0.008256149945080558 0.021255429183562068 -0.023925418600379857 -0.023978092243821247 0.043132002002350282 0.0063177148724506988 -0.0037184072883260193 0.028271251633428446 0.02187670637890294 0.0077829592763228117 -0.041315615391591606
leaf_weight=4.8807772248983365 102.36396001279354 67.351035863161087 8.6523582041263598 23.605868950486183 132.28151908516884 22.352215424180031 13.868253156542776 5.4374216794967642 228.82873809337616 166.4095942825079 137.79539024829865 17.479613736271858 15.191638007760046 3.7450457960367203
leaf_count=27 312 249 29 73 361 109 49 13 765 704 365 48 45 19
internal_value=0.00781236 -0.000625891 0.0171438 0.0128709 0.0155131 -0.00760668 -0.00367295 0.00394255 0.00322309 -0.00611122 0.0236353 0.00840547 0.0262368 -0.0403323
internal_weight=950.243 499.005 451.239 272.12 234.645 197.388 37.4741 301.617 296.18 188.762 179.119 26.132 152.987 8.62582
internal_count=3168 1886 1282 795 673 859 122 1027 1014 813 487 77 410 46
is_linear=0
shrinkage=0.03


Tree=30
num_leaves=16
num_cat=0
split_feature=20 10 35 20 26 9 20 38 24 46 44 8 30 36 28
split_gain=78.4906 17.6793 16.376 14.8649 11.5968 10.6851 10.0749 9.80061 18.4686 10.1974 8.29747 8.11435 5.82775 5.78089 0.536265
threshold=22.200000000000006 92.500000000000014 21.222864019253915 17.950000000000003 23.750000000000004 67.90000000000002 26.900000000000002 21.411180165731089 23.600000000000005 0.20247206378768476 32.041666666666679 1.1506180643348787 19.750000000000004 17.55509866894792 28.550000000000004
decision_type=2 2 2 2 2 2 2 2 2 2 2 2 2 2 2
left_child=3 5 4 10 -3 13 -7 9 -9 -5 14 -12 -4 -2 -1
right_child=1 2 12 7 -6 6 -8 8 -10 -11 11 -13 -14 -15 -16
leaf_value=-0.025475007932530342 -0.021560727561851553 0.010995984902500335 0.020078445438586997 -0.01151510950057354 0.027874085038720253 0.0042393590583483399 0.027996194743297023 0.0030110484818287415 -0.03354049525699164 0.025361199304090112 -0.01984612640110461 -0.003187320975944769 0.032457233672128008 0.0068045138771545234 -0.039967197723560208
leaf_weight=3.6880819946527463 17.005153849720958 186.45094472169876 58.802352592349052 8.6686928719282133 45.598184078931808 56.919930711388588 22.383879706263542 226.67114534974098 13.163765639066694 30.475492998957634 31.985076189041138 148.45349258184433 81.904570952057838 10.434128522872923 6.0970683991909027
leaf_count=19 71 541 163 32 120 174 59 786 56 87 147 634 211 35 33
internal_value=0.00759046 0.0161264 0.019209 -0.0011328 0.0143126 0.00536169 0.0109448 0.00327649 0.00100485 0.0171947 -0.0075994 -0.00614031 0.0272841 -0.0107745 -0.034505
internal_weight=948.702 479.499 372.756 469.203 232.049 106.743 79.3038 278.979 239.835 39.1442 190.224 180.439 140.707 27.4393 9.78515
internal_count=3168 1374 1035 1794 661 339 233 961 842 119 833 781 374 106 52
is_linear=0
shrinkage=0.03


Tree=31
num_leaves=14
num_cat=0
split_feature=20 20 10 20 36 44 15 46 9 46 9 41 21
split_gain=74.1517 17.85 14.0951 11.5036 10.8481 8.92119 11.4748 11.4737 7.14851 5.26345 4.12192 4.00641 2.61166
threshold=21.150000000000002 27.650000000000002 70.500000000000014 14.950000000000001 16.227426269273263 40.679487179487182 8.2130464954892464 0.15612032439830523 30.757142857142863 0.20341060152874713 97.633333333333354 19.333911026324159 9.5500000000000025
decision_type=2 2 2 2 2 2 2 2 2 2 2 2 2
left_child=3 2 9 11 -4 7 -7 -5 -3 -2 -10 -1 -13
right_child=1 8 4 5 -6 6 -8 -9 10 -11 -12 12 -14
leaf_value=-0.0017993432371341263 0.0037744658747707088 -0.01797974549074309 0.0022882990783801441 0.051851532368011016 0.01483732350872316 0.024977070724686103 -0.016769811381983805 0.00019436399795535363 0.022263836946835203 -0.031553071816813501 0.035408741781533339 -0.038663659133195485 -0.017149471140302415
leaf_weight=7.0056797116994884 6.5580397248268119 3.598846733570098 76.761757299304008 3.9196881651878348 322.3397279381752 6.6970976293086997 51.445102363824844 303.7437292188406 108.73387709259987 9.0110672414302808 26.752042099833488 10.350144669413568 9.9697844535112363
leaf_count=32 25 15 240 12 934 22 213 1153 297 43 69 60 53
internal_value=0.00737701 0.0144506 0.0113313 -0.00258674 0.0124237 -0.00118416 -0.0119612 0.000852486 0.0237509 -0.0166724 0.0248593 -0.021363 -0.0281079
internal_weight=946.887 553.755 414.671 393.131 399.101 365.806 58.1422 307.663 139.085 15.5691 135.486 27.3256 20.3199
internal_count=3168 1623 1242 1545 1174 1400 235 1165 381 68 366 145 113
is_linear=0
shrinkage=0.03


Tree=32
num_leaves=16
num_cat=0
split_feature=20 20 20 0 36 6 8 38 41 7 40 42 4 37 36
split_gain=70.4772 15.2877 13.0179 11.625 10.3923 9.99653 9.46384 9.40942 8.73508 9.7982 7.62826 6.74084 5.322 4.52606 1.45459
threshold=22.650000000000002 18.750000000000004 29.850000000000005 1.0000000180025095e-35 18.14372230428361 5.4712874453644158 0.69782608695652182 19.526927210141888 23.587749933503186 7.4303484706483784 20.537321940595653 17.073636972559814 5.4733333333333336 22.362521341728655 17.437445778323937
decision_type=2 2 2 2 2 2 2 2 2 2 2 2 2 2 2
left_child=1 8 3 6 -5 10 -2 -7 9 -1 -3 -10 13 -4 -14
right_child=2 5 12 4 -6 7 -8 -9 11 -11 -12 -13 14 -15 -16
leaf_value=-0.012199454276108088 -0.032744626260647648 0.00032678433400000923 0.011329504232768749 0.013969428787709652 0.028494897787131056 0.01840075293672265 0.0094750963290687988 0.00057842637913587574 0.034265074433901956 0.0064980874047924023 0.041010428612870374 0.00081292552073856971 0.029950202102318815 0.038581963182176868 0.042381399132016134
leaf_weight=155.14422887563705 4.907862275838851 6.5549802929163006 19.977201521396641 133.90196724236012 66.26850226521492 30.4800705909729 181.09515808522701 212.78174024820328 6.1632400155067435 30.121714025735855 11.295582354068754 45.038600116968155 15.950544163584707 7.5603540241718283 18.067008391022682
leaf_count=705 18 23 61 386 174 91 535 727 20 116 31 173 43 19 46
internal_value=0.00716767 -0.000602578 0.0158031 0.0137607 0.0187782 0.00440161 0.00836109 0.00281152 -0.0061283 -0.00915949 0.0260708 0.00483961 0.0286159 0.0188116 0.0365525
internal_weight=945.309 497.58 447.729 386.173 200.17 261.112 186.003 243.262 236.468 185.266 17.8506 51.2018 61.5551 27.5376 34.0176
internal_count=3168 1886 1282 1113 560 872 553 818 1014 821 54 193 169 80 89
is_linear=0
shrinkage=0.03


Tree=33
num_leaves=15
num_cat=0
split_feature=20 10 35 22 41 26 6 33 20 46 46 38 11 30
split_gain=66.5354 16.2366 15.1977 12.9816 15.8283 10.7909 9.82149 12.7889 11.1182 9.58865 13.2504 11.4954 9.48973 5.62791
threshold=22.200000000000006 92.500000000000014 21.222864019253915 19.300000000000001 26.370084387405608 23.750000000000004 9.3051724137931071 20.620105025304248 33.050000000000004 0.18651821695863149 0.18540179638673543 19.526927210141888 23.550000000000004 19.750000000000004
decision_type=2 2 2 2 2 2 2 2 2 2 2 2 2 2
left_child=3 6 5 4 12 -3 7 -2 -8 10 -5 -11 -1 -4
right_child=1 2 13 9 -6 -7 8 -9 -10 11 -12 -13 -14 -15
leaf_value=-0.025056258974281591 0.0030471410407684266 0.009922184934659805 0.018560755772451858 0.007242128738085332 0.024180980045470073 0.026303731908149827 -0.0084044421254739869 0.035064160129754461 0.035404804360190542 0.015179030889530556 0.052686686644219285 -0.0028323338742805471 -0.00025786433220888709 0.03079812001435665
leaf_weight=46.307705774903297 31.803319066762924 185.81223030388355 58.210254415869713 54.464441210031509 9.2994367480277997 44.943810850381851 51.233116716146469 17.355834603309631 5.8043419271707526 35.747779667377472 6.4592289179563513 295.62948712706566 19.837996482849121 80.733402162790298
leaf_count=227 103 541 163 198 31 120 176 45 15 114 18 1118 88 211
internal_value=0.00696515 0.0148627 0.0178326 -0.00107001 -0.0124666 0.0131128 0.00452362 0.0143509 -0.00394625 0.00112171 0.0120602 -0.000889333 -0.0176189 0.0256713
internal_weight=943.642 475.896 369.7 467.746 75.4451 230.756 106.197 49.1592 57.0375 392.301 60.9237 331.377 66.1457 138.944
internal_count=3168 1374 1035 1794 346 661 339 148 191 1448 216 1232 315 374
is_linear=0
shrinkage=0.03


Tree=34
num_leaves=15
num_cat=0
split_feature=20 20 10 20 36 44 7 40 46 9 37 41 35 21
split_gain=63.0623 16.0459 12.9891 10.453 9.98528 8.50879 11.3059 10.4849 4.97623 4.75773 6.13479 3.9048 3.46117 2.61449
threshold=21.150000000000002 27.650000000000002 70.500000000000014 14.950000000000001 16.227426269273263 41.091666666666676 1.9534930677076328 21.637823915036293 0.20341060152874713 97.633333333333354 22.705676509322796 19.333911026324159 19.533426994069288 9.5500000000000025
decision_type=2 2 2 2 2 2 2 2 2 2 2 2 2 2
left_child=3 2 8 11 -4 6 -5 -7 -2 10 -3 -1 -11 -13
right_child=1 9 4 5 -6 7 -8 -9 -10 12 -12 13 -14 -15
leaf_value=-0.0011942996111565115 0.0032224626864081067 0.015164031337119653 0.0016951564627689653 -0.019800492221501386 0.013742607140496202 -0.021634873995047654 0.0023481742288320629 0.0070368378787555351 -0.031154496980896736 0.017522251230825053 0.030988449926624275 -0.038148523704945952 0.041142925926378984 -0.016313447917430134
leaf_weight=6.9348065406084087 6.585868924856185 80.163581624627113 76.68513748049736 22.338105127215385 321.52015148103237 35.286310732364655 290.32090961933136 17.013588860630989 8.9261121451854688 8.1138730049133319 30.414303705096245 9.9907987564802188 17.900532409548759 9.7535593211650831
leaf_count=32 25 232 240 97 934 153 1090 60 43 23 80 60 46 53
internal_value=0.00676853 0.0133169 0.0103734 -0.00243287 0.0114225 -0.00110773 0.00076575 -0.0123077 -0.0165592 0.0222322 0.0195165 -0.0205603 0.0337757 -0.0273622
internal_weight=941.948 550.31 413.717 391.638 398.205 364.959 312.659 52.2999 15.512 136.592 110.578 26.6792 26.0144 19.7444
internal_count=3168 1623 1242 1545 1174 1400 1187 213 68 381 312 145 69 113
is_linear=0
shrinkage=0.03


end of trees

feature_importances:
starter_k_percent_season=122
starter_max_pitches_30d=30
opp_team_put_away_vs_primary_pitch=28
opp_team_whiff_vs_starter_arsenal=24
opp_team_hits_per_pa_14d=23
starter_era_30d=17
opp_team_whiff_vs_secondary_pitch=17
opp_team_pa_per_game_14d=17
starter_avg_ip_30d=16
starter_avg_pitches_30d=16
starter_prior_ip_vs_opp=15
opp_team_whiff_vs_primary_pitch=15
starter_whip_30d=13
starter_avg_batters_faced_30d=13
starter_primary_pitch_whiff_percent=9
opp_team_k_vs_starter_arsenal=9
is_home=8
starter_k_per_9_30d=8
starter_bb_percent_season=8
starter_primary_pitch_k_percent=8
opp_team_put_away_vs_starter_arsenal=8
starter_secondary_pitch_put_away=7
opp_team_k_vs_primary_pitch=7
starter_avg_so_30d=6
starter_whiff_percent_season=6
starter_primary_pitch_put_away=6
opp_team_k_vs_secondary_pitch=5
starter_starts_30d=3
starter_secondary_pitch_whiff_percent=3
starter_arsenal_whiff_percent=3
opp_team_games_14d=3
starter_secondary_pitch_usage=2
starter_prior_k_per_9_vs_opp=1
starter_arsenal_put_away=1

parameters:
[boosting: gbdt]
[objective: binary]
[metric: binary_logloss]
[tree_learner: serial]
[device_type: cpu]
[data_sample_strategy: bagging]
[data: ]
[valid: ]
[num_iterations: 1000]
[learning_rate: 0.03]
[num_leaves: 31]
[num_threads: 16]
[seed: 42]
[deterministic: 0]
[force_col_wise: 0]
[force_row_wise: 0]
[histogram_pool_size: -1]
[max_depth: 4]
[min_data_in_leaf: 20]
[min_sum_hessian_in_leaf: 0.001]
[bagging_fraction: 1]
[pos_bagging_fraction: 1]
[neg_bagging_fraction: 1]
[bagging_freq: 0]
[bagging_seed: 400]
[bagging_by_query: 0]
[feature_fraction: 1]
[feature_fraction_bynode: 1]
[feature_fraction_seed: 30056]
[extra_trees: 0]
[extra_seed: 12879]
[early_stopping_round: 0]
[early_stopping_min_delta: 0]
[first_metric_only: 0]
[max_delta_step: 0]
[lambda_l1: 0]
[lambda_l2: 0]
[linear_lambda: 0]
[min_gain_to_split: 0]
[drop_rate: 0.1]
[max_drop: 50]
[skip_drop: 0.5]
[xgboost_dart_mode: 0]
[uniform_drop: 0]
[drop_seed: 17869]
[top_rate: 0.2]
[other_rate: 0.1]
[min_data_per_group: 100]
[max_cat_threshold: 32]
[cat_l2: 10]
[cat_smooth: 10]
[max_cat_to_onehot: 4]
[top_k: 20]
[monotone_constraints: ]
[monotone_constraints_method: basic]
[monotone_penalty: 0]
[feature_contri: ]
[forcedsplits_filename: ]
[refit_decay_rate: 0.9]
[cegb_tradeoff: 1]
[cegb_penalty_split: 0]
[cegb_penalty_feature_lazy: ]
[cegb_penalty_feature_coupled: ]
[path_smooth: 0]
[interaction_constraints: ]
[verbosity: 1]
[saved_feature_importance_type: 0]
[use_quantized_grad: 0]
[num_grad_quant_bins: 4]
[quant_train_renew_leaf: 0]
[stochastic_rounding: 1]
[linear_tree: 0]
[max_bin: 255]
[max_bin_by_feature: ]
[min_data_in_bin: 3]
[bin_construct_sample_cnt: 200000]
[data_random_seed: 175]
[is_enable_sparse: 1]
[enable_bundle: 1]
[use_missing: 1]
[zero_as_missing: 0]
[feature_pre_filter: 1]
[pre_partition: 0]
[two_round: 0]
[header: 0]
[label_column: ]
[weight_column: ]
[group_column: ]
[ignore_column: ]
[categorical_feature: ]
[forcedbins_filename: ]
[precise_float_parser: 0]
[parser_config_file: ]
[objective_seed: 16083]
[num_class: 1]
[is_unbalance: 0]
[scale_pos_weight: 1.82857]
[sigmoid: 1]
[boost_from_average: 1]
[reg_sqrt: 0]
[alpha: 0.9]
[fair_c: 1]
[poisson_max_delta_step: 0.7]
[tweedie_variance_power: 1.5]
[lambdarank_truncation_level: 30]
[lambdarank_norm: 1]
[label_gain: ]
[lambdarank_position_bias_regularization: 0]
[eval_at: ]
[multi_error_top_k: 1]
[auc_mu_weights: ]
[num_machines: 1]
[local_listen_port: 12400]
[time_out: 120]
[machine_list_filename: ]
[machines: ]
[gpu_platform_id: -1]
[gpu_device_id: -1]
[gpu_use_dp: 0]
[num_gpu: 1]

end of parameters

pandas_categorical:[]
